  -0.14568,  -0.34413,   0.06689,   0.46734,   0.03782,  -0.21334,   0.78013,  -0.18868,   0.35938,   0.79479
  -0.02013,   0.93750,  -0.93750,   0.42347,   0.30452,   0.29604,   0.54776,   0.93750,   0.93750,  -0.78630
   0.21448,   0.05146,  -0.29332,   0.06671,  -0.39087,   0.22713,   0.22112,   0.58818,   0.83112,   0.20270
  -0.82356,   0.04854,  -0.35550,   0.28742,  -0.73696,  -0.47934,   0.03650,  -0.38543,   0.14186,  -0.87098
   0.91261,   0.82496,  -0.67122,  -0.79473,   0.80229,  -0.87665,   0.93750,   0.93750,   0.88186,  -0.49163
  -0.84054,  -0.16155,   0.44806,   0.09217,   0.93750,   0.93750,  -0.75327,  -0.69700,  -0.79422,   0.47677
   0.19650,   0.48694,  -0.80252,   0.27460,   0.07948,  -0.89435,  -0.31892,   0.92141,   0.32386,  -0.93750
   0.48994,   0.04689,  -0.33554,   0.84276,  -0.67154,   0.70132,  -0.46028,   0.42920,  -0.24841,  -0.05242
  -0.93750,  -0.81214,   0.93750,  -0.73597,   0.93750,  -0.89173,  -0.57676,  -0.93750,  -0.93750,   0.65654
  -0.40329,   0.93750,  -0.78416,   0.62751,   0.93750,  -0.76403,  -0.44593,  -0.93750,  -0.93750,  -0.93750
  -0.63931,  -0.67931,   0.80808,   0.93750,  -0.59525,   0.93750,  -0.63444,  -0.50310,  -0.02655,  -0.54291
   0.40494,   0.43736,  -0.88197,   0.74789,   0.93750,  -0.37071,  -0.93750,  -0.44812,  -0.71584,   0.62090
  -0.21283,   0.82969,   0.09961,   0.66885,   0.93750,  -0.82399,  -0.93750,   0.69280,  -0.74186,   0.24645
   0.79536,   0.83640,  -0.52424,  -0.61903,   0.57614,  -0.32129,  -0.26122,  -0.07787,   0.73727,  -0.79285
   0.93750,   0.87295,   0.93750,  -0.04519,   0.74932,   0.39454,  -0.68100,  -0.58737,   0.93750,   0.93750
   0.14489,   0.21833,  -0.70747,  -0.88041,   0.93750,   0.86008,   0.86593,   0.87674,  -0.93750,  -0.06547
  -0.93750,  -0.19615,  -0.93750,   0.93750,  -0.93750,   0.87820,   0.69185,  -0.93750,   0.43548,  -0.30859
  -0.38974,   0.93750,  -0.54941,  -0.52798,  -0.93750,   0.35502,  -0.87605,  -0.85884,   0.23177,  -0.63057
   0.11071,   0.87195,   0.27061,   0.93750,  -0.00796,  -0.71709,  -0.34593,  -0.25417,  -0.25731,   0.86294
   0.46201,   0.50404,  -0.32133,   0.45396,   0.51029,   0.87983,  -0.39769,   0.57289,  -0.41798,  -0.09374
  -0.18649,  -0.74283,   0.60284,  -0.88285,   0.87373,  -0.10866,   0.06776,  -0.79162,   0.74910,   0.93750
  -0.27606,  -0.73491,  -0.43354,   0.51724,  -0.93750,   0.12895,  -0.15264,  -0.93750,   0.16944,  -0.74067
   0.61057,  -0.93750,   0.93750,  -0.63122,   0.93750,   0.89254,  -0.93750,  -0.93750,   0.93750,  -0.29068
  -0.55469,   0.93750,  -0.87296,  -0.09547,   0.23108,  -0.25359,   0.93750,   0.87108,   0.46036,  -0.35561
  -0.24351,   0.82389,   0.41491,  -0.23606,   0.74441,   0.73644,  -0.33659,  -0.53923,   0.02125,  -0.87837
  -0.87934,   0.65495,   0.46078,   0.58208,   0.40716,  -0.06610,  -0.87975,  -0.53959,  -0.16049,  -0.26511
  -0.82586,  -0.78991,  -0.39867,  -0.67124,   0.75963,  -0.10862,  -0.11877,   0.93750,   0.18852,  -0.93750
   0.26807,   0.88328,  -0.57886,   0.87720,  -0.74531,  -0.63809,   0.48699,  -0.82133,   0.50102,  -0.61876
  -0.87442,  -0.13524,  -0.93750,   0.13014,  -0.93750,  -0.06686,  -0.77226,   0.93750,   0.13889,   0.11944
  -0.41196,   0.54533,  -0.23802,  -0.51456,   0.69088,  -0.47597,   0.02505,  -0.54067,   0.43892,   0.67528
   0.93750,  -0.48658,   0.93750,  -0.61859,  -0.93750,  -0.55032,  -0.80149,   0.59822,  -0.18769,  -0.52635
   0.62481,   0.58434,   0.05492,   0.83609,  -0.09655,   0.13286,   0.93750,  -0.76305,   0.93750,   0.54674
   0.93750,  -0.93750,  -0.06848,  -0.37978,   0.93750,   0.79268,   0.93750,  -0.23559,  -0.20908,  -0.28324
   0.60084,   0.41748,  -0.87226,   0.11398,   0.93750,   0.54780,  -0.93750,  -0.73855,  -0.75522,  -0.93651
   0.27835,  -0.03347,   0.11027,  -0.16335,   0.80788,   0.08354,   0.87048,   0.80922,   0.75158,  -0.37995
  -0.44879,   0.00804,  -0.46209,  -0.04317,   0.20117,   0.76555,   0.77205,   0.04234,  -0.34575,   0.87914
   0.56691,   0.93750,   0.93750,  -0.93750,  -0.82230,  -0.13447,  -0.01327,  -0.17102,  -0.11341,   0.93750
  -0.00578,   0.93750,  -0.75001,  -0.86609,  -0.75225,  -0.80979,   0.65100,   0.76222,   0.87205,   0.77814
  -0.08935,   0.69179,   0.93750,   0.32037,   0.44592,  -0.17674,  -0.74397,   0.03167,  -0.04247,   0.53906
   0.93750,   0.39826,   0.93750,  -0.17409,   0.15762,  -0.83359,  -0.12671,  -0.15657,   0.75484,  -0.23958
   0.93750,  -0.64953,  -0.93750,  -0.51226,   0.12298,  -0.43398,   0.42354,   0.75975,   0.93750,  -0.40286
   0.20153,   0.35671,   0.56233,  -0.31252,   0.88982,  -0.81721,   0.30576,  -0.70221,   0.28380,   0.86414
  -0.27448,  -0.18254,  -0.81810,   0.34953,   0.71828,  -0.28882,   0.93750,   0.02591,  -0.93750,   0.93750
   0.93750,   0.82951,   0.67799,   0.27623,   0.93750,  -0.93750,   0.93750,   0.93750,   0.40049,   0.93750
  -0.24721,  -0.05634,  -0.87720,  -0.64820,   0.60013,   0.93750,  -0.67892,   0.87748,   0.69278,  -0.15670
  -0.48383,   0.16201,   0.67155,  -0.54117,   0.93750,  -0.08181,   0.28542,  -0.21537,   0.31994,   0.43928
   0.53566,   0.93750,  -0.87359,  -0.93750,   0.93750,   0.93750,   0.03773,  -0.75729,   0.10000,   0.93316
  -0.61212,  -0.38341,   0.72870,   0.24896,   0.29952,   0.74205,   0.93750,  -0.50384,   0.42759,  -0.68369
   0.20954,   0.73440,  -0.84179,  -0.93750,   0.93750,  -0.52145,   0.75079,   0.93750,  -0.76201,  -0.02515
  -0.11115,   0.93750,   0.27960,  -0.21865,   0.32318,   0.07719,  -0.63042,   0.07338,  -0.65212,  -0.27153
  -0.70602,  -0.69637,  -0.05390,  -0.59296,   0.93182,  -0.50422,   0.45559,  -0.34941,   0.18053,   0.46412
   0.34398,   0.66271,  -0.93750,  -0.28287,  -0.09062,  -0.56757,  -0.29907,   0.80898,   0.31470,   0.87290
   0.69641,   0.93750,  -0.74344,   0.19737,  -0.74865,   0.77480,   0.63524,   0.24462,  -0.02027,   0.93750
  -0.69567,   0.89896,  -0.93750,   0.39106,  -0.05597,  -0.50795,  -0.02155,  -0.79957,  -0.04647,  -0.54735
  -0.93750,   0.40507,  -0.49484,  -0.55595,   0.23893,   0.54218,   0.03899,   0.32506,  -0.43018,  -0.33460
  -0.17652,   0.93750,  -0.00579,  -0.75109,   0.86655,   0.93750,  -0.80492,   0.88328,   0.15479,  -0.02613
  -0.30387,   0.65823,  -0.19741,  -0.46972,  -0.46173,   0.77576,   0.62214,  -0.77551,   0.65748,  -0.07645
  -0.51398,  -0.93750,  -0.92093,  -0.73942,   0.16848,  -0.93750,   0.93750,  -0.93750,   0.93750,  -0.80344
  -0.93750,  -0.05943,   0.09494,  -0.63534,  -0.93750,  -0.43527,  -0.93750,  -0.93750,   0.33034,  -0.93750
  -0.57509,  -0.83216,  -0.93750,  -0.70019,  -0.84723,   0.93750,  -0.75017,  -0.93750,  -0.78764,  -0.08603
  -0.56244,   0.80977,   0.81310,   0.74985,   0.27141,   0.68670,   0.74302,   0.80080,  -0.81700,  -0.21497
  -0.68235,   0.22452,  -0.87601,   0.93750,   0.93750,  -0.93750,   0.88270,  -0.50070,   0.32306,  -0.41697
  -0.67109,   0.49677,  -0.01374,   0.01783,   0.80511,  -0.36400,   0.31795,   0.92863,  -0.72003,  -0.55299
   0.87609,   0.01937,   0.33538,  -0.44904,   0.93750,  -0.23656,  -0.18191,  -0.09155,  -0.49771,  -0.82425
  -0.87619,  -0.09695,   0.93750,  -0.93750,  -0.93750,  -0.93750,  -0.34479,   0.93750,  -0.24152,  -0.02780
  -0.36789,  -0.79322,  -0.93750,  -0.93750,  -0.29045,   0.93750,  -0.45297,   0.73724,   0.88173,   0.21672
  -0.28059,  -0.05188,   0.31797,  -0.04152,   0.27817,  -0.43448,  -0.48715,   0.93198,   0.92953,  -0.02328
   0.83336,   0.32354,   0.93750,  -0.87563,  -0.20368,   0.73729,   0.54756,  -0.87934,   0.72143,   0.27781
  -0.09898,   0.93750,  -0.93750,  -0.47300,   0.14976,  -0.93750,   0.02160,   0.84020,  -0.93750,   0.15175
  -0.93750,  -0.12000,   0.93750,   0.26753,   0.56510,  -0.81234,  -0.67725,  -0.87279,  -0.61577,   0.30126
   0.38511,  -0.15343,   0.05871,   0.35812,   0.73523,   0.18933,   0.88640,  -0.62935,  -0.40881,  -0.62962
   0.55144,   0.77782,   0.30778,  -0.47031,   0.06605,  -0.06245,  -0.26609,  -0.00224,  -0.67273,   0.11504
   0.22626,  -0.93750,  -0.56307,  -0.37565,  -0.93750,  -0.83542,   0.33777,  -0.41369,  -0.87066,   0.93750
  -0.93750,  -0.86478,  -0.93750,   0.93750,  -0.93750,   0.62783,  -0.93750,   0.68532,   0.55334,  -0.93750
  -0.80620,   0.76909,   0.13609,   0.25746,  -0.29672,  -0.19686,   0.36228,  -0.93750,  -0.36976,   0.26366
  -0.29207,   0.87217,   0.15558,  -0.80351,  -0.86718,  -0.64672,   0.27606,   0.78869,   0.10893,  -0.74675
  -0.62033,   0.93750,  -0.59900,  -0.74204,  -0.73875,  -0.79671,   0.62172,   0.66658,   0.31745,   0.02199
  -0.76752,   0.93750,   0.58393,  -0.93750,   0.93750,   0.93750,  -0.24350,   0.93086,   0.14929,  -0.63662
  -0.80197,  -0.06334,   0.52619,   0.93750,  -0.12746,  -0.69062,   0.93750,   0.93750,  -0.05111,   0.49837
   0.75738,   0.01206,  -0.78309,  -0.64153,  -0.83134,   0.81818,  -0.57534,   0.02515,   0.59412,   0.61625
   0.86129,  -0.45397,  -0.65433,  -0.20144,  -0.37294,  -0.50835,  -0.11124,  -0.10863,   0.87103,   0.20554
   0.93750,  -0.93750,  -0.07478,  -0.93750,  -0.93750,  -0.93750,   0.93750,  -0.93750,  -0.75088,  -0.93750
   0.51612,   0.31765,  -0.11920,  -0.05814,   0.86074,  -0.56719,  -0.14761,   0.11642,   0.90450,  -0.49737
   0.49275,  -0.75174,   0.47777,  -0.57040,   0.87696,  -0.48392,   0.55351,  -0.64182,   0.93750,   0.27776
   0.11061,   0.75090,  -0.87668,  -0.13973,   0.57001,  -0.93750,   0.93750,  -0.93750,   0.13734,  -0.68128
   0.25670,   0.07388,  -0.35292,   0.36008,   0.05816,   0.40360,  -0.40120,   0.65846,  -0.40268,  -0.63403
   0.35324,   0.74355,  -0.33036,  -0.67226,   0.15241,  -0.87743,   0.69193,  -0.11334,  -0.56843,  -0.23134
  -0.79264,   0.89884,  -0.05916,  -0.82945,   0.87242,  -0.34394,   0.04849,  -0.93750,   0.12632,   0.02506
   0.42030,   0.65794,  -0.93750,   0.93750,  -0.33543,  -0.93750,  -0.93750,   0.93750,   0.93750,  -0.93750
   0.44171,  -0.09058,  -0.80867,   0.72712,  -0.28696,  -0.88272,   0.55738,  -0.93750,  -0.05672,  -0.39486
  -0.93750,   0.93750,   0.93750,  -0.93750,   0.70395,  -0.93750,  -0.28794,   0.93750,  -0.50725,  -0.83636
   0.68368,   0.30614,   0.57758,   0.60944,  -0.68504,  -0.85034,   0.86941,   0.32629,   0.81740,   0.02694
  -0.00343,   0.80844,  -0.87742,  -0.60448,  -0.54439,  -0.31157,  -0.48304,   0.84168,  -0.42334,   0.04530
   0.21687,  -0.87644,  -0.14527,  -0.92631,   0.69822,  -0.81376,  -0.19623,  -0.75317,   0.64982,   0.93750
  -0.43954,   0.65759,  -0.40314,   0.45962,   0.80600,  -0.49074,  -0.23041,  -0.16944,   0.42462,   0.46784
   0.88011,   0.55838,  -0.40537,  -0.14049,   0.79694,   0.01912,  -0.04311,  -0.88017,  -0.59933,  -0.18018
  -0.93750,   0.27359,   0.93750,   0.22353,  -0.93750,   0.79572,  -0.47331,  -0.92157,  -0.93750,   0.30777
  -0.16321,  -0.24182,  -0.00095,   0.79270,   0.76774,   0.34758,  -0.42010,  -0.58142,   0.39649,   0.26601
  -0.49443,   0.93750,   0.92228,  -0.38940,   0.57097,   0.13499,  -0.93750,  -0.87151,  -0.03476,  -0.69627
  -0.85007,   0.34020,  -0.76763,   0.79919,  -0.81432,   0.93750,  -0.22858,  -0.68807,   0.93471,   0.15965
  -0.77382,   0.28202,   0.26125,  -0.03827,   0.46364,  -0.73654,  -0.81399,  -0.03109,  -0.62897,  -0.65300
  -0.93750,  -0.57765,   0.93750,   0.93750,  -0.82577,   0.66704,  -0.93750,   0.93750,  -0.09769,  -0.67413
  -0.74728,  -0.93750,   0.92330,  -0.93750,  -0.66250,   0.93750,  -0.86544,  -0.44563,   0.26878,   0.93750
  -0.54940,   0.76833,   0.68931,  -0.93750,  -0.93750,  -0.02688,  -0.05312,   0.12567,  -0.93750,  -0.51219
   0.93750,   0.46149,  -0.48289,  -0.42027,   0.93750,  -0.56603,   0.27747,  -0.38830,  -0.67375,   0.88202
   0.41271,   0.47945,  -0.93750,  -0.63164,   0.22339,   0.06383,   0.93750,  -0.53489,  -0.93750,   0.45562
   0.01158,  -0.27975,   0.12840,   0.27524,   0.93750,  -0.93750,   0.56378,  -0.93750,  -0.93750,   0.37165
   0.55782,   0.00242,   0.70452,  -0.93750,  -0.28292,   0.01058,  -0.63184,   0.93750,  -0.00939,   0.40039
   0.93750,  -0.93750,   0.69751,  -0.47030,   0.87688,   0.13633,  -0.20452,   0.22057,  -0.93750,   0.21851
   0.92966,  -0.28468,  -0.30973,   0.93750,   0.93750,   0.05339,  -0.62180,  -0.37065,   0.87893,  -0.69157
  -0.00014,  -0.36049,  -0.93750,  -0.76243,   0.55123,   0.04435,   0.87356,   0.87866,  -0.73010,   0.82245
   0.88412,  -0.93750,  -0.02936,  -0.52334,  -0.93750,  -0.93750,  -0.73656,  -0.73085,  -0.29856,   0.93750
  -0.05448,   0.70210,  -0.56435,   0.42205,   0.71788,  -0.11730,   0.24583,   0.51481,   0.11305,  -0.74023
   0.93750,   0.05292,   0.37900,   0.93750,  -0.08213,  -0.33306,   0.93750,  -0.93750,   0.47621,  -0.07180
   0.16915,   0.46807,   0.66446,  -0.18906,  -0.36640,  -0.44163,   0.20749,  -0.64570,  -0.05848,   0.71643
  -0.52076,   0.65549,  -0.76329,   0.53791,   0.07039,   0.15510,   0.79885,  -0.17986,   0.64600,  -0.52153
   0.90767,   0.93750,   0.31335,   0.34065,   0.63821,  -0.58404,  -0.06273,  -0.84619,  -0.19306,  -0.88001
   0.51686,  -0.62474,  -0.90174,   0.06801,   0.14265,   0.93750,   0.88726,   0.55266,   0.35249,  -0.62402
   0.93750,  -0.93750,   0.43786,   0.77504,  -0.93750,   0.06575,   0.93750,  -0.93750,  -0.48205,   0.31863
   0.80557,   0.23231,   0.45838,   0.60249,   0.29112,  -0.69419,  -0.05131,   0.25370,  -0.39599,  -0.43737
   0.06198,   0.81905,  -0.76194,   0.40961,   0.44992,  -0.87425,   0.73368,   0.93750,   0.53707,  -0.75920
  -0.39735,  -0.10789,   0.93750,  -0.40572,   0.39435,  -0.75090,  -0.63547,  -0.76458,  -0.78870,   0.93750
   0.19462,   0.47803,  -0.33857,  -0.38678,  -0.41242,  -0.35570,   0.54980,   0.59840,   0.51224,   0.45366
  -0.88122,  -0.38754,   0.26447,  -0.93750,  -0.87314,  -0.90261,  -0.93750,  -0.06744,  -0.75496,   0.93750
  -0.93750,  -0.87697,   0.86723,   0.03295,  -0.09359,  -0.02538,  -0.01036,   0.81661,  -0.93750,   0.87193
  -0.81047,  -0.80000,  -0.93750,   0.93750,   0.03212,  -0.37211,   0.93750,   0.10959,   0.93750,  -0.38948
  -0.23125,   0.68764,   0.88355,   0.38381,  -0.56406,   0.09715,  -0.05299,  -0.58072,   0.37851,   0.26865
   0.80882,  -0.54737,   0.19844,   0.64663,   0.44413,  -0.93744,  -0.44593,  -0.01014,   0.49193,  -0.53754
   0.64939,  -0.83403,  -0.26337,  -0.11697,   0.53107,   0.93750,   0.57512,   0.39481,   0.31990,  -0.81623
   0.74359,   0.41970,  -0.07089,   0.93750,   0.86796,  -0.73660,   0.93750,  -0.80702,  -0.47745,   0.61629
   0.75532,  -0.62267,  -0.26475,   0.74976,   0.93750,  -0.31979,  -0.31182,  -0.29602,   0.18131,  -0.27164
   0.15980,   0.15665,  -0.93750,  -0.93750,  -0.63215,   0.47517,   0.93750,   0.42267,   0.86355,   0.38451
  -0.36768,   0.08703,   0.81767,  -0.61203,  -0.87347,   0.90186,  -0.93750,  -0.68227,   0.62461,  -0.62314
   0.93750,   0.17677,  -0.93750,  -0.62338,   0.60203,  -0.93750,  -0.77596,   0.39437,   0.67328,   0.47423
  -0.53034,   0.09223,   0.01965,  -0.81593,   0.78389,  -0.52037,   0.53143,  -0.79689,  -0.42086,  -0.44999
   0.69428,   0.57575,  -0.93750,  -0.87891,   0.72687,  -0.33338,   0.87563,   0.51044,  -0.11800,  -0.75127
   0.08520,   0.00793,  -0.43677,   0.58697,  -0.93750,   0.29054,  -0.66167,  -0.13418,  -0.11614,  -0.75078
   0.00996,   0.76931,  -0.33892,   0.93750,  -0.13843,   0.39159,  -0.64371,   0.28253,   0.14179,  -0.42501
  -0.43298,   0.33800,  -0.93750,  -0.03906,  -0.84704,  -0.80429,   0.93750,  -0.63809,   0.93750,  -0.62815
   0.00075,  -0.68655,  -0.51274,   0.93750,  -0.23483,  -0.56806,  -0.07316,   0.86515,  -0.29890,  -0.51947
   0.02076,  -0.03995,   0.76317,   0.93750,   0.55194,   0.91874,  -0.93750,   0.93750,   0.87731,   0.07825
   0.81142,   0.93750,  -0.41294,   0.65014,   0.48711,   0.39201,  -0.28213,  -0.93750,  -0.88609,  -0.88109
   0.50930,  -0.02947,  -0.13600,   0.34515,  -0.10903,   0.15955,   0.67913,  -0.13249,  -0.14958,   0.05105
  -0.04527,   0.87000,  -0.07665,  -0.53917,   0.04877,  -0.20980,   0.25683,   0.45023,  -0.31845,   0.54874
   0.08688,  -0.57226,   0.17147,   0.34777,  -0.44572,  -0.16145,  -0.41054,  -0.64166,  -0.19368,   0.13767
   0.41653,   0.68269,   0.93750,  -0.48111,   0.93750,   0.33016,  -0.11883,  -0.90859,  -0.93750,   0.24903
  -0.58616,   0.21837,   0.93750,  -0.00637,   0.87275,  -0.74905,  -0.37793,   0.77622,   0.15028,   0.93750
  -0.22595,  -0.19611,  -0.56779,  -0.75385,   0.93750,  -0.87991,  -0.51259,  -0.87107,   0.85103,   0.38585
   0.61195,  -0.04051,  -0.71489,   0.69897,  -0.76213,  -0.23021,   0.80080,  -0.08240,  -0.36319,  -0.39930
   0.86456,  -0.93750,   0.54520,  -0.93750,  -0.77059,   0.60190,   0.80668,  -0.93750,   0.31787,   0.93750
  -0.40721,  -0.47179,  -0.56169,   0.47695,  -0.06116,   0.02792,   0.76109,   0.82424,  -0.46334,  -0.82114
  -0.28863,   0.48774,  -0.65234,   0.69137,   0.17619,  -0.58032,   0.62241,   0.82572,   0.34583,  -0.50676
  -0.77364,  -0.27370,  -0.93750,  -0.14501,   0.17604,   0.64298,  -0.86902,   0.39549,   0.34152,   0.43160
  -0.87894,   0.93750,  -0.93750,   0.93750,   0.87841,   0.93750,  -0.70922,   0.28912,  -0.37344,   0.93750
   0.43237,  -0.42154,  -0.81292,   0.29359,   0.93750,  -0.93750,   0.93750,  -0.22286,   0.41685,  -0.74037
  -0.09043,   0.74843,   0.41544,   0.93750,   0.19561,   0.53974,   0.69159,  -0.93750,  -0.48321,   0.88146
   0.22308,  -0.02540,   0.86901,   0.66311,   0.50004,   0.45606,   0.32447,   0.43168,   0.75910,  -0.08820
   0.27531,   0.30211,  -0.00931,  -0.51525,  -0.24632,   0.81685,  -0.55623,  -0.14991,   0.19126,   0.35326
   0.57804,   0.93750,   0.86865,  -0.74758,   0.30580,   0.66583,  -0.81379,   0.55708,  -0.67961,  -0.43947
   0.46112,   0.80239,  -0.60782,  -0.86970,   0.93750,  -0.93750,  -0.87431,   0.93750,   0.93750,  -0.58490
   0.75539,   0.82549,  -0.53673,  -0.18508,  -0.56450,  -0.72729,  -0.47061,  -0.28175,   0.47776,   0.90093
   0.04906,  -0.76581,   0.36733,  -0.63075,   0.13990,  -0.88526,   0.87120,  -0.10541,  -0.81538,   0.14681
   0.57204,  -0.93750,   0.93750,  -0.33469,   0.93750,   0.71671,  -0.63386,  -0.27194,  -0.93750,  -0.93750
   0.56749,  -0.42591,  -0.50230,   0.32989,   0.56402,   0.33159,   0.55596,  -0.33474,   0.76260,   0.89603
  -0.25984,  -0.16436,  -0.88596,   0.93750,  -0.48495,  -0.68452,   0.93750,   0.04934,   0.48121,   0.06124
   0.93750,   0.81470,   0.58366,   0.55698,   0.26334,   0.93750,  -0.82216,   0.91073,  -0.93750,  -0.20745
   0.70714,   0.42019,  -0.87463,  -0.86631,  -0.55539,   0.63069,   0.93750,  -0.56011,  -0.39639,   0.93750
   0.65671,   0.93750,  -0.62587,   0.49034,  -0.40365,  -0.93750,   0.36050,  -0.05156,  -0.41262,   0.37450
  -0.58036,  -0.38849,   0.93750,   0.93750,   0.67961,  -0.73993,  -0.48092,  -0.15840,  -0.92447,  -0.22377
  -0.61191,   0.84990,   0.44414,  -0.59723,   0.23336,   0.57517,  -0.93555,   0.93750,   0.45772,  -0.80935
   0.93750,  -0.25551,  -0.89736,  -0.48578,   0.93750,  -0.93750,  -0.27403,  -0.87611,  -0.75850,  -0.75529
   0.81830,  -0.24938,  -0.22877,   0.87737,   0.11971,  -0.79464,  -0.70783,   0.87731,   0.68626,  -0.58447
  -0.68884,  -0.09083,  -0.22820,   0.66524,   0.12243,   0.85158,  -0.71057,   0.85735,  -0.03451,  -0.38716
   0.69260,  -0.21429,  -0.93750,   0.74689,  -0.93750,   0.84152,  -0.01375,   0.02800,  -0.76671,   0.62509
  -0.93750,  -0.04538,  -0.50083,   0.93750,  -0.93750,  -0.79764,   0.93750,   0.24004,   0.93750,   0.46666
   0.29479,   0.75486,   0.15800,   0.44227,  -0.90967,  -0.82744,   0.60423,  -0.12501,   0.20303,  -0.89118
  -0.36999,  -0.34641,  -0.27664,   0.21668,   0.08524,  -0.93750,   0.92325,   0.26988,   0.93750,   0.80606
  -0.60272,   0.09733,   0.71068,   0.03305,   0.93750,  -0.71275,   0.09158,   0.70132,   0.93750,   0.34896
   0.51371,   0.41817,   0.12817,   0.34316,  -0.17742,   0.14431,   0.10445,   0.87218,   0.58498,  -0.34477
  -0.74801,   0.11564,   0.33165,  -0.69007,   0.93750,   0.04103,  -0.93750,   0.83024,  -0.23160,   0.80163
  -0.55900,  -0.10225,   0.87908,  -0.38500,  -0.59984,   0.29562,   0.13752,   0.52508,  -0.30730,   0.17321
   0.93750,  -0.93750,   0.93750,   0.93750,   0.93750,   0.77417,   0.62359,  -0.81344,  -0.93750,  -0.26276
   0.44579,  -0.53236,  -0.62346,   0.48741,  -0.50350,  -0.80061,   0.09657,  -0.15604,  -0.82076,  -0.80753
  -0.74379,  -0.93750,   0.00801,  -0.87167,   0.93750,  -0.32196,   0.22035,   0.60886,   0.70660,   0.30203
   0.10180,   0.45531,  -0.48265,  -0.61085,  -0.38040,   0.67539,   0.34266,  -0.73326,   0.62510,   0.75113
  -0.70104,  -0.40237,   0.59474,   0.93750,  -0.93750,  -0.82526,   0.15636,   0.93750,   0.30671,   0.93750
  -0.93750,  -0.48723,  -0.19653,  -0.77091,  -0.46340,   0.93750,  -0.80880,  -0.27446,   0.36115,  -0.78946
  -0.93750,  -0.93750,  -0.15728,   0.57841,  -0.79524,  -0.42442,   0.74956,  -0.63751,   0.93750,   0.93750
   0.82067,   0.93750,   0.92454,   0.07931,  -0.37488,   0.19484,   0.79268,   0.31559,   0.93750,  -0.29552
  -0.33780,  -0.93750,   0.34291,  -0.51756,  -0.93750,   0.36248,  -0.02573,   0.14064,   0.04237,  -0.93750
  -0.73338,  -0.51536,  -0.93750,  -0.21828,   0.53154,  -0.81483,   0.10021,   0.63906,   0.93750,   0.64624
  -0.50770,   0.59794,   0.04161,   0.93750,  -0.50682,  -0.02600,  -0.26937,   0.21635,  -0.44389,   0.56457
   0.42983,   0.10442,  -0.36333,  -0.70006,  -0.93750,   0.93750,  -0.75533,   0.35280,  -0.60665,   0.93750
   0.92654,   0.81853,   0.40268,   0.13431,   0.90973,  -0.41732,  -0.60055,  -0.49150,   0.06403,  -0.67391
  -0.67584,   0.73141,  -0.23957,  -0.65426,  -0.78563,   0.93750,   0.74986,  -0.03907,  -0.09601,   0.36162
   0.87530,   0.81439,   0.46335,   0.93750,  -0.45078,  -0.82143,   0.01624,  -0.17913,  -0.22833,  -0.87711
  -0.54988,  -0.93750,   0.93750,   0.93750,   0.81024,  -0.33139,  -0.42493,  -0.69025,  -0.93750,  -0.68368
   0.47489,   0.44937,   0.10304,  -0.85818,  -0.75623,   0.03790,  -0.74785,   0.40348,   0.49974,   0.88250
  -0.63014,   0.25218,  -0.28579,   0.27663,   0.93750,  -0.13288,   0.37591,   0.09321,  -0.19164,  -0.93750
  -0.04351,   0.07862,   0.76679,   0.19541,   0.58443,   0.04358,  -0.12063,   0.15385,   0.10576,  -0.67391
   0.23838,  -0.03963,   0.14803,  -0.03579,  -0.44024,   0.37901,   0.20954,   0.76849,   0.18302,   0.33235
   0.13683,  -0.58527,   0.48202,  -0.13767,   0.35946,  -0.24944,   0.74459,  -0.84463,   0.25815,   0.19557
   0.03117,  -0.46345,   0.11050,  -0.92874,   0.93750,   0.93750,  -0.82417,  -0.39685,  -0.38776,  -0.30176
  -0.76549,   0.86737,  -0.45732,   0.42558,   0.12985,   0.01645,  -0.38038,  -0.62029,  -0.75044,  -0.28063
  -0.93750,   0.59984,   0.83207,  -0.57107,   0.43150,  -0.93750,   0.42780,  -0.74463,  -0.19864,  -0.78572
   0.34473,   0.61567,   0.44952,  -0.07925,   0.19995,  -0.81301,   0.67642,  -0.15942,   0.02738,  -0.11239
   0.27948,   0.93750,   0.50488,  -0.81974,   0.93750,  -0.93750,   0.40187,   0.87869,  -0.60379,  -0.93750
  -0.19721,  -0.93006,   0.75307,  -0.83263,  -0.87159,  -0.93750,  -0.75011,  -0.93750,   0.93750,  -0.75385
  -0.46030,  -0.24712,   0.23026,   0.11857,   0.66234,   0.24628,   0.76874,  -0.35811,  -0.11009,   0.60225
  -0.63314,  -0.09221,  -0.28110,   0.91040,  -0.43017,  -0.54511,   0.62856,   0.66431,   0.73979,   0.00955
  -0.93750,  -0.59848,  -0.81639,   0.72495,  -0.93750,   0.87038,   0.81176,   0.54026,  -0.77635,   0.88723
   0.93750,   0.86423,  -0.28909,  -0.92773,  -0.88214,  -0.36567,  -0.64210,  -0.45933,  -0.44247,   0.33893
   0.93750,   0.78863,  -0.93750,  -0.93750,   0.41654,   0.13876,   0.93750,   0.93750,  -0.93750,   0.93750
   0.53811,  -0.15876,   0.88483,   0.74519,  -0.38670,  -0.87954,  -0.68440,   0.66556,  -0.76748,   0.88465
   0.93750,  -0.93750,   0.93750,   0.93750,   0.21548,   0.46759,  -0.63397,   0.32292,   0.01205,   0.19538
  -0.46710,  -0.67148,   0.86767,   0.25276,   0.87688,  -0.86795,   0.24589,  -0.93750,  -0.93750,   0.75232
  -0.53640,  -0.93750,  -0.93750,  -0.88097,   0.06114,  -0.14464,   0.42885,   0.46930,  -0.60201,  -0.10841
   0.25858,   0.92626,  -0.81976,   0.25324,  -0.54041,  -0.18132,   0.66667,  -0.28804,  -0.33305,  -0.66222
   0.58443,   0.87623,   0.20335,  -0.65721,   0.24130,  -0.53440,   0.13060,  -0.20396,  -0.48195,   0.93750
  -0.10033,  -0.75846,   0.00356,  -0.31661,  -0.05753,   0.72197,  -0.71671,  -0.16110,   0.66871,   0.81369
   0.93750,   0.93750,   0.47012,  -0.86498,  -0.30511,  -0.93750,  -0.59420,   0.69477,   0.93750,  -0.93750
   0.93750,  -0.14746,   0.06089,   0.93750,   0.86547,  -0.87410,   0.93750,   0.93750,   0.18689,   0.73380
  -0.87594,  -0.93750,   0.57577,  -0.80641,  -0.13817,   0.93750,  -0.83561,   0.93750,  -0.01138,  -0.93750
  -0.87475,   0.89748,  -0.87521,  -0.67117,   0.15480,   0.93662,   0.58619,  -0.04937,  -0.91531,   0.48126
  -0.29196,   0.40262,  -0.93750,  -0.01833,   0.88228,  -0.73433,  -0.06026,  -0.75518,  -0.45086,  -0.87009
   0.70390,   0.77638,   0.93750,  -0.55935,   0.93750,  -0.66483,   0.35100,   0.91411,  -0.12029,  -0.69628
   0.54182,  -0.73169,   0.56333,   0.74917,   0.28126,  -0.93750,   0.93750,  -0.63457,  -0.68120,   0.86617
  -0.87688,   0.93750,  -0.88660,  -0.93750,  -0.60508,   0.91669,   0.00748,   0.93750,  -0.39080,  -0.75967
   0.00896,  -0.73245,  -0.93750,  -0.70353,  -0.87782,  -0.76597,   0.57272,  -0.08169,   0.11798,   0.93750
  -0.71112,   0.44529,   0.52279,  -0.62605,  -0.93750,   0.58203,   0.62182,  -0.75569,  -0.21169,   0.10445
   0.57262,  -0.50521,  -0.46062,  -0.02807,  -0.69313,   0.87179,  -0.72321,   0.92628,   0.32099,  -0.51080
  -0.34862,  -0.45827,  -0.93750,   0.93750,   0.86893,   0.11452,  -0.17807,  -0.53351,  -0.11577,  -0.18559
  -0.18445,  -0.18335,   0.30011,   0.87527,  -0.50347,   0.69606,   0.81914,  -0.91055,  -0.74704,   0.93750
   0.78567,   0.70848,   0.54659,  -0.13507,  -0.24661,   0.38752,   0.93750,  -0.93750,  -0.07319,  -0.66893
  -0.93750,  -0.22095,   0.56739,   0.93750,   0.88676,  -0.00479,  -0.16351,   0.93750,  -0.78124,  -0.30585
   0.66309,   0.93750,   0.86852,   0.13489,   0.93750,   0.93750,   0.68968,  -0.87170,  -0.34135,  -0.93750
   0.15613,   0.61616,  -0.64627,  -0.80995,   0.93750,   0.34613,  -0.88363,   0.65955,  -0.93750,  -0.87435
   0.30764,   0.19253,   0.60467,  -0.35646,   0.57488,  -0.20806,  -0.42963,   0.73705,   0.32970,  -0.25419
  -0.56707,  -0.66469,   0.21330,  -0.15662,   0.01758,   0.10249,  -0.20055,   0.11684,   0.30883,   0.89748
   0.93750,   0.08197,  -0.19576,  -0.93750,   0.35223,   0.93750,   0.93516,  -0.55633,   0.93750,   0.58979
  -0.81562,  -0.63591,  -0.28859,   0.87008,   0.30147,   0.51801,   0.73961,  -0.12363,  -0.55822,  -0.83859
   0.27978,   0.92993,  -0.45544,  -0.46325,  -0.19320,   0.17553,   0.45040,   0.04449,  -0.41738,   0.37725
  -0.05961,  -0.15649,   0.59524,  -0.25376,  -0.44056,   0.38982,   0.21113,   0.09292,   0.11589,   0.67144
   0.93750,   0.93750,  -0.93750,  -0.93750,   0.74247,  -0.11104,   0.29551,   0.27908,   0.61176,  -0.82122
  -0.22976,   0.19068,  -0.76407,  -0.93750,  -0.22927,   0.89368,  -0.68314,  -0.57089,   0.93750,   0.93750
   0.56832,  -0.37041,   0.08117,   0.93750,   0.93750,  -0.70094,  -0.77615,   0.60167,  -0.14556,  -0.39218
   0.93750,  -0.18730,  -0.23626,  -0.43649,   0.89869,  -0.07272,   0.11811,  -0.93750,   0.14190,   0.07879
   0.79796,  -0.66108,  -0.42126,   0.93750,  -0.74088,  -0.37285,   0.80909,  -0.87119,   0.74570,  -0.53576
   0.18234,   0.73944,  -0.81284,   0.74537,   0.40111,  -0.90799,  -0.02008,   0.85057,  -0.62504,  -0.82868
  -0.02565,   0.82255,  -0.72470,   0.44852,   0.75582,  -0.22310,   0.30678,  -0.04563,   0.81442,  -0.85583
   0.69776,   0.08009,  -0.40664,  -0.80215,   0.93267,  -0.75143,  -0.93750,  -0.19105,  -0.38700,   0.86583
   0.56586,  -0.93750,   0.86808,  -0.48228,   0.26147,   0.78561,  -0.47223,  -0.93750,  -0.93750,   0.55762
   0.75890,  -0.55621,  -0.40521,  -0.74543,   0.41348,  -0.86225,   0.93750,  -0.64647,   0.79451,   0.81567
   0.82873,   0.03440,  -0.12151,   0.04730,   0.93750,  -0.50955,   0.26047,  -0.45799,  -0.75155,   0.14254
   0.32126,  -0.44478,  -0.74218,   0.93750,   0.93750,   0.04090,  -0.36370,  -0.04202,   0.03313,  -0.75768
   0.25585,  -0.89565,  -0.82818,   0.40982,   0.84004,   0.93750,   0.93750,  -0.67878,  -0.93750,  -0.88168
   0.18765,  -0.12910,  -0.80882,   0.69536,  -0.93750,  -0.45023,  -0.30356,   0.93750,  -0.24867,  -0.09530
   0.93750,   0.82779,   0.53907,   0.87919,   0.78540,  -0.88053,  -0.71640,  -0.44498,  -0.87867,   0.36272
   0.93750,  -0.93750,  -0.93750,   0.93750,   0.93750,   0.93750,  -0.48510,   0.93750,   0.67975,   0.68061
  -0.53454,   0.60761,  -0.64982,  -0.00728,  -0.51730,  -0.37295,  -0.17128,  -0.04984,  -0.55101,  -0.19119
   0.55164,   0.29192,   0.85974,  -0.27853,  -0.82268,  -0.93750,  -0.93750,   0.87335,  -0.70376,   0.25674
  -0.93750,   0.03239,  -0.93750,  -0.87713,   0.93750,   0.01409,   0.93750,   0.93750,  -0.83292,  -0.40755
   0.68847,  -0.93750,   0.93750,  -0.59738,  -0.87139,   0.93750,   0.00445,  -0.93750,  -0.55082,  -0.60516
   0.28592,  -0.40785,   0.27064,   0.73287,   0.86659,  -0.21184,   0.34656,   0.78514,   0.40617,  -0.34421
  -0.40780,  -0.27789,  -0.93750,  -0.34025,   0.14499,  -0.81949,   0.72361,   0.63805,   0.11373,  -0.74805
  -0.50294,  -0.93750,  -0.93750,   0.55845,   0.93750,  -0.88875,  -0.66570,  -0.93750,  -0.55785,   0.93750
   0.21820,  -0.93750,   0.28584,  -0.27445,   0.87853,  -0.93750,   0.84779,   0.13468,   0.93750,  -0.01818
  -0.53883,  -0.60830,   0.24636,  -0.40303,   0.15848,  -0.22598,  -0.69209,   0.81764,  -0.69708,   0.79897
  -0.34781,   0.37116,   0.76345,   0.46458,  -0.59848,  -0.80996,  -0.74236,   0.46923,  -0.93750,  -0.88291
   0.71389,  -0.54336,  -0.92303,   0.65689,  -0.87273,  -0.87255,   0.93750,  -0.93750,   0.62199,   0.87409
  -0.93750,  -0.85420,  -0.93750,   0.93750,   0.93750,   0.93750,   0.93750,   0.24663,   0.93750,  -0.93750
  -0.88388,  -0.01950,   0.93750,   0.93750,  -0.38204,   0.93750,  -0.93750,   0.93750,  -0.93750,  -0.05181
  -0.50485,  -0.62696,   0.43745,   0.11499,   0.67510,   0.49834,   0.36546,   0.91560,  -0.80729,  -0.53470
   0.25667,  -0.13686,   0.93750,   0.30813,  -0.93750,   0.79388,   0.11568,  -0.88179,   0.26270,   0.17041
   0.74958,   0.65556,  -0.93750,   0.60770,   0.06740,  -0.38442,   0.93750,   0.58159,   0.93750,   0.59808
  -0.93750,   0.93750,   0.77058,  -0.87951,  -0.81579,   0.82901,  -0.71471,   0.93750,  -0.79773,   0.73054
  -0.87257,   0.93750,  -0.93750,   0.93750,   0.22183,  -0.93750,  -0.87128,   0.93750,  -0.46608,  -0.93750
  -0.51819,  -0.68500,  -0.89764,   0.93750,  -0.03707,  -0.80367,   0.24231,  -0.58014,   0.09353,   0.93750
  -0.77944,   0.36016,  -0.81516,   0.05536,  -0.70496,   0.06727,   0.01782,   0.58731,   0.54735,   0.87314
   0.53836,  -0.12094,   0.27124,   0.26571,   0.74905,  -0.64210,  -0.45517,  -0.24957,  -0.04438,   0.38500
   0.70170,  -0.09339,  -0.93750,   0.65600,  -0.60641,   0.93750,   0.86957,   0.20640,  -0.69154,  -0.09780
  -0.93750,   0.93750,   0.22552,   0.93750,   0.93750,   0.93750,   0.93750,  -0.33786,   0.86710,   0.62985
   0.61237,  -0.34240,  -0.91647,  -0.80979,   0.45281,  -0.93750,   0.35262,  -0.22261,   0.74564,   0.86598
   0.93750,   0.10496,   0.67248,  -0.85232,   0.86923,  -0.35579,  -0.11362,  -0.78710,  -0.80149,  -0.93750
  -0.93750,  -0.34457,   0.44749,   0.24786,  -0.81741,  -0.93750,   0.55928,  -0.15329,  -0.60326,   0.83510
  -0.88061,  -0.87378,  -0.87253,  -0.86861,  -0.06993,   0.31841,   0.66932,   0.08357,   0.37576,  -0.93750
  -0.26800,   0.25127,  -0.93750,  -0.77798,   0.45273,   0.93750,   0.69206,  -0.41109,  -0.93750,  -0.93750
   0.55178,  -0.53467,   0.87161,  -0.93750,  -0.90890,   0.87026,  -0.73677,  -0.93750,   0.75425,  -0.32184
  -0.04377,   0.92158,   0.62252,  -0.64710,   0.13860,  -0.50926,  -0.32399,   0.54018,   0.68520,  -0.15519
  -0.81477,  -0.00324,  -0.81296,   0.47875,   0.58278,  -0.82229,   0.49518,  -0.93750,   0.54038,   0.54668
   0.87708,  -0.68066,   0.81500,   0.05445,  -0.05811,   0.24520,   0.28206,  -0.62743,  -0.70383,  -0.13602
  -0.49964,   0.73435,   0.59958,  -0.80279,   0.22884,  -0.89846,   0.59924,  -0.76013,  -0.86684,  -0.87243
  -0.20474,   0.25593,   0.93750,   0.88923,  -0.93750,   0.21536,   0.92968,  -0.93750,  -0.81028,  -0.93750
  -0.01783,   0.93750,   0.93750,   0.93750,   0.93750,  -0.93750,   0.88457,   0.93750,   0.86256,  -0.93750
  -0.87502,  -0.74810,  -0.92842,   0.79919,   0.93750,   0.93750,   0.28136,  -0.29380,  -0.46221,   0.01041
  -0.10550,   0.93750,   0.53398,  -0.93750,   0.25256,  -0.90075,  -0.16829,   0.93750,  -0.84922,   0.93750
   0.59545,  -0.77480,   0.81983,  -0.93750,   0.93750,  -0.16810,   0.93750,   0.93750,   0.53201,  -0.93750
   0.70840,   0.70059,  -0.69771,  -0.02639,   0.76352,  -0.36291,   0.75382,  -0.06334,   0.59205,  -0.52837
  -0.80867,   0.61938,   0.59276,  -0.75871,  -0.62441,   0.29785,   0.75801,  -0.17566,  -0.80024,   0.74437
   0.13065,   0.84503,   0.30634,  -0.65484,  -0.93750,   0.01402,  -0.04801,  -0.41042,  -0.04625,   0.05455
  -0.08167,  -0.00267,   0.93750,  -0.83492,   0.14939,   0.52579,   0.93750,  -0.93750,  -0.88515,   0.80557
  -0.93750,  -0.57314,   0.03382,  -0.50628,  -0.93750,   0.55646,  -0.11871,   0.73512,  -0.69435,  -0.10082
   0.87496,  -0.00814,   0.49174,  -0.52181,  -0.41474,  -0.65815,   0.93750,   0.49237,  -0.55098,  -0.61072
  -0.93750,   0.45946,   0.93750,  -0.64265,  -0.65375,  -0.50823,  -0.79128,  -0.93750,  -0.11069,  -0.93750
  -0.27140,  -0.19560,  -0.93750,  -0.93750,   0.93750,   0.93750,  -0.01693,  -0.56364,  -0.69195,   0.93750
   0.65046,  -0.80923,   0.80712,   0.93750,  -0.09477,   0.93750,   0.57413,  -0.41451,  -0.91999,   0.66851
  -0.29901,  -0.33367,   0.36352,  -0.21737,  -0.33120,   0.82345,  -0.46980,   0.59418,  -0.09535,   0.71138
   0.07112,  -0.32823,   0.36260,  -0.87775,   0.93750,  -0.93750,   0.93750,  -0.74759,   0.93750,   0.43016
  -0.33708,  -0.93750,  -0.38656,  -0.87695,  -0.88095,  -0.74939,  -0.93750,  -0.75189,   0.33006,  -0.81886
   0.18755,   0.57212,   0.14669,  -0.63556,  -0.87339,  -0.93750,  -0.70023,   0.93750,   0.79530,  -0.07577
  -0.70913,   0.51927,   0.93750,  -0.75063,  -0.83790,  -0.22419,   0.65282,   0.87140,  -0.70163,  -0.84417
   0.93750,  -0.93750,  -0.90616,   0.73825,  -0.61233,   0.05417,   0.93750,  -0.44866,  -0.93750,   0.75763
  -0.35523,   0.34470,   0.93750,   0.93750,   0.03571,  -0.49121,   0.86670,   0.70962,   0.65052,  -0.86105
  -0.04940,  -0.61057,  -0.54767,   0.76109,   0.05591,   0.72237,   0.25836,  -0.60929,   0.11591,  -0.35349
   0.86348,  -0.26930,   0.76181,  -0.93750,  -0.88472,   0.40115,   0.93750,   0.93750,   0.93750,  -0.00892
  -0.81951,   0.12521,  -0.88611,  -0.24115,   0.93750,  -0.79888,  -0.27376,  -0.60708,  -0.93750,   0.93750
  -0.24202,   0.74155,  -0.48672,   0.74690,   0.68869,   0.66830,  -0.33342,  -0.39378,  -0.83262,   0.53817
  -0.02211,   0.88228,   0.12529,  -0.34720,   0.93750,   0.93750,  -0.88057,   0.79923,   0.71200,  -0.54910
   0.04630,   0.31687,   0.20501,   0.08372,  -0.62507,  -0.58118,  -0.19968,   0.31325,  -0.17662,   0.36303
  -0.61507,  -0.32496,   0.61542,  -0.13890,  -0.34465,   0.93750,  -0.81714,   0.01152,   0.33842,  -0.18819
  -0.74314,  -0.27923,  -0.41081,   0.01086,  -0.29064,   0.30390,   0.84133,   0.68764,  -0.55063,  -0.93750
   0.62536,  -0.33174,   0.68808,   0.13164,  -0.84931,   0.44850,   0.70373,   0.04812,  -0.86474,  -0.91280
  -0.76918,   0.72834,   0.93750,   0.79419,   0.93750,  -0.93750,  -0.93750,   0.70771,   0.75845,   0.00719
  -0.93750,  -0.30247,  -0.34077,   0.84297,   0.87260,   0.87587,  -0.92640,   0.25846,   0.87324,   0.56433
  -0.53112,   0.75505,  -0.93750,   0.45876,   0.91238,  -0.61799,  -0.93750,  -0.93750,  -0.27051,   0.26760
   0.81482,  -0.09170,  -0.11140,   0.10761,   0.87836,  -0.58775,   0.06957,  -0.62572,  -0.25460,  -0.19692
  -0.30195,  -0.93750,   0.93750,   0.16424,   0.93750,   0.81289,   0.93750,   0.61151,  -0.93750,   0.60354
   0.50622,   0.93750,  -0.80659,  -0.05281,  -0.75862,  -0.93750,  -0.86596,  -0.93750,  -0.72825,  -0.56931
  -0.93750,  -0.28741,   0.35931,  -0.81592,  -0.59398,  -0.93750,  -0.93750,  -0.93750,  -0.93750,  -0.22471
   0.93750,  -0.60747,   0.93750,  -0.55371,   0.11765,   0.35278,  -0.64890,  -0.58584,  -0.40707,  -0.27197
   0.55811,  -0.54688,  -0.07367,   0.74452,   0.65356,  -0.37134,   0.35380,  -0.09493,  -0.16344,  -0.81189
  -0.92330,   0.82284,   0.53406,   0.62350,   0.27759,  -0.17946,  -0.75669,   0.73677,   0.87301,   0.13453
  -0.82294,   0.88295,  -0.47718,  -0.17039,   0.93750,  -0.32604,   0.87204,   0.87450,  -0.93750,  -0.74363
  -0.93750,   0.61679,   0.34620,   0.93750,   0.24312,   0.70554,  -0.93750,  -0.25031,  -0.93750,   0.91175
  -0.80604,   0.13100,   0.51120,   0.86889,  -0.80853,   0.80632,   0.93750,  -0.72396,  -0.93750,  -0.61644
  -0.67017,   0.42754,  -0.57619,   0.88460,   0.93750,   0.30121,   0.10391,   0.12716,   0.23032,   0.93750
  -0.14085,   0.54854,  -0.81638,   0.09991,   0.69006,   0.72842,   0.21776,  -0.16534,   0.07817,  -0.67011
   0.93750,  -0.51355,   0.08138,  -0.41210,  -0.47928,  -0.20439,   0.16810,   0.05199,  -0.93750,   0.74124
  -0.93750,  -0.57438,   0.41962,  -0.92121,   0.25741,  -0.93750,  -0.80297,   0.93750,  -0.80215,  -0.93750
   0.87688,  -0.58506,  -0.93750,   0.58557,  -0.93750,  -0.07526,  -0.71206,  -0.11518,   0.30590,   0.32316
   0.33775,   0.93750,  -0.93750,  -0.84096,   0.68272,  -0.64267,  -0.25487,   0.62470,  -0.09886,  -0.36342
  -0.44875,   0.07669,  -0.00031,   0.21787,  -0.54098,   0.88657,  -0.05514,   0.16132,  -0.49891,   0.00494
  -0.33631,  -0.38473,   0.22329,  -0.65676,   0.93750,  -0.37261,  -0.67672,  -0.20486,   0.39463,   0.87054
  -0.65106,  -0.61948,  -0.51721,   0.10528,   0.13653,   0.93750,   0.93750,   0.00202,   0.57500,  -0.93750
  -0.48384,  -0.31090,  -0.93750,   0.93750,   0.93750,  -0.93750,  -0.93750,  -0.93750,  -0.81894,   0.93750
   0.73942,  -0.47039,   0.93750,  -0.48116,  -0.93750,   0.88231,   0.37303,   0.49386,   0.93750,  -0.02250
  -0.69375,  -0.66996,   0.46551,  -0.12166,  -0.93750,  -0.75496,   0.55232,   0.93750,   0.87521,   0.81523
  -0.93593,   0.88000,   0.51880,  -0.07060,   0.93750,   0.66949,  -0.22221,   0.02969,   0.16262,  -0.80622
  -0.08592,  -0.86994,   0.87934,  -0.64987,  -0.86186,   0.76634,  -0.93750,   0.41656,   0.80752,  -0.53425
  -0.58794,   0.51511,  -0.59426,   0.70280,  -0.52273,   0.09344,  -0.44392,   0.10999,  -0.85300,   0.93703
   0.40154,  -0.73764,  -0.27712,   0.45073,   0.09408,  -0.53897,  -0.81123,   0.93750,  -0.66291,   0.21722
  -0.32635,   0.85065,  -0.93750,   0.85424,  -0.72260,   0.93750,   0.18073,  -0.13582,   0.93750,  -0.93750
   0.38743,   0.03529,   0.85941,   0.67737,  -0.24417,  -0.87041,   0.34349,   0.69065,  -0.63047,  -0.25490
  -0.47571,   0.42873,   0.93750,   0.26784,  -0.93750,   0.21285,  -0.22606,   0.76265,   0.50006,   0.39838
   0.07044,   0.47717,  -0.93750,  -0.20692,   0.75075,   0.63025,  -0.84742,   0.93750,  -0.27354,  -0.93750
  -0.16411,   0.51820,  -0.39153,  -0.47994,  -0.16239,   0.61219,  -0.42480,  -0.79405,  -0.33698,   0.93750
  -0.52182,   0.93750,  -0.46632,   0.93750,  -0.81616,   0.88396,   0.34401,  -0.48712,   0.37044,  -0.87296
   0.42911,  -0.12361,   0.06446,  -0.69557,   0.43116,   0.08258,  -0.93364,  -0.41481,  -0.48534,   0.93750
   0.93750,   0.49652,  -0.65802,   0.63441,   0.93750,  -0.35245,  -0.27326,   0.18354,  -0.60786,   0.93750
  -0.26380,  -0.26530,  -0.49968,  -0.75705,   0.68987,   0.74415,   0.69341,  -0.28828,  -0.26814,   0.44230
   0.93750,  -0.42144,  -0.67457,   0.70239,   0.89530,   0.93750,  -0.93750,   0.93750,  -0.16578,  -0.86299
   0.50378,   0.81338,  -0.34067,   0.34763,  -0.42078,   0.16164,  -0.36178,   0.75836,  -0.35878,   0.39357
   0.30817,  -0.67737,   0.09434,   0.70075,   0.92874,  -0.53698,  -0.68823,   0.36352,  -0.27822,   0.12567
  -0.15197,  -0.41337,  -0.75251,   0.93750,  -0.88193,  -0.14502,   0.93750,  -0.07387,  -0.29196,  -0.81743
   0.84031,  -0.92341,   0.76353,   0.93750,  -0.00804,  -0.62266,  -0.47872,  -0.80105,   0.54811,   0.09419
   0.49054,   0.52875,   0.52293,  -0.71626,  -0.88730,  -0.93390,   0.93750,  -0.93750,   0.61280,  -0.10578
   0.73781,   0.93750,   0.93750,   0.93750,  -0.93750,  -0.93750,  -0.59599,  -0.63531,   0.26732,   0.56646
   0.70326,   0.31728,   0.93750,  -0.79581,   0.74723,  -0.81714,  -0.87330,  -0.93750,  -0.65846,   0.69474
  -0.87202,   0.35552,  -0.93750,  -0.51891,   0.93750,  -0.81181,   0.93750,   0.13423,  -0.84385,  -0.87011
   0.38730,   0.12346,  -0.93750,   0.12862,   0.26551,  -0.93750,   0.61171,   0.34610,   0.54438,  -0.57690
  -0.93750,   0.43536,  -0.67780,   0.88235,   0.14264,  -0.60744,   0.93750,   0.93750,   0.09089,  -0.93750
   0.93750,   0.93750,  -0.61412,  -0.93750,  -0.74362,  -0.39956,  -0.35888,   0.37573,  -0.93750,   0.85123
   0.37125,  -0.11027,   0.93100,  -0.70463,   0.60051,  -0.46650,  -0.64786,  -0.07506,  -0.82080,   0.11444
  -0.93750,  -0.74130,   0.87952,  -0.37447,   0.93750,  -0.35593,   0.61376,  -0.88193,   0.91065,  -0.34254
  -0.26287,   0.66982,  -0.35715,  -0.63138,  -0.64634,  -0.07911,   0.54558,   0.51753,   0.24568,   0.78467
  -0.31485,  -0.63410,  -0.36326,   0.46404,   0.90400,   0.69034,   0.01472,  -0.03333,   0.74508,  -0.74548
   0.29504,   0.59803,  -0.81751,   0.93750,  -0.49057,   0.52621,   0.08304,   0.07390,  -0.71876,  -0.46964
   0.48136,  -0.50306,   0.88214,   0.10524,  -0.55140,   0.40082,   0.81682,   0.06538,  -0.53957,   0.35059
  -0.50146,  -0.69776,   0.82255,  -0.12859,   0.43877,  -0.05193,   0.75825,   0.82529,  -0.79568,  -0.59584
  -0.50149,  -0.36590,  -0.00205,   0.16037,   0.37131,  -0.38697,   0.59475,  -0.36560,   0.45661,   0.86753
   0.90054,  -0.02504,  -0.22304,  -0.75488,  -0.28563,   0.07289,   0.89396,  -0.74505,  -0.10745,   0.16361
   0.87754,   0.00820,   0.87936,   0.88367,   0.68783,  -0.71575,   0.62270,  -0.80516,  -0.61954,  -0.81342
   0.93750,  -0.49327,  -0.60070,   0.45616,  -0.79820,   0.05180,  -0.86465,  -0.74680,  -0.49930,   0.26963
   0.55681,   0.47151,   0.24099,   0.00900,   0.49933,  -0.70059,   0.84285,   0.80860,  -0.53654,  -0.55510
  -0.71450,  -0.93750,   0.43627,  -0.33745,   0.08155,   0.93750,   0.93750,  -0.93750,  -0.85042,   0.90150
   0.93750,   0.81354,   0.93750,   0.93750,  -0.93750,  -0.93750,  -0.65142,  -0.45942,   0.93750,  -0.93750
   0.93750,   0.77336,  -0.93750,  -0.59329,   0.51577,   0.33751,   0.26841,  -0.93750,   0.31537,  -0.41562
  -0.20359,   0.86823,  -0.32976,   0.09543,   0.80974,  -0.42680,  -0.22657,  -0.64260,   0.07033,   0.86618
  -0.20164,   0.50969,  -0.16509,  -0.42043,  -0.65795,   0.93750,   0.26324,   0.62115,   0.93750,   0.93750
  -0.44921,   0.19249,   0.30813,   0.49619,  -0.93750,   0.73798,  -0.69347,  -0.93750,   0.72381,  -0.93750
  -0.30088,   0.05786,   0.21770,  -0.38743,  -0.00000,  -0.37255,  -0.74273,   0.93750,  -0.80520,   0.67198
  -0.11781,   0.06618,  -0.50494,   0.65498,   0.17043,  -0.87477,   0.71083,  -0.69049,  -0.80665,  -0.43231
   0.93750,   0.19352,   0.05241,   0.69739,   0.53637,   0.04450,  -0.07296,  -0.86805,  -0.73069,   0.36094
   0.78981,  -0.42929,  -0.93750,  -0.61652,   0.18061,  -0.31721,  -0.68982,   0.55029,  -0.93750,  -0.80067
  -0.46825,  -0.87473,   0.50101,   0.13144,  -0.75442,  -0.66274,  -0.87499,   0.53394,  -0.81786,   0.48482
   0.78522,   0.64171,   0.38782,   0.93750,  -0.21111,  -0.65850,   0.60871,  -0.35573,  -0.32692,   0.93750
  -0.57880,  -0.03446,   0.75508,   0.35831,   0.12477,  -0.86959,   0.24539,  -0.93750,  -0.69417,   0.63002
  -0.93750,  -0.93750,  -0.43076,  -0.93750,  -0.58473,   0.57723,  -0.09512,  -0.93750,   0.67917,  -0.93750
  -0.65150,   0.93750,  -0.93750,   0.93750,  -0.54362,   0.63889,  -0.29860,  -0.93750,   0.41942,   0.62493
  -0.64718,   0.93091,  -0.63085,  -0.09051,   0.39975,  -0.43980,   0.35762,   0.30520,  -0.38950,   0.48521
  -0.81833,   0.14855,   0.93750,   0.27655,  -0.87397,  -0.40675,  -0.87738,   0.09564,   0.93750,  -0.87441
   0.81387,  -0.40604,   0.34429,  -0.69412,  -0.42090,  -0.79715,  -0.08429,   0.49878,   0.57428,   0.27457
   0.87535,  -0.25693,   0.93750,  -0.28382,   0.00345,  -0.33226,  -0.15099,   0.87324,   0.54886,   0.50668
   0.47136,  -0.74730,  -0.88827,  -0.51528,  -0.66503,  -0.03259,   0.32035,   0.93750,  -0.09418,  -0.25227
   0.21634,  -0.61084,  -0.58315,   0.51488,  -0.85920,  -0.31495,   0.93750,   0.74434,  -0.19640,   0.87950
  -0.11728,   0.93750,  -0.62414,   0.58618,  -0.34740,   0.53570,  -0.60379,   0.93750,   0.87997,  -0.14105
   0.61607,   0.21144,  -0.09544,  -0.48502,   0.92357,   0.19393,  -0.01950,  -0.51578,  -0.93750,   0.61067
   0.06230,   0.92801,  -0.10832,  -0.82339,  -0.80941,  -0.32267,  -0.88240,   0.14413,  -0.30177,   0.15306
  -0.49063,  -0.65513,  -0.60931,   0.75020,  -0.82429,   0.20236,   0.93750,   0.26147,  -0.18467,   0.87085
  -0.81081,  -0.93750,   0.93750,  -0.81956,   0.93750,   0.46421,   0.93750,  -0.93750,   0.73907,  -0.93750
  -0.55444,   0.81293,  -0.93750,  -0.78290,   0.20120,   0.23156,  -0.53029,   0.45463,  -0.48011,  -0.93750
   0.75791,  -0.37460,  -0.77784,   0.93750,   0.24779,  -0.93750,  -0.40784,  -0.37062,  -0.93750,   0.73507
   0.81201,  -0.12925,  -0.43581,   0.43803,  -0.71441,  -0.57985,   0.85538,   0.13632,  -0.44677,  -0.24700
   0.45328,   0.85252,  -0.63561,  -0.40238,   0.04725,  -0.08076,   0.46015,   0.05510,   0.33451,   0.27966
  -0.58031,   0.38898,  -0.39616,  -0.61510,  -0.02739,  -0.52422,   0.74334,   0.38762,   0.57650,   0.87935
   0.54965,  -0.00083,  -0.73695,   0.47298,   0.57291,  -0.85549,  -0.00205,  -0.93750,   0.56419,  -0.52925
   0.93750,  -0.19332,  -0.74757,  -0.65925,   0.49647,  -0.57399,   0.46316,  -0.58715,   0.01115,  -0.06294
  -0.36677,  -0.27825,  -0.81249,  -0.34894,  -0.78687,   0.87799,   0.92726,  -0.93750,  -0.65754,   0.80323
   0.93750,   0.04158,   0.93750,  -0.79186,   0.33346,  -0.89745,  -0.39231,   0.59876,  -0.25469,   0.93076
  -0.13310,  -0.54031,   0.68166,   0.23575,   0.93750,  -0.87958,   0.93750,   0.38550,  -0.17886,   0.93750
  -0.76862,  -0.14285,   0.65869,  -0.93750,  -0.09112,  -0.93750,   0.30760,  -0.63721,  -0.93750,   0.77997
  -0.93750,  -0.71904,  -0.78650,  -0.93750,   0.19040,  -0.85136,  -0.26897,  -0.93750,  -0.29717,  -0.81918
   0.82169,   0.93750,  -0.72900,   0.93750,  -0.75594,   0.25278,   0.57423,   0.29536,  -0.44115,  -0.81779
   0.93750,   0.93750,  -0.03552,  -0.32712,  -0.25785,   0.93750,   0.93750,   0.20171,   0.93750,   0.60447
  -0.17846,  -0.33678,   0.08209,   0.93750,  -0.24553,   0.35102,  -0.57812,  -0.93750,   0.37836,   0.93750
  -0.53927,   0.66301,  -0.81787,   0.68434,   0.79427,   0.54595,   0.23973,   0.32398,  -0.67327,  -0.80259
  -0.38613,  -0.14145,   0.85539,   0.93750,  -0.88427,  -0.66538,  -0.18487,  -0.80989,   0.12637,   0.55911
  -0.69818,  -0.46370,  -0.28841,  -0.01372,  -0.37903,  -0.93750,   0.43786,   0.93018,   0.75590,   0.18191
  -0.80742,   0.93750,   0.28634,   0.47987,   0.00973,  -0.33868,  -0.76271,   0.34714,   0.77850,   0.03567
   0.14926,  -0.28658,   0.75237,   0.73222,  -0.21188,   0.04622,   0.81091,  -0.54948,   0.04493,  -0.23795
  -0.07810,   0.89674,  -0.72881,  -0.43466,   0.76723,  -0.00202,  -0.25440,  -0.14114,  -0.92425,   0.67656
  -0.39280,  -0.57218,  -0.75036,  -0.93750,  -0.88608,  -0.45653,   0.88031,   0.66943,  -0.74515,   0.46842
  -0.10189,   0.57026,  -0.60834,  -0.19426,   0.85262,  -0.02848,   0.20442,  -0.09685,   0.86644,  -0.45026
  -0.21781,   0.30701,   0.93750,   0.35476,   0.81764,  -0.62870,  -0.09576,   0.34766,  -0.93750,   0.93750
   0.93750,  -0.30078,  -0.55637,  -0.14723,  -0.53086,  -0.86260,   0.93750,  -0.15686,  -0.26498,  -0.28931
   0.40866,  -0.78471,  -0.93750,   0.24821,   0.63927,   0.93750,  -0.18046,  -0.53750,   0.07586,   0.87685
  -0.64150,   0.21567,  -0.43656,  -0.11304,  -0.18148,   0.83133,   0.87615,  -0.87066,  -0.93750,  -0.72702
   0.32307,   0.20512,  -0.77993,   0.69330,   0.93750,  -0.36909,  -0.25865,   0.74567,  -0.78472,   0.62066
   0.08492,  -0.42122,   0.87494,   0.08031,  -0.71582,   0.93750,  -0.18310,  -0.87741,   0.23579,  -0.93750
   0.92176,   0.51675,   0.57574,   0.74133,  -0.07837,  -0.73517,  -0.01893,   0.38714,  -0.36582,  -0.56660
  -0.63807,  -0.58397,   0.93750,  -0.33820,   0.93750,  -0.87749,  -0.49424,   0.93750,  -0.93750,   0.93750
  -0.54107,   0.93750,   0.93750,   0.27106,  -0.26701,  -0.79636,  -0.15340,  -0.93750,  -0.93750,  -0.74336
  -0.70599,   0.93750,  -0.93750,   0.06776,  -0.06387,   0.17024,  -0.09245,  -0.26636,  -0.92150,  -0.58365
   0.63669,  -0.43210,   0.45157,   0.48862,  -0.16637,   0.70349,   0.59879,  -0.03383,   0.43608,  -0.48438
  -0.93750,  -0.91933,   0.93750,   0.78694,   0.29410,  -0.35455,   0.00207,   0.40364,   0.02195,  -0.12223
  -0.05470,   0.80939,   0.59256,   0.93750,   0.21544,  -0.57908,   0.31061,  -0.62631,  -0.49082,  -0.30596
  -0.43501,   0.22126,  -0.93750,   0.93750,  -0.09667,  -0.93750,   0.73408,  -0.25801,  -0.36146,   0.44908
  -0.34674,   0.24327,  -0.93750,  -0.81408,  -0.44465,   0.77828,  -0.79678,  -0.42018,  -0.93750,  -0.93750
  -0.31702,   0.05415,  -0.18078,   0.07229,  -0.57274,  -0.31074,   0.65488,  -0.42078,   0.64557,   0.29390
   0.53934,   0.87247,  -0.32946,  -0.29874,  -0.10956,   0.36481,  -0.40564,   0.08159,  -0.15198,   0.93750
   0.84541,  -0.92342,   0.54570,  -0.54406,  -0.86706,   0.09238,   0.11445,   0.11572,  -0.27573,  -0.19728
  -0.01723,  -0.70853,   0.13965,   0.04354,  -0.15133,  -0.58024,   0.50366,   0.19220,   0.66237,  -0.70471
   0.03883,   0.88936,  -0.04541,   0.27124,  -0.20140,  -0.76125,  -0.50386,   0.93722,  -0.48929,   0.69659
  -0.93750,  -0.88262,   0.75147,  -0.93750,  -0.93750,  -0.93361,  -0.93750,  -0.93750,  -0.01252,  -0.93750
  -0.08299,   0.15867,  -0.81578,   0.88224,   0.80816,   0.17788,  -0.74989,  -0.36927,   0.21566,   0.50368
   0.87081,  -0.48028,   0.87724,  -0.29189,   0.62733,   0.31692,   0.28859,  -0.29080,   0.13129,  -0.63811
   0.27490,   0.60953,   0.93750,  -0.93750,   0.93750,  -0.93750,  -0.93750,  -0.54443,   0.35583,   0.93750
  -0.78088,   0.69678,  -0.86818,   0.93693,   0.87546,   0.87880,  -0.50528,   0.33137,  -0.93750,  -0.92839
   0.43781,  -0.45235,  -0.06042,  -0.49745,   0.06230,  -0.35074,   0.38434,  -0.29736,   0.51349,   0.10335
  -0.93750,  -0.93750,  -0.93750,  -0.01473,  -0.16287,   0.18336,  -0.18339,  -0.02562,   0.67546,   0.14310
  -0.83067,   0.29225,   0.68064,   0.46096,  -0.93750,  -0.17148,   0.71218,  -0.48342,  -0.49018,   0.93750
   0.07628,   0.07418,   0.81039,   0.68437,   0.63961,   0.41889,   0.08608,  -0.02219,  -0.53337,   0.54895
   0.93750,  -0.75488,  -0.19359,   0.93750,   0.93750,  -0.93750,   0.93750,   0.93750,  -0.09908,   0.93750
  -0.28161,  -0.08134,  -0.66745,   0.08549,  -0.29880,  -0.59725,   0.74103,   0.17345,  -0.81009,  -0.92088
  -0.82774,  -0.90182,  -0.69625,  -0.84180,  -0.66804,   0.08556,  -0.82312,   0.46914,  -0.40302,  -0.87754
   0.87332,   0.56066,  -0.93750,  -0.40899,  -0.69267,   0.25952,  -0.03110,   0.00480,  -0.79241,  -0.93750
  -0.26476,   0.45114,  -0.26215,  -0.13424,   0.56496,   0.81678,  -0.43803,  -0.49123,  -0.59094,   0.54848
  -0.51034,  -0.80368,  -0.93750,   0.46783,   0.61912,   0.10225,  -0.93750,   0.93750,   0.03119,  -0.23180
  -0.87397,   0.47182,   0.75563,   0.87729,  -0.80228,  -0.68097,  -0.61458,   0.82195,   0.25071,   0.35916
   0.93750,  -0.93750,  -0.64029,  -0.10008,   0.30064,  -0.16662,  -0.93750,   0.93750,   0.65816,   0.19784
  -0.74834,   0.16116,   0.36462,   0.93750,  -0.19587,   0.01304,  -0.63025,  -0.02140,   0.81383,  -0.50942
   0.93750,  -0.55660,  -0.82226,   0.60791,  -0.76606,   0.87894,  -0.81692,  -0.33107,   0.55138,  -0.09564
   0.80223,   0.71220,   0.71788,  -0.87427,  -0.68397,   0.83926,  -0.70672,   0.06626,  -0.83527,  -0.87358
   0.93750,   0.82624,   0.93750,   0.18397,  -0.14326,  -0.13927,   0.25375,   0.40889,  -0.73979,  -0.93750
   0.07190,   0.93750,  -0.93750,   0.08738,  -0.93750,  -0.93750,  -0.93750,  -0.68655,  -0.93750,  -0.76208
  -0.93750,  -0.93750,  -0.02981,  -0.93750,   0.28914,   0.07974,  -0.93750,   0.84740,  -0.93750,   0.12017
  -0.61118,   0.93750,  -0.85528,   0.41079,  -0.20202,  -0.26648,  -0.93750,  -0.17026,   0.70269,   0.93750
  -0.88114,   0.93750,   0.78993,  -0.93750,   0.32645,  -0.70905,   0.82549,  -0.64874,   0.93750,  -0.51221
   0.29114,  -0.69381,  -0.90122,  -0.64567,  -0.93741,  -0.81710,   0.52314,  -0.88088,   0.13530,   0.29702
   0.15857,  -0.42841,  -0.68466,  -0.00236,   0.03019,   0.89147,   0.67154,  -0.31819,   0.37876,  -0.80375
   0.54662,   0.01926,  -0.87719,  -0.58177,  -0.93750,  -0.93750,  -0.80402,  -0.23674,   0.93750,  -0.23646
   0.56421,   0.08104,  -0.93750,   0.55180,  -0.93750,  -0.87592,   0.93750,   0.81819,   0.14984,   0.14775
  -0.30876,   0.81501,   0.52732,  -0.49583,   0.87009,  -0.37955,   0.92362,  -0.28947,  -0.66806,  -0.68614
  -0.75340,  -0.13429,   0.93750,  -0.81813,   0.93750,   0.83255,  -0.10211,   0.14185,  -0.93750,  -0.93750
   0.87797,  -0.74661,  -0.04157,  -0.60341,  -0.71906,  -0.69965,  -0.93750,   0.76779,   0.61218,  -0.31227
  -0.86694,   0.41166,  -0.93750,   0.03973,  -0.80114,   0.93750,  -0.93750,  -0.75673,  -0.73422,   0.32392
   0.93750,  -0.11871,  -0.50977,  -0.90298,   0.13551,  -0.41530,  -0.07029,  -0.39685,   0.39124,  -0.77535
  -0.56972,   0.78027,  -0.87653,   0.47799,   0.59568,  -0.53151,  -0.80539,  -0.59384,  -0.93750,   0.23568
  -0.91962,  -0.70389,   0.81205,  -0.48116,  -0.88250,   0.71774,  -0.73881,  -0.35371,  -0.74901,   0.24218
   0.87517,  -0.86889,   0.44366,  -0.88108,   0.89520,   0.25534,   0.51009,  -0.82639,  -0.56778,  -0.15495
   0.51499,  -0.13812,  -0.93750,  -0.72332,  -0.15513,  -0.89772,   0.69724,  -0.13807,  -0.93750,  -0.93750
  -0.42059,   0.93750,   0.02092,   0.48149,  -0.79988,  -0.70081,   0.62733,  -0.58233,   0.22651,   0.22235
  -0.71841,   0.80260,   0.76743,   0.79697,   0.75107,   0.49528,  -0.72494,   0.57620,  -0.50221,  -0.70066
  -0.08267,   0.93750,  -0.29132,  -0.30278,   0.93750,   0.87669,  -0.85190,  -0.90318,  -0.69748,  -0.61672
  -0.87659,  -0.87160,   0.53135,   0.73653,  -0.62551,  -0.60466,  -0.44594,   0.93750,  -0.82079,  -0.69109
   0.89417,   0.31037,  -0.87624,  -0.56681,  -0.88185,   0.74741,  -0.24899,  -0.16393,  -0.02495,  -0.24640
  -0.71655,   0.60277,  -0.52108,   0.64855,   0.18582,   0.73115,  -0.53188,  -0.54810,   0.38140,  -0.63366
  -0.13286,  -0.40576,  -0.68023,  -0.43972,   0.93750,  -0.57264,   0.00144,  -0.87967,  -0.12383,  -0.52558
  -0.01128,  -0.01444,  -0.43353,   0.93408,   0.71106,  -0.51483,  -0.65362,  -0.49932,   0.76537,   0.80366
   0.93750,  -0.28199,  -0.93750,   0.35587,   0.93750,  -0.80567,   0.93750,  -0.59130,  -0.80677,  -0.62195
   0.93750,   0.93750,  -0.08149,   0.93750,   0.53148,  -0.70578,   0.54391,   0.93750,  -0.77030,  -0.93750
   0.58425,  -0.52116,   0.82154,  -0.54982,   0.93750,  -0.87930,  -0.29722,   0.93750,   0.38115,   0.01321
   0.92828,   0.32105,   0.25335,  -0.14503,   0.93750,  -0.56745,   0.71168,  -0.54746,  -0.73373,  -0.65218
  -0.28434,  -0.14653,   0.17047,   0.61567,   0.91179,   0.05698,   0.27389,   0.14708,  -0.30183,   0.46943
  -0.93750,  -0.90586,   0.93750,  -0.93750,  -0.16447,   0.93750,  -0.66700,   0.93750,  -0.73076,   0.02122
   0.93750,  -0.60167,  -0.33078,   0.54995,  -0.79902,  -0.90902,   0.87657,  -0.52736,  -0.76225,   0.93750
  -0.93750,   0.93750,   0.56199,  -0.68944,  -0.83401,   0.01869,  -0.21374,  -0.26976,   0.92824,   0.30345
  -0.49008,   0.75667,  -0.43703,  -0.31796,   0.00454,  -0.00693,  -0.39277,   0.85198,  -0.16980,  -0.79251
  -0.00184,   0.47569,  -0.69256,   0.71394,   0.49784,   0.75712,   0.80247,   0.46975,  -0.36434,  -0.53398
   0.72432,   0.68083,  -0.37136,   0.93750,  -0.45282,  -0.53795,  -0.08184,  -0.93750,   0.69924,   0.55682
  -0.81914,  -0.93750,   0.93750,  -0.93750,  -0.66323,  -0.00562,   0.93750,   0.93750,   0.84027,  -0.55148
   0.93750,  -0.61428,  -0.91456,   0.20155,  -0.69624,   0.70166,   0.16686,   0.93750,  -0.18688,  -0.10558
  -0.14811,   0.19582,  -0.22904,   0.80024,  -0.62287,   0.75093,   0.67018,  -0.65886,  -0.07801,  -0.12900
  -0.06968,  -0.86448,  -0.72975,  -0.05789,  -0.09857,   0.23445,   0.20620,   0.78434,   0.89690,   0.19523
  -0.68117,   0.93067,   0.31924,   0.14675,  -0.66919,  -0.76546,  -0.25028,   0.69350,  -0.61996,   0.36535
   0.41947,   0.76950,   0.15052,  -0.82200,   0.20383,   0.17309,   0.55263,  -0.73293,  -0.00297,  -0.78000
   0.51289,   0.34647,   0.31460,   0.88641,   0.78224,  -0.27082,  -0.21806,  -0.84449,  -0.15440,  -0.53701
   0.44768,   0.07464,   0.72822,   0.67665,  -0.65999,  -0.76436,   0.48518,   0.75570,  -0.31116,  -0.79466
   0.54739,   0.50207,   0.13086,   0.09463,   0.08914,   0.62040,   0.81814,  -0.23684,  -0.60827,  -0.63336
  -0.19039,  -0.20296,  -0.00709,   0.93750,  -0.64580,   0.39662,   0.07341,  -0.93750,   0.87058,  -0.81584
  -0.93750,  -0.81936,  -0.90002,   0.64605,  -0.91749,  -0.32092,  -0.74085,   0.34416,   0.93750,   0.81912
  -0.37929,   0.54823,  -0.77419,   0.93750,  -0.88000,  -0.88692,  -0.93750,  -0.76654,   0.85973,   0.93750
   0.93750,   0.93750,  -0.10884,   0.29700,  -0.03810,   0.16718,  -0.37449,  -0.53582,  -0.52103,   0.93750
  -0.65837,  -0.14020,  -0.71856,  -0.93750,   0.93750,   0.10882,   0.66676,  -0.33189,   0.87512,  -0.50563
   0.40213,  -0.57682,  -0.12044,   0.81749,   0.22947,   0.88093,   0.47195,  -0.60737,  -0.13218,   0.27858
  -0.93750,  -0.30923,   0.43615,  -0.52022,   0.48774,   0.93750,  -0.31429,  -0.38661,   0.68952,  -0.93750
   0.49290,  -0.50435,   0.76064,  -0.68494,   0.00125,  -0.47287,  -0.74960,   0.13000,  -0.11289,   0.64320
   0.93750,   0.33910,  -0.01007,   0.10649,   0.92867,   0.28242,  -0.65965,   0.87073,   0.39979,   0.93750
  -0.31825,   0.43298,   0.43265,  -0.86901,   0.89852,  -0.81399,  -0.82653,   0.93466,  -0.92091,   0.68357
  -0.54347,   0.07322,   0.33702,  -0.38233,   0.86487,  -0.32905,   0.90967,   0.59826,  -0.12810,  -0.16494
  -0.52191,  -0.56281,  -0.64386,   0.73325,  -0.93750,  -0.34865,  -0.53384,  -0.76133,   0.02003,  -0.38861
   0.10851,   0.65317,  -0.93750,  -0.93750,   0.87009,   0.93750,  -0.68435,   0.72899,   0.81331,  -0.13025
   0.51004,   0.26342,   0.41681,  -0.25358,  -0.51116,  -0.14349,  -0.74782,   0.32507,   0.55118,  -0.00416
   0.93750,   0.93750,  -0.72989,   0.93750,  -0.87547,   0.93750,  -0.77965,   0.25459,  -0.87793,   0.93750
   0.36356,  -0.87313,  -0.78697,   0.93750,   0.36087,  -0.87781,  -0.68685,  -0.39323,   0.41590,  -0.02255
  -0.87155,   0.78406,   0.93665,   0.93750,  -0.56189,   0.93750,   0.93750,  -0.87106,   0.91502,  -0.18580
   0.93750,  -0.46483,   0.93750,   0.38706,   0.55585,  -0.93750,   0.34100,  -0.93750,  -0.76241,  -0.93750
  -0.61663,  -0.16561,   0.56316,   0.73222,  -0.63611,  -0.37638,   0.88714,  -0.59056,   0.37404,  -0.14160
  -0.53876,  -0.93750,  -0.82393,  -0.62585,   0.93750,   0.27913,   0.90992,   0.93750,  -0.13648,   0.93750
   0.14722,  -0.89178,   0.09335,   0.56941,   0.63218,  -0.93750,  -0.90098,   0.93750,   0.60149,  -0.80110
  -0.47674,  -0.86829,   0.81383,  -0.80029,   0.93380,   0.86803,  -0.25479,   0.88348,   0.62152,   0.19587
  -0.43503,   0.41948,  -0.39814,   0.10154,   0.93750,  -0.93671,   0.93750,   0.93750,  -0.39345,   0.36330
   0.93750,   0.93750,  -0.46697,   0.93750,   0.47782,  -0.82236,   0.42580,   0.61812,  -0.76142,  -0.81480
   0.43315,   0.87115,  -0.10816,  -0.49874,  -0.81166,   0.57174,  -0.51999,   0.51835,   0.23798,  -0.82295
  -0.20277,  -0.31118,   0.67121,   0.08879,   0.50223,  -0.27010,   0.63214,   0.73247,  -0.42624,  -0.50731
   0.36154,  -0.64543,   0.75163,   0.19652,  -0.31971,  -0.65754,   0.93750,  -0.88008,  -0.42343,  -0.49730
  -0.79708,   0.40167,  -0.23359,   0.93750,  -0.79329,   0.93750,  -0.93750,  -0.71722,  -0.88132,  -0.77186
  -0.65900,   0.93750,   0.33819,   0.77855,  -0.64959,   0.43555,   0.93750,  -0.80924,  -0.22602,  -0.93750
   0.87939,   0.34190,   0.38846,  -0.77362,  -0.86879,  -0.01299,  -0.14667,   0.93105,  -0.04061,  -0.61466
   0.47382,  -0.93750,   0.10847,   0.09003,  -0.58835,  -0.82402,  -0.71925,  -0.61207,  -0.87285,  -0.42025
  -0.36669,   0.11092,  -0.72829,  -0.16443,   0.41802,  -0.04699,   0.75701,   0.81099,  -0.51948,  -0.67984
   0.93750,  -0.81456,  -0.72060,  -0.79592,   0.93750,   0.20647,  -0.67112,   0.82583,   0.93750,   0.61631
  -0.05899,   0.71855,  -0.04156,  -0.06710,  -0.67128,   0.47921,  -0.12408,  -0.20291,  -0.40213,  -0.41017
   0.02394,   0.62677,  -0.77485,   0.58298,   0.57479,   0.93750,  -0.86527,  -0.76524,  -0.93750,   0.86453
  -0.33995,  -0.25495,  -0.28604,  -0.24852,   0.68050,  -0.74158,  -0.63467,  -0.93750,   0.47672,  -0.93750
   0.93750,  -0.33146,   0.39800,  -0.61670,  -0.93750,   0.93750,  -0.41598,  -0.37797,   0.04031,  -0.87330
  -0.48177,  -0.00016,  -0.65446,   0.63767,   0.57051,   0.93750,  -0.93750,   0.29879,  -0.00851,  -0.63847
   0.61666,  -0.22418,   0.09888,  -0.93750,   0.23698,  -0.29649,   0.93750,  -0.93750,  -0.93750,  -0.93750
  -0.51699,   0.77146,   0.83228,   0.93750,   0.34679,  -0.87424,   0.61138,  -0.83245,   0.93750,   0.93750
   0.82921,   0.93750,   0.93750,   0.93750,  -0.65498,  -0.77069,   0.32395,   0.93750,  -0.83020,  -0.07815
  -0.73867,  -0.26976,   0.86996,   0.63374,  -0.45050,   0.58416,  -0.64944,  -0.93750,  -0.24771,   0.93750
   0.93750,  -0.80373,   0.24977,  -0.36639,  -0.45732,  -0.80901,   0.36735,  -0.35874,  -0.16128,  -0.33117
   0.77316,   0.00626,  -0.93750,   0.93750,  -0.07964,   0.00744,   0.86851,   0.09250,  -0.93750,   0.74771
   0.08687,  -0.93750,   0.20151,   0.01001,  -0.53145,   0.87723,  -0.93121,   0.31044,   0.86713,  -0.49875
   0.04628,  -0.09173,   0.46948,   0.25143,   0.83973,   0.66006,   0.63219,   0.33878,   0.45873,   0.31422
   0.17791,   0.66172,  -0.93750,  -0.81939,   0.90941,  -0.75658,   0.07778,   0.93750,   0.93750,   0.29106
  -0.75989,   0.82554,  -0.93750,   0.37551,   0.73113,  -0.62120,   0.43193,   0.93750,  -0.76788,  -0.93750
   0.36101,   0.07783,   0.12324,   0.03407,   0.93750,   0.42486,  -0.15635,  -0.61654,  -0.87340,  -0.93750
   0.22925,  -0.55079,  -0.88320,  -0.68315,   0.93750,  -0.75774,  -0.47020,  -0.93750,  -0.11333,   0.65972
  -0.59867,   0.50623,   0.39131,   0.63591,   0.02002,  -0.21626,  -0.72679,   0.81067,   0.11807,   0.16310
  -0.93750,   0.93750,   0.55034,  -0.58206,   0.93750,   0.93750,  -0.93750,  -0.74678,  -0.78246,   0.56348
   0.45067,  -0.83885,   0.83583,  -0.08536,   0.93750,  -0.10281,  -0.56500,  -0.77512,   0.22961,   0.61500
  -0.87447,   0.93750,   0.87087,  -0.31133,   0.20375,  -0.42854,  -0.11576,  -0.40492,  -0.88137,  -0.30768
  -0.39933,   0.14015,   0.09516,  -0.25011,   0.29131,   0.32783,  -0.13661,   0.81369,   0.93750,   0.93750
  -0.28303,  -0.44251,  -0.93750,  -0.40843,  -0.93750,   0.93750,   0.93750,  -0.69372,   0.72961,  -0.08845
  -0.93750,   0.86164,   0.93750,  -0.82303,  -0.93750,   0.90177,  -0.93750,  -0.93750,   0.93750,  -0.93750
  -0.50186,  -0.77836,  -0.93750,   0.93750,   0.93750,  -0.93750,  -0.93750,  -0.93750,   0.93750,   0.46655
   0.27163,  -0.73634,  -0.27765,   0.60201,  -0.12049,   0.80664,  -0.93750,  -0.16701,   0.74744,  -0.62249
  -0.08534,   0.10931,   0.08413,   0.74251,  -0.49258,  -0.37594,  -0.21666,   0.85048,  -0.93750,   0.69135
  -0.93750,   0.93750,  -0.13591,   0.93750,   0.54749,  -0.93750,  -0.93750,  -0.84881,   0.71396,  -0.93750
   0.72855,  -0.17159,   0.76268,  -0.35370,   0.24768,  -0.50463,  -0.87463,  -0.13359,  -0.24243,  -0.59963
   0.52788,  -0.28754,   0.86813,   0.92292,   0.87354,   0.93750,   0.33808,   0.21378,   0.80288,  -0.93750
   0.67256,   0.65414,  -0.93750,  -0.93750,  -0.92030,   0.32880,   0.79950,   0.86476,   0.41404,   0.93750
  -0.68303,   0.93750,   0.28918,  -0.03600,   0.68874,   0.34460,   0.68886,  -0.67646,  -0.27988,  -0.87479
   0.18125,  -0.93750,   0.93750,   0.84949,   0.01141,  -0.73702,   0.80659,  -0.87050,   0.93750,   0.54850
  -0.14470,  -0.93750,   0.60518,  -0.93750,  -0.34590,  -0.84368,   0.47582,   0.62917,   0.20931,   0.16760
  -0.93750,   0.92642,   0.40806,   0.21358,  -0.85186,   0.93750,   0.12717,  -0.93750,  -0.93750,  -0.93750
   0.66516,  -0.91511,  -0.58249,  -0.79386,  -0.73885,   0.46577,  -0.16273,  -0.81913,   0.67713,  -0.80429
  -0.66199,  -0.93750,   0.40697,  -0.55065,  -0.87838,   0.10996,  -0.87669,   0.71913,   0.07287,  -0.87013
   0.93750,  -0.57393,   0.93750,   0.93750,   0.93750,   0.07839,  -0.68281,  -0.73839,  -0.93750,  -0.88027
  -0.14602,  -0.35014,  -0.59182,  -0.35258,  -0.04825,   0.93750,  -0.22182,   0.35027,   0.57572,   0.02600
  -0.47186,   0.87861,   0.03525,   0.87911,   0.88002,   0.93750,  -0.07575,  -0.23313,  -0.88069,  -0.87261
  -0.41419,  -0.35050,  -0.91287,  -0.36111,  -0.36737,  -0.88411,  -0.87085,   0.31380,  -0.52681,   0.93750
   0.38698,  -0.23118,   0.46519,   0.17341,  -0.44998,  -0.56871,   0.18281,  -0.50403,   0.15244,   0.80735
   0.06886,   0.38539,  -0.93750,  -0.86023,   0.13182,   0.87462,   0.87994,   0.02633,   0.48497,  -0.77843
   0.93750,   0.93750,  -0.87721,  -0.62274,  -0.87455,  -0.13838,  -0.31148,  -0.18761,   0.30653,   0.25075
   0.53030,  -0.52219,  -0.83916,   0.91988,  -0.44982,   0.76573,  -0.81109,  -0.93750,   0.87109,   0.11063
   0.87061,  -0.93750,   0.18922,   0.78104,   0.71662,  -0.75341,  -0.65268,   0.16500,  -0.88404,   0.18306
  -0.75407,  -0.93750,   0.54465,   0.26641,   0.93750,  -0.93750,   0.93750,   0.47037,   0.69263,  -0.08256
  -0.93750,  -0.93750,   0.21978,   0.93750,   0.69420,   0.71477,  -0.51970,  -0.13464,   0.93750,  -0.93750
  -0.69998,  -0.75378,   0.22953,  -0.24630,   0.82241,  -0.10706,   0.85980,  -0.52655,   0.05264,  -0.68099
   0.93750,  -0.82532,  -0.16806,  -0.50924,   0.93750,  -0.83881,   0.51477,   0.67981,  -0.15087,  -0.05127
   0.58587,  -0.04894,   0.33948,  -0.36514,   0.47408,  -0.30928,  -0.77427,   0.88360,  -0.48613,   0.73081
   0.76173,   0.79649,  -0.56206,  -0.21214,   0.64404,  -0.62774,  -0.74106,   0.73734,  -0.62790,   0.93750
   0.71802,  -0.93750,  -0.04809,  -0.93750,   0.93750,  -0.58154,   0.75975,  -0.44334,  -0.49648,   0.40412
  -0.10781,   0.75279,   0.43615,   0.57243,  -0.30409,  -0.83264,   0.72241,   0.66443,   0.74716,  -0.84326
  -0.72536,   0.93750,  -0.93750,   0.90601,   0.39286,   0.88270,   0.34026,   0.93750,   0.40741,  -0.80295
  -0.36999,   0.72866,   0.62562,   0.19611,   0.44248,  -0.17711,  -0.41069,   0.67537,  -0.70700,  -0.06020
  -0.44579,   0.21018,  -0.30470,   0.93352,  -0.16374,   0.19888,   0.93750,   0.93750,  -0.17527,   0.62694
   0.79184,   0.06314,   0.45268,  -0.79712,   0.25720,  -0.06487,  -0.45976,   0.24096,  -0.93750,  -0.27084
  -0.03024,   0.60771,  -0.57527,   0.23382,   0.04646,   0.12363,  -0.39584,  -0.49744,   0.60171,   0.88241
  -0.93750,   0.09035,   0.74852,   0.18815,  -0.93750,  -0.88459,   0.22736,  -0.44755,  -0.21793,  -0.93750
   0.02769,  -0.68148,   0.09590,   0.93750,   0.93750,  -0.93750,   0.93750,   0.58192,   0.93750,   0.31962
   0.93750,   0.21113,  -0.01191,   0.38382,   0.08953,  -0.89466,  -0.63876,   0.54388,  -0.84644,   0.06474
   0.93750,   0.93750,  -0.35978,  -0.93750,  -0.93750,   0.31560,   0.74666,   0.78885,  -0.09291,   0.93750
  -0.26741,   0.93750,   0.93750,   0.22788,   0.72145,   0.74617,  -0.26124,   0.42774,   0.07613,  -0.56769
   0.93750,  -0.93750,  -0.37275,  -0.93750,   0.04935,  -0.92047,  -0.93750,  -0.70783,   0.55823,   0.93750
  -0.00030,  -0.93750,   0.24512,   0.87032,   0.93750,   0.93750,  -0.93750,  -0.93750,   0.53711,  -0.82369
   0.05246,   0.74437,  -0.46100,   0.13838,   0.25605,   0.87873,   0.28964,  -0.74630,  -0.48875,   0.55479
   0.69682,  -0.21687,  -0.52397,  -0.71028,   0.93750,   0.93732,  -0.46137,   0.20029,  -0.58999,  -0.70142
   0.93750,  -0.13756,   0.17146,  -0.80875,   0.86870,   0.56180,   0.79963,   0.83119,  -0.24543,   0.93750
   0.93750,  -0.57943,  -0.28654,   0.21404,   0.47775,   0.93750,  -0.93750,   0.16011,  -0.53725,  -0.24412
   0.93750,   0.39229,  -0.93750,  -0.63526,   0.36226,   0.49549,   0.71900,  -0.07490,  -0.29782,  -0.30059
   0.80226,  -0.11439,   0.93750,  -0.93750,   0.62074,  -0.93750,   0.16124,   0.45139,  -0.07506,  -0.93750
   0.28434,   0.93177,  -0.17654,  -0.28878,   0.77966,   0.80430,  -0.24911,   0.24381,  -0.75362,  -0.77340
   0.65650,   0.40808,  -0.21383,  -0.50345,   0.93750,  -0.55086,   0.93750,  -0.89017,   0.68636,  -0.91068
  -0.00066,   0.46504,   0.43602,  -0.48166,  -0.02589,  -0.35426,  -0.59659,  -0.54240,   0.16141,   0.93750
  -0.07123,   0.62843,   0.76588,  -0.10992,   0.93750,   0.43345,  -0.62796,   0.51315,  -0.46545,   0.38298
   0.93750,  -0.34634,   0.89181,  -0.16189,   0.93750,   0.88058,  -0.58065,  -0.79404,   0.93564,  -0.93504
  -0.42650,  -0.93750,   0.93750,   0.93750,   0.06381,  -0.93750,   0.29256,   0.93750,   0.31097,  -0.93750
  -0.93750,  -0.55732,   0.09083,   0.86460,  -0.48507,  -0.06483,   0.20860,  -0.19620,   0.34181,  -0.34052
  -0.30430,  -0.22592,  -0.87605,  -0.21265,   0.93750,  -0.87936,   0.74529,  -0.73566,   0.71088,   0.06202
  -0.93750,  -0.33695,   0.89740,  -0.81069,   0.93750,   0.28989,  -0.93750,  -0.07509,  -0.85562,  -0.86540
   0.63190,  -0.47265,   0.89596,  -0.19207,   0.88355,   0.93750,   0.93750,   0.62714,  -0.93750,  -0.38662
   0.55841,   0.12197,  -0.34276,  -0.03668,   0.54460,   0.06969,  -0.21473,   0.73864,  -0.29947,   0.07250
   0.39934,  -0.93750,  -0.93750,  -0.34837,   0.14422,  -0.93750,  -0.77581,  -0.85283,  -0.93750,  -0.86604
   0.93750,  -0.67810,  -0.87963,  -0.45503,  -0.42494,  -0.66266,  -0.87681,  -0.40247,  -0.38406,   0.31103
  -0.47422,   0.04663,   0.87798,   0.93750,   0.69252,   0.93750,  -0.88033,   0.44214,   0.14223,  -0.50542
  -0.23128,   0.58818,  -0.93750,  -0.93750,  -0.21573,   0.76352,  -0.93750,  -0.88434,   0.93750,   0.42953
   0.83928,  -0.52205,   0.15287,  -0.11761,   0.70490,   0.24038,   0.64685,  -0.54139,   0.28641,  -0.41186
  -0.69221,  -0.50235,  -0.73121,   0.73418,  -0.66621,   0.19607,  -0.18323,   0.87459,   0.20907,  -0.01870
   0.71257,   0.20510,   0.46172,  -0.44817,   0.33856,   0.25339,  -0.47585,  -0.12389,  -0.58157,   0.60074
  -0.65029,   0.93750,   0.92764,  -0.14658,   0.66764,  -0.02954,   0.12057,  -0.81085,  -0.01965,  -0.93750
  -0.36327,  -0.93750,   0.93750,   0.18189,   0.48478,  -0.73122,  -0.78601,   0.15928,   0.45246,   0.93750
  -0.75388,   0.21679,  -0.25677,   0.68033,  -0.05658,  -0.87057,   0.93750,   0.06134,   0.33528,   0.26811
   0.21664,  -0.40040,   0.25137,  -0.73762,   0.82863,  -0.51021,   0.24459,   0.92489,  -0.79734,   0.87030
   0.18493,   0.86026,   0.12816,  -0.67903,   0.93750,  -0.60037,  -0.53495,   0.32998,   0.61558,  -0.78157
  -0.87554,   0.93750,   0.23968,  -0.62142,  -0.81766,  -0.58018,  -0.70865,  -0.67906,   0.93750,  -0.87771
   0.93750,   0.51559,  -0.93750,   0.93750,   0.33096,  -0.67521,  -0.47738,   0.86667,  -0.93750,  -0.93750
  -0.44911,   0.26116,   0.06155,  -0.55841,   0.93210,  -0.67167,   0.67599,  -0.55247,  -0.25406,   0.89656
   0.82791,   0.93750,  -0.15255,  -0.03999,  -0.72703,  -0.87944,   0.30678,  -0.51190,   0.93750,   0.21899
  -0.38699,  -0.93750,   0.93750,  -0.81508,   0.93750,  -0.20936,  -0.22922,   0.93750,   0.93750,  -0.81171
   0.72861,  -0.63778,   0.14038,   0.46827,  -0.93750,   0.82512,   0.75972,   0.93750,  -0.88180,   0.86408
  -0.83840,   0.85731,  -0.93750,  -0.81096,   0.93750,   0.93750,   0.18635,   0.13687,  -0.11588,  -0.70102
   0.85395,  -0.26644,  -0.87242,   0.07098,   0.26515,   0.93750,  -0.87618,   0.24732,  -0.61699,  -0.93750
  -0.68416,   0.06012,  -0.11109,  -0.37497,  -0.87716,   0.93750,   0.67858,   0.42408,   0.87296,   0.49947
   0.34074,  -0.50025,   0.93750,   0.87045,   0.93750,   0.38790,   0.93750,  -0.16307,  -0.13830,  -0.62927
  -0.86928,  -0.10095,  -0.62134,   0.93750,   0.04379,  -0.67438,  -0.59046,  -0.09997,  -0.76747,  -0.81317
  -0.38382,  -0.74343,  -0.27135,  -0.81610,  -0.74345,  -0.37011,   0.30112,   0.93750,  -0.35978,   0.50032
  -0.61931,  -0.93750,  -0.93750,  -0.40564,   0.73486,  -0.63739,  -0.93750,  -0.93750,  -0.69439,  -0.54915
  -0.46784,  -0.11377,   0.43323,   0.39126,  -0.06293,  -0.19237,  -0.73122,  -0.93750,   0.45333,   0.15096
   0.25788,  -0.73336,  -0.87033,  -0.34047,   0.34857,   0.87126,   0.69159,   0.26518,   0.17800,   0.18906
   0.37952,  -0.88747,   0.87688,  -0.81613,  -0.93750,   0.80607,   0.37587,   0.51951,   0.35376,   0.02294
  -0.58816,   0.62247,  -0.86099,   0.87187,  -0.72055,   0.57751,  -0.93750,  -0.10207,  -0.13189,  -0.93750
  -0.93750,   0.32436,  -0.93750,   0.77770,  -0.33325,   0.42140,  -0.93750,  -0.62360,  -0.37805,  -0.85794
   0.63254,  -0.48660,  -0.81732,   0.65110,  -0.45011,  -0.60494,   0.78022,   0.78142,   0.33190,  -0.72685
   0.46991,  -0.93750,   0.63841,   0.81670,  -0.67294,  -0.93750,   0.87470,   0.34833,  -0.60974,   0.46225
   0.31351,  -0.93750,   0.68655,  -0.08529,  -0.93750,  -0.93750,  -0.64262,   0.42018,  -0.77156,  -0.93750
   0.18112,  -0.73384,   0.93750,  -0.68820,   0.47515,   0.93750,  -0.63378,   0.57941,  -0.42028,   0.93750
   0.88570,   0.80175,   0.83122,  -0.44642,   0.88679,  -0.76406,   0.51232,  -0.44679,  -0.09079,  -0.50928
   0.12009,  -0.31609,  -0.70303,   0.74848,   0.08260,   0.40083,   0.92414,  -0.00546,   0.15777,   0.40056
   0.80815,   0.44923,   0.52208,  -0.49428,   0.46169,   0.07573,  -0.36938,  -0.19203,  -0.46300,   0.47360
   0.05569,  -0.86823,   0.11661,  -0.22113,  -0.18395,  -0.37618,   0.06694,   0.75606,  -0.76018,   0.35734
  -0.48449,   0.02146,  -0.08391,   0.93750,   0.93750,  -0.67878,  -0.65264,  -0.63712,   0.00873,  -0.81140
   0.77240,   0.80265,  -0.03053,   0.03119,   0.87590,   0.68797,   0.46092,  -0.50596,  -0.59102,  -0.84071
   0.74469,  -0.22329,   0.37169,   0.46958,  -0.90671,   0.32899,  -0.93744,   0.66102,   0.52732,   0.77672
  -0.56741,  -0.93750,   0.53163,   0.72457,   0.01552,  -0.00882,   0.79099,  -0.34229,   0.58952,  -0.74964
   0.50034,   0.74318,   0.48598,  -0.74553,  -0.63478,   0.48863,   0.43931,  -0.88041,   0.02796,  -0.62117
  -0.43745,  -0.02066,   0.87959,   0.20999,   0.36303,  -0.11640,   0.87912,   0.22875,  -0.69301,  -0.29418
   0.24967,   0.18653,  -0.93750,   0.93750,   0.50954,  -0.93750,   0.86923,   0.82438,   0.93750,   0.80882
   0.69001,  -0.18388,   0.80664,   0.69929,  -0.55621,   0.29907,  -0.06080,  -0.40635,   0.72516,   0.66917
  -0.69233,  -0.76960,  -0.01229,   0.93750,  -0.42091,  -0.79925,  -0.73379,   0.84687,   0.24732,  -0.58694
   0.10411,   0.91107,  -0.27709,   0.93750,  -0.25177,  -0.35041,   0.30870,   0.70617,  -0.81189,   0.12703
  -0.70339,   0.93750,  -0.68115,   0.48408,   0.68360,  -0.59973,  -0.93750,   0.93750,   0.27709,  -0.03098
  -0.65104,   0.36697,  -0.30518,  -0.73960,  -0.64121,   0.44957,   0.59989,   0.61270,   0.65151,   0.45429
  -0.93750,  -0.90974,   0.79610,  -0.93750,   0.62819,   0.64806,   0.93750,   0.93750,   0.93750,   0.88040
   0.85603,  -0.11258,   0.00167,  -0.53627,  -0.57453,   0.79089,   0.37800,   0.33174,  -0.36181,   0.89261
  -0.47317,   0.69459,  -0.93750,   0.93750,   0.39091,  -0.57727,  -0.04627,   0.36246,  -0.40296,   0.93750
  -0.33703,  -0.60264,   0.82201,  -0.34191,  -0.16541,   0.61014,  -0.67586,  -0.10209,   0.80100,  -0.41392
  -0.19853,  -0.07490,   0.92885,   0.34562,  -0.58048,  -0.13098,   0.18990,   0.51948,  -0.81980,   0.39065
  -0.87489,   0.21185,  -0.25948,  -0.46551,  -0.93750,   0.93750,  -0.23753,   0.35927,   0.51454,  -0.93750
   0.50644,   0.60280,   0.04770,  -0.81154,  -0.46042,  -0.56034,   0.34431,  -0.74397,   0.93381,   0.80664
   0.18301,   0.64178,  -0.03605,  -0.01498,   0.25527,  -0.93750,  -0.67693,   0.93750,  -0.93750,  -0.73962
   0.63035,   0.51028,  -0.02513,  -0.26238,   0.41491,   0.54619,   0.86242,  -0.74609,  -0.24160,  -0.12547
  -0.35906,   0.93750,   0.31902,  -0.18647,   0.14655,   0.93750,  -0.26563,  -0.93750,   0.45914,   0.93750
  -0.53348,   0.87560,   0.35772,  -0.18811,  -0.25531,   0.62794,  -0.62000,  -0.73464,  -0.33368,   0.61904
  -0.05702,   0.06685,   0.85413,  -0.26772,   0.36313,   0.93750,   0.12108,   0.27730,  -0.51715,  -0.31744
   0.44394,   0.56401,  -0.39015,   0.80212,   0.57003,  -0.71137,  -0.19592,  -0.50408,   0.81326,  -0.50185
  -0.60523,  -0.25231,  -0.70372,  -0.30035,   0.38084,   0.80850,  -0.80470,  -0.55636,   0.93750,   0.26736
  -0.93750,   0.88726,  -0.65578,   0.93750,  -0.88739,   0.12233,   0.88752,   0.64024,   0.46127,  -0.50380
   0.87245,   0.71403,  -0.46058,  -0.46248,  -0.63098,   0.34472,   0.93750,   0.93750,   0.86370,   0.05384
  -0.68864,  -0.93750,   0.17602,  -0.78275,   0.57605,   0.76497,   0.62621,   0.81250,   0.22886,   0.91200
   0.02840,   0.29673,   0.15024,   0.17508,   0.70082,  -0.34352,  -0.12201,  -0.62185,   0.40191,   0.38003
   0.11350,  -0.93750,  -0.75958,   0.59565,  -0.70297,  -0.66175,   0.10246,   0.62723,   0.14517,  -0.55376
   0.93750,   0.93750,  -0.02791,  -0.12978,   0.61042,  -0.66213,  -0.93750,  -0.27067,   0.86127,  -0.17449
  -0.17714,  -0.42589,  -0.12647,  -0.28201,   0.31176,  -0.53081,   0.65414,   0.62458,  -0.33173,   0.14805
   0.93750,  -0.66273,  -0.93750,  -0.93750,   0.06545,  -0.93750,  -0.49357,  -0.48679,  -0.68700,  -0.50378
   0.11027,   0.80491,  -0.93750,  -0.81275,  -0.84719,  -0.75500,  -0.23527,   0.18243,  -0.44217,   0.93750
  -0.45792,   0.41921,  -0.41436,  -0.32426,   0.88117,  -0.17540,   0.49189,   0.87892,   0.55673,   0.69176
  -0.69551,   0.04037,  -0.02425,   0.85315,  -0.80139,   0.55812,   0.43841,   0.05082,   0.93750,   0.93750
  -0.14146,   0.76739,  -0.32396,   0.68520,  -0.31687,   0.18658,  -0.47417,   0.57855,   0.46501,  -0.32212
   0.34799,  -0.93750,  -0.51363,   0.93750,   0.93750,  -0.93750,   0.84384,   0.22511,   0.60095,  -0.93750
   0.93002,  -0.09762,   0.05286,  -0.32946,   0.93750,   0.87951,  -0.93750,   0.49462,   0.25534,   0.93750
  -0.84945,   0.08699,  -0.85281,   0.89373,  -0.15068,  -0.93750,   0.93750,  -0.87205,  -0.83750,  -0.93750
   0.01652,  -0.13962,   0.47115,  -0.33818,   0.59773,  -0.92725,  -0.16163,   0.93750,   0.49582,  -0.12392
  -0.93750,  -0.56690,  -0.93325,  -0.93750,   0.38708,   0.40225,  -0.48413,  -0.25873,   0.52033,   0.93750
  -0.04810,   0.84548,   0.21008,   0.03358,   0.82152,  -0.78340,   0.71833,  -0.67674,  -0.11816,   0.16424
  -0.87107,   0.93750,  -0.87583,   0.34372,  -0.93750,   0.93750,  -0.79872,  -0.87405,   0.84455,  -0.55358
  -0.20992,   0.00298,  -0.93750,  -0.52286,   0.93750,   0.12920,  -0.93750,  -0.22812,   0.16385,   0.10987
  -0.93750,  -0.67453,  -0.11255,   0.10881,  -0.93750,   0.58202,  -0.47540,   0.80960,  -0.61653,  -0.93750
   0.72961,  -0.79657,  -0.61414,   0.61791,  -0.51281,   0.93750,  -0.93750,  -0.18851,  -0.93750,   0.15747
  -0.75652,   0.93750,   0.37703,  -0.75073,   0.44762,   0.06447,   0.75189,  -0.93750,  -0.93750,   0.93750
   0.66660,   0.42294,  -0.59218,   0.12702,  -0.34942,  -0.38221,   0.71539,  -0.74045,   0.80815,  -0.00088
  -0.81849,   0.08716,   0.80257,   0.42441,  -0.73362,   0.82475,  -0.20057,  -0.72700,   0.11828,   0.04601
   0.48930,   0.16138,  -0.06434,  -0.52444,  -0.62160,  -0.62629,  -0.42851,   0.73077,   0.54536,  -0.26015
   0.81246,   0.93750,  -0.93750,  -0.92223,  -0.77546,   0.63037,  -0.93750,  -0.32540,  -0.93750,   0.04413
  -0.17022,  -0.46199,  -0.68522,  -0.20909,   0.78712,  -0.51504,  -0.68398,   0.51215,   0.93750,   0.73346
  -0.44125,   0.33771,  -0.61500,  -0.68187,   0.88300,   0.16988,   0.11664,  -0.93750,   0.54447,  -0.43231
   0.93750,  -0.39457,  -0.15633,  -0.47579,  -0.15879,  -0.14501,  -0.11331,   0.48531,  -0.05412,   0.09360
  -0.75802,   0.66789,  -0.93750,  -0.86676,  -0.33867,  -0.15370,  -0.61881,   0.93750,  -0.87364,   0.93750
   0.93750,   0.72600,   0.87131,   0.93750,  -0.60737,   0.88144,   0.64103,  -0.59756,   0.33071,  -0.60471
  -0.81957,   0.93750,   0.77566,  -0.27943,  -0.48474,   0.86678,   0.43139,  -0.41510,  -0.44273,  -0.87362
  -0.82323,  -0.76277,   0.45098,  -0.35754,   0.53434,   0.83409,   0.67001,   0.52147,  -0.88436,  -0.23780
  -0.20444,   0.38196,  -0.77455,  -0.25131,   0.76570,  -0.60266,  -0.93750,   0.44615,  -0.87339,   0.15497
   0.35130,  -0.61327,   0.11821,   0.77212,  -0.80548,  -0.80365,  -0.51122,   0.46659,  -0.80584,  -0.41284
  -0.93750,   0.93750,  -0.61757,  -0.60663,  -0.93750,  -0.93750,  -0.93750,  -0.93750,  -0.93750,  -0.45796
   0.33741,   0.26949,   0.93750,  -0.15516,  -0.93750,   0.93750,  -0.03567,   0.93750,   0.27953,  -0.70396
  -0.49326,   0.87719,   0.54664,   0.62416,  -0.20328,   0.35140,   0.80590,  -0.70167,   0.21035,   0.80735
   0.63320,   0.52701,   0.93750,  -0.60930,  -0.46276,  -0.34808,   0.87631,  -0.82303,  -0.17661,  -0.40173
   0.60342,   0.72472,  -0.38254,  -0.53382,  -0.14542,   0.54023,  -0.55788,  -0.09642,   0.62923,  -0.77546
   0.47601,  -0.58597,   0.80423,  -0.68703,   0.93750,  -0.76272,  -0.52402,   0.47143,  -0.14252,   0.93750
   0.93750,  -0.18685,   0.03912,  -0.93750,  -0.08264,   0.11631,  -0.42021,  -0.24921,  -0.82313,  -0.54345
   0.20303,   0.93750,   0.93750,  -0.32652,   0.85248,  -0.62444,  -0.93750,  -0.34543,  -0.87126,   0.07432
  -0.55872,  -0.87099,   0.67765,  -0.87032,  -0.85880,   0.35698,  -0.87501,  -0.68755,  -0.86102,   0.34037
   0.68897,  -0.44991,   0.02701,  -0.81164,  -0.56000,  -0.70639,  -0.19529,  -0.18746,  -0.73918,   0.68726
   0.75640,  -0.93750,   0.79031,   0.93750,   0.93750,  -0.93750,  -0.67008,   0.93750,   0.80258,   0.93750
  -0.64454,   0.52469,   0.88451,   0.07821,   0.36769,   0.93750,  -0.88463,  -0.87509,   0.21772,  -0.93750
   0.93017,   0.93750,  -0.24498,   0.15601,  -0.85674,  -0.32317,   0.93750,   0.87601,  -0.93750,  -0.56611
   0.75806,   0.78618,   0.21829,  -0.57418,  -0.00098,  -0.59077,   0.37270,  -0.02547,   0.30476,   0.31489
   0.41104,   0.93750,  -0.31722,  -0.59105,  -0.56688,   0.49146,   0.81776,   0.59279,  -0.37802,  -0.13901
   0.93750,  -0.80077,   0.83473,   0.46161,   0.93750,   0.88301,  -0.93750,  -0.56962,   0.33050,  -0.31862
   0.38801,  -0.30471,  -0.80767,   0.68090,   0.15952,   0.83042,   0.15087,  -0.12765,  -0.50435,  -0.00213
  -0.37361,   0.66797,  -0.08517,  -0.32257,   0.24427,   0.45731,   0.67548,   0.51122,  -0.47332,  -0.31019
   0.71080,   0.74759,  -0.25281,  -0.50520,  -0.58041,   0.80473,   0.71973,   0.82497,  -0.93750,   0.01033
   0.42719,   0.93750,  -0.58126,   0.56623,   0.93750,  -0.93750,  -0.93750,  -0.49010,   0.40597,   0.93750
   0.42203,  -0.93750,   0.05969,   0.01653,  -0.93750,   0.73450,   0.07423,   0.72744,   0.66637,  -0.05829
  -0.86869,  -0.51131,  -0.80194,   0.34561,   0.39934,   0.91566,   0.08676,  -0.17171,  -0.34084,   0.21331
   0.38003,   0.34469,   0.93750,  -0.28198,  -0.93750,  -0.04251,   0.02822,  -0.19059,  -0.13300,  -0.93750
   0.52685,  -0.63557,   0.45228,   0.38416,   0.93750,  -0.76218,  -0.80299,  -0.67814,  -0.27454,   0.20766
  -0.77158,   0.05926,   0.08771,  -0.93750,  -0.93750,  -0.62596,   0.88344,  -0.69019,  -0.24734,  -0.93750
   0.93750,  -0.93750,  -0.15110,  -0.81696,   0.93750,  -0.93750,   0.93750,   0.93750,  -0.93750,  -0.72031
   0.92131,   0.85782,   0.93750,  -0.93750,  -0.80630,   0.76426,   0.93750,   0.05035,   0.08147,   0.55119
  -0.32684,   0.81066,  -0.33701,   0.64495,  -0.62516,  -0.93750,   0.93750,  -0.83973,  -0.91789,  -0.36638
   0.60747,  -0.07526,  -0.75983,  -0.64888,  -0.35962,  -0.46158,   0.22938,   0.09135,   0.34717,   0.67537
  -0.63641,  -0.75848,   0.29562,   0.70393,  -0.87215,   0.54988,  -0.76552,   0.81725,  -0.02085,  -0.67324
   0.93589,  -0.79419,  -0.76476,   0.00722,   0.61325,  -0.35117,  -0.77765,   0.64635,   0.66732,   0.40062
  -0.21229,   0.67640,  -0.10244,  -0.27791,  -0.41392,   0.57980,   0.36571,   0.32102,   0.25630,  -0.52948
   0.31695,   0.87364,  -0.08315,  -0.78302,   0.93750,  -0.12967,  -0.75540,   0.93750,   0.36931,   0.63517
  -0.59155,   0.48791,  -0.65849,   0.25897,   0.93391,   0.79704,   0.01541,   0.44517,   0.26488,  -0.43681
   0.77114,  -0.42851,   0.93750,  -0.12677,   0.31202,   0.47484,  -0.73422,  -0.87696,   0.24507,  -0.87836
   0.43894,   0.65874,   0.63040,   0.55839,  -0.63838,  -0.28187,  -0.28411,  -0.52270,   0.59327,   0.82333
  -0.21310,  -0.53247,  -0.25956,  -0.42976,   0.43843,   0.67613,   0.77070,   0.93701,   0.19329,   0.60545
   0.87473,  -0.03048,   0.37709,  -0.87489,  -0.74454,   0.34067,  -0.86285,   0.24750,   0.59096,  -0.81716
   0.43267,   0.67677,   0.70810,  -0.38698,   0.51929,   0.51340,   0.61378,  -0.93750,   0.88160,  -0.60195
   0.81359,   0.81354,   0.33275,  -0.64445,   0.13396,  -0.73946,  -0.43209,  -0.00130,  -0.80447,  -0.48573
  -0.93750,   0.29730,   0.80374,   0.11462,   0.00850,   0.12129,  -0.93750,  -0.57460,  -0.76423,  -0.11845
   0.37877,   0.65368,  -0.63396,  -0.21324,  -0.93750,   0.70824,   0.06973,  -0.44594,   0.64024,  -0.45252
  -0.93750,   0.93750,   0.45292,  -0.79855,  -0.17287,  -0.75526,   0.61006,  -0.69364,   0.34949,  -0.81844
   0.82283,  -0.28289,  -0.87284,   0.49975,   0.60999,  -0.46228,  -0.26978,  -0.82878,   0.27126,  -0.82711
   0.78179,  -0.48037,  -0.59507,   0.09111,  -0.49432,  -0.17179,   0.67568,   0.93750,   0.19718,   0.14482
   0.40505,  -0.47750,  -0.00529,  -0.11270,  -0.75096,   0.82977,  -0.66717,   0.86533,  -0.15629,  -0.73283
   0.52892,  -0.61626,  -0.67689,  -0.29082,  -0.12859,  -0.93750,   0.87797,  -0.86742,   0.50029,   0.27434
   0.93750,  -0.87798,   0.07058,  -0.81291,   0.31562,   0.93750,  -0.31382,  -0.93750,  -0.81428,  -0.56965
   0.93750,  -0.29328,   0.93750,   0.09192,  -0.87671,   0.20309,   0.93750,  -0.93750,   0.93750,  -0.79542
   0.34765,   0.93750,  -0.00347,  -0.87306,   0.40078,   0.24335,   0.06211,   0.86359,  -0.26152,  -0.81145
   0.13616,  -0.19142,   0.44526,   0.58901,   0.59299,   0.30237,   0.56079,   0.11578,  -0.20507,  -0.13289
   0.93750,  -0.61262,  -0.87797,  -0.13569,   0.69187,   0.37136,   0.09029,   0.01782,  -0.64910,   0.21236
  -0.73427,  -0.62457,   0.65999,   0.43286,   0.55567,   0.76185,  -0.12690,  -0.56773,   0.86949,   0.33653
   0.01204,  -0.38787,   0.87298,  -0.53619,  -0.23301,   0.45703,   0.70133,  -0.67379,   0.56161,  -0.19928
   0.00183,  -0.75784,  -0.65120,  -0.56040,  -0.53824,   0.93750,   0.93750,  -0.87375,  -0.03247,  -0.53751
  -0.28451,   0.93750,  -0.93750,   0.01278,  -0.63613,  -0.62498,  -0.29577,   0.27888,  -0.24105,  -0.93750
  -0.47058,   0.93750,  -0.56829,  -0.63194,  -0.60818,  -0.24122,   0.43535,   0.36871,   0.37611,  -0.09216
   0.58267,   0.31593,  -0.55858,   0.80866,   0.70122,  -0.93750,  -0.06078,   0.30789,   0.88119,  -0.42697
  -0.67231,  -0.29169,  -0.74793,  -0.40742,   0.93750,  -0.41589,   0.73936,   0.54151,  -0.93750,   0.80744
   0.09786,  -0.87208,   0.10117,   0.54217,  -0.93750,   0.93750,  -0.93750,  -0.93750,  -0.93750,  -0.93750
   0.04855,   0.67705,   0.55981,  -0.45192,   0.87482,   0.52519,   0.40952,  -0.13307,  -0.25426,  -0.72682
  -0.54013,  -0.46276,  -0.87717,  -0.01449,  -0.10432,   0.82555,   0.33490,  -0.68728,   0.66882,   0.25072
   0.54819,  -0.23134,   0.00916,   0.93750,   0.93750,  -0.69602,  -0.74241,   0.93750,  -0.81257,  -0.03438
  -0.40376,   0.46145,   0.79032,   0.23819,   0.80623,   0.33029,   0.33679,  -0.12388,  -0.27053,  -0.70372
   0.42653,  -0.06035,  -0.19708,   0.48487,  -0.37775,  -0.03097,   0.63419,  -0.39706,   0.19297,   0.23532
   0.13801,   0.45497,  -0.10214,   0.75421,   0.28469,  -0.39717,  -0.92139,  -0.55978,  -0.54939,   0.07737
  -0.49575,   0.75071,  -0.55112,   0.76770,   0.87249,  -0.37400,   0.37011,   0.01845,  -0.32089,  -0.79062
  -0.14442,   0.55920,   0.83536,  -0.18475,   0.82473,  -0.89267,  -0.75743,  -0.69849,   0.76026,   0.80793
  -0.87278,  -0.78718,   0.15070,   0.55634,   0.01968,   0.77156,   0.93750,   0.93750,  -0.72632,  -0.66495
  -0.39172,  -0.63792,   0.81906,  -0.87665,   0.07073,  -0.64009,  -0.54710,   0.93750,  -0.93750,   0.63898
   0.93750,   0.56908,  -0.93750,   0.93750,   0.93750,   0.12545,  -0.93750,  -0.92660,  -0.93750,   0.93750
  -0.69291,  -0.39418,   0.69236,   0.81119,  -0.62652,  -0.70381,  -0.38307,   0.42263,   0.71341,   0.03184
   0.38869,   0.29397,  -0.93750,  -0.85615,  -0.93750,   0.93750,  -0.61810,  -0.79423,   0.01385,   0.11557
  -0.93750,  -0.93750,  -0.15747,  -0.01845,   0.93750,  -0.93750,  -0.66737,   0.08483,  -0.77041,  -0.93750
  -0.14669,   0.63732,   0.45382,   0.39796,  -0.60575,   0.57014,   0.25148,  -0.30030,   0.21726,   0.02496
   0.93750,  -0.57315,   0.27401,   0.37434,  -0.14463,   0.80808,  -0.79997,   0.29829,  -0.08254,   0.14977
   0.19690,   0.32320,   0.25456,  -0.50865,  -0.04457,   0.32274,   0.08273,   0.48065,  -0.30109,   0.53273
  -0.06632,   0.83042,   0.93750,  -0.93750,   0.49954,  -0.50750,  -0.87628,  -0.25579,  -0.93750,   0.93750
  -0.88351,  -0.93750,  -0.87041,   0.93750,   0.93750,  -0.10702,  -0.61777,  -0.93750,   0.29898,   0.91269
  -0.81598,  -0.87914,  -0.31169,  -0.50240,   0.93750,   0.45310,  -0.87274,  -0.71363,  -0.80837,  -0.88340
   0.75348,   0.77295,   0.93750,  -0.77180,   0.86082,   0.43409,   0.62507,  -0.15578,  -0.93750,  -0.93750
   0.93750,   0.30239,   0.74250,  -0.92337,   0.93750,   0.47303,   0.93750,   0.24809,   0.60475,   0.93750
  -0.75019,  -0.86536,   0.62020,   0.07764,  -0.00490,   0.32115,   0.15856,   0.71766,   0.93750,  -0.28762
  -0.93750,   0.14730,  -0.93750,  -0.93750,   0.93750,  -0.93750,  -0.26122,   0.86560,   0.24711,   0.53743
  -0.60181,   0.81030,   0.86363,   0.53716,  -0.08239,   0.93750,  -0.33289,   0.77012,  -0.65040,  -0.36516
  -0.17990,   0.00158,   0.93750,  -0.93750,  -0.93750,   0.38339,  -0.87984,  -0.93750,   0.93750,   0.93750
   0.05845,  -0.33390,   0.52171,   0.31926,   0.68722,  -0.38988,   0.26671,   0.06625,  -0.51078,   0.41891
  -0.20357,   0.93750,  -0.56829,  -0.20744,   0.93750,  -0.93750,  -0.86264,  -0.93750,  -0.90152,   0.93750
  -0.38513,  -0.28272,  -0.42886,   0.48506,   0.74697,   0.72063,  -0.70379,   0.87015,   0.83099,  -0.40773
  -0.93750,   0.86917,  -0.49782,   0.84010,  -0.73609,   0.43457,  -0.92168,  -0.93750,   0.48741,  -0.83002
   0.93750,  -0.62355,   0.93750,   0.19837,  -0.93750,  -0.34528,  -0.93750,  -0.00375,  -0.81303,  -0.93750
  -0.93750,  -0.87586,  -0.44686,   0.28249,  -0.84698,  -0.59242,   0.10548,   0.93750,   0.83694,  -0.18403
  -0.93750,   0.74392,   0.13706,  -0.93750,   0.08305,   0.56934,   0.93750,  -0.47853,   0.93750,  -0.90504
  -0.93750,  -0.35550,  -0.37625,   0.93750,  -0.74402,  -0.93750,  -0.48918,   0.19619,   0.22459,  -0.54430
  -0.02937,  -0.93750,   0.93750,  -0.93057,  -0.81160,  -0.47893,   0.93750,  -0.88564,  -0.77169,   0.57158
  -0.86395,  -0.37803,   0.93750,  -0.43725,  -0.67203,   0.39517,   0.26616,   0.87800,  -0.44069,   0.86444
  -0.80518,   0.35157,   0.93750,   0.54362,  -0.10481,  -0.13660,   0.87464,   0.75914,  -0.68711,   0.93750
  -0.25092,  -0.16476,   0.81775,  -0.49191,  -0.02437,   0.93750,  -0.21776,   0.63403,   0.17224,   0.75466
   0.31286,   0.72454,   0.25880,   0.93750,   0.05312,  -0.02052,   0.93750,  -0.13138,   0.93750,  -0.46561
  -0.08838,   0.14498,  -0.75192,  -0.11722,  -0.86846,   0.14974,   0.88625,  -0.38956,  -0.17322,  -0.50326
  -0.29878,  -0.68064,  -0.86289,  -0.00036,   0.93750,   0.69720,  -0.69914,  -0.43619,   0.50951,  -0.11886
   0.38066,  -0.93750,   0.27242,   0.74978,  -0.31561,   0.43124,   0.93750,   0.29633,  -0.73269,   0.36842
  -0.93750,  -0.25770,   0.10012,  -0.76149,   0.93750,  -0.93750,   0.09824,  -0.93750,  -0.12564,   0.79610
   0.93750,  -0.44666,  -0.32904,  -0.64087,  -0.47998,   0.87195,  -0.82597,   0.35195,   0.00466,   0.50606
  -0.27742,  -0.50979,  -0.93750,  -0.11449,   0.93750,   0.68044,   0.59714,   0.53915,  -0.67419,  -0.06971
  -0.40301,  -0.87010,  -0.93750,  -0.87631,  -0.87388,   0.93750,   0.80886,  -0.87425,   0.24702,  -0.93750
  -0.51041,  -0.67150,   0.38504,   0.47220,  -0.17120,   0.86670,  -0.68599,  -0.83249,  -0.26181,   0.44063
   0.81928,  -0.09856,  -0.88318,  -0.48885,   0.33255,   0.25264,  -0.93107,   0.63994,   0.73759,   0.86775
  -0.33129,  -0.32602,  -0.62077,  -0.76231,  -0.25700,   0.88507,  -0.32320,   0.80568,   0.20355,   0.86646
   0.46331,  -0.77200,   0.93750,  -0.93750,  -0.18748,  -0.76662,  -0.25690,   0.93750,  -0.10013,   0.35887
   0.10818,  -0.93750,  -0.87144,  -0.62487,   0.93750,  -0.17959,  -0.01515,  -0.51115,  -0.29919,   0.92180
  -0.10677,   0.59505,   0.29384,   0.41462,   0.49036,   0.69454,  -0.81704,  -0.50816,  -0.25410,   0.25424
   0.64244,   0.20041,  -0.88459,   0.34297,  -0.71178,   0.09217,  -0.93087,  -0.03768,  -0.48282,   0.27152
   0.22017,   0.87654,  -0.39147,   0.37597,  -0.93750,   0.80692,   0.85724,  -0.56324,   0.56271,   0.85016
   0.02060,   0.57945,  -0.24400,   0.67509,   0.03388,  -0.42162,  -0.11356,   0.88213,   0.12203,   0.60046
  -0.47343,   0.22127,  -0.47487,   0.93750,   0.08525,  -0.86834,   0.93750,   0.93750,   0.49360,  -0.93750
  -0.93750,  -0.79456,  -0.26160,  -0.10898,  -0.83878,   0.93750,   0.93750,   0.93750,  -0.78411,  -0.93750
  -0.45897,   0.02131,  -0.93750,   0.93750,  -0.14207,  -0.81081,  -0.93526,   0.17242,   0.93750,   0.00774
   0.23490,  -0.93100,   0.93750,  -0.26745,   0.86932,  -0.93750,   0.93750,  -0.93750,  -0.43011,   0.93750
   0.02796,  -0.00819,  -0.86103,  -0.78198,  -0.02700,   0.38520,  -0.73529,   0.83126,  -0.48135,   0.23270
  -0.18705,   0.86837,  -0.36532,  -0.26707,   0.81336,   0.36183,  -0.41844,  -0.48893,  -0.74177,  -0.44245
   0.93750,   0.27554,  -0.93750,  -0.85813,   0.93750,  -0.93750,   0.93750,   0.36220,  -0.63154,  -0.93750
   0.55568,   0.01742,  -0.93750,   0.93750,   0.43338,   0.49462,  -0.37926,  -0.54455,  -0.50372,  -0.69124
   0.93750,  -0.29522,  -0.21207,   0.93750,  -0.93750,  -0.93750,   0.77478,  -0.93750,  -0.33661,  -0.22624
   0.21103,  -0.88336,  -0.87862,  -0.52679,  -0.05011,   0.48381,  -0.69668,  -0.93750,  -0.53442,   0.61350
  -0.93750,  -0.89463,   0.69902,   0.93750,  -0.04936,   0.07332,   0.50827,   0.04476,   0.17918,   0.90919
  -0.24598,   0.51340,  -0.80796,   0.62390,   0.32204,  -0.36739,  -0.15796,   0.55671,   0.58638,   0.61800
   0.31881,  -0.93750,  -0.93750,   0.93750,   0.31197,   0.93750,  -0.93750,  -0.37655,  -0.68393,   0.55812
   0.56357,  -0.93750,   0.93750,  -0.93750,   0.04784,  -0.93750,   0.74958,   0.82829,   0.85802,  -0.93750
   0.71421,  -0.79892,   0.93750,  -0.93750,   0.19845,  -0.61913,   0.82341,  -0.41215,   0.14545,  -0.93750
   0.08441,  -0.66058,  -0.70216,   0.93750,  -0.87636,   0.11438,  -0.03984,  -0.47134,  -0.38947,   0.93750
  -0.27093,  -0.93750,   0.58847,   0.93750,  -0.93750,  -0.40645,  -0.44328,   0.93750,   0.06381,  -0.93750
  -0.03348,   0.35050,  -0.85610,  -0.49307,   0.28068,  -0.60072,   0.36935,   0.89470,   0.34821,   0.67779
  -0.52454,   0.72749,  -0.01696,  -0.86474,  -0.32811,  -0.79021,   0.79140,  -0.39809,  -0.51898,   0.85368
   0.53245,   0.80678,   0.93750,   0.36287,   0.79927,  -0.04374,   0.79615,   0.88201,   0.63905,   0.86807
  -0.93750,   0.77419,   0.59935,  -0.86851,  -0.88041,  -0.42557,  -0.10403,  -0.54463,   0.35560,  -0.30743
   0.14840,  -0.63933,  -0.00239,   0.87909,   0.74675,  -0.33248,   0.49248,   0.31893,  -0.20481,   0.51247
   0.43113,  -0.29876,   0.33773,  -0.75813,  -0.37392,   0.80759,  -0.31119,  -0.66385,   0.81606,   0.13452
   0.44937,  -0.47830,  -0.82439,  -0.71850,   0.11316,   0.89402,   0.88086,  -0.68472,  -0.75658,  -0.76079
  -0.10190,   0.54453,   0.37616,   0.86903,  -0.43338,  -0.81812,  -0.44265,  -0.06841,  -0.63638,   0.73678
  -0.01488,   0.90936,  -0.74030,  -0.67562,   0.57768,   0.49204,   0.81660,  -0.93750,  -0.45251,   0.66659
   0.21281,  -0.73853,  -0.34679,  -0.60639,   0.86732,   0.82660,  -0.01686,  -0.81700,   0.70543,   0.56388
   0.87858,  -0.70031,   0.04334,   0.18749,  -0.74222,   0.39803,  -0.23375,   0.45854,   0.80359,  -0.49486
   0.22477,   0.79732,   0.09170,  -0.66522,  -0.68523,   0.60321,  -0.74926,   0.03382,   0.34989,   0.22735
   0.46556,  -0.87159,  -0.73201,  -0.93722,   0.89574,   0.87111,  -0.88596,  -0.35437,  -0.15854,   0.79571
   0.93750,   0.77565,  -0.61626,   0.93750,  -0.68778,   0.39045,  -0.88218,  -0.28921,  -0.62767,  -0.07001
   0.88341,   0.80334,   0.02698,   0.88237,  -0.80426,  -0.20399,   0.07740,   0.61425,  -0.93750,   0.87666
   0.79991,  -0.93750,   0.93750,  -0.52928,  -0.08446,   0.18316,  -0.82460,   0.49134,   0.87905,  -0.80618
  -0.83287,   0.86221,   0.93750,   0.93750,   0.58012,   0.34830,  -0.42189,  -0.59180,   0.87249,  -0.31187
   0.20742,  -0.93750,   0.93750,  -0.75599,   0.93750,  -0.09569,   0.39802,   0.80742,   0.36653,   0.65217
  -0.24651,  -0.00812,   0.93750,  -0.93750,   0.93750,  -0.70374,  -0.82337,   0.58956,  -0.32811,   0.54105
  -0.53751,   0.80058,  -0.67752,   0.73417,   0.93750,  -0.54789,  -0.80396,   0.61783,  -0.48717,   0.93750
   0.24223,   0.40917,  -0.05594,   0.33300,  -0.01559,   0.58978,  -0.87247,   0.08005,   0.07788,   0.75806
   0.87705,   0.23219,   0.71616,  -0.05982,   0.93750,   0.72460,  -0.61870,   0.84647,  -0.19223,  -0.81138
  -0.81078,   0.48300,  -0.82058,  -0.04768,   0.93750,   0.77800,  -0.93750,  -0.93750,  -0.88326,   0.93750
  -0.93750,   0.00165,  -0.06536,  -0.58709,  -0.93750,  -0.10558,  -0.93750,   0.22214,  -0.93750,  -0.69327
   0.93750,  -0.93750,   0.72178,  -0.39853,   0.71823,   0.07728,   0.02233,   0.64243,  -0.87162,   0.93750
  -0.58537,  -0.81128,   0.71200,   0.76888,   0.20472,   0.79762,   0.30325,  -0.46805,  -0.50908,   0.32930
  -0.28126,  -0.87175,   0.33894,   0.48104,   0.06681,  -0.38751,   0.14606,  -0.87252,   0.13018,  -0.72159
  -0.93750,  -0.69129,  -0.86564,  -0.61899,  -0.51585,   0.93750,   0.22324,   0.08539,   0.37752,   0.90798
  -0.36551,  -0.93750,  -0.17813,   0.51696,  -0.91928,  -0.93750,  -0.93750,   0.93750,  -0.49341,   0.72596
   0.89477,  -0.15396,  -0.93750,  -0.15399,  -0.93750,   0.75859,   0.29336,   0.64068,  -0.93750,   0.81719
  -0.82296,  -0.82253,   0.12835,  -0.05336,   0.70507,  -0.73708,  -0.87222,   0.67326,   0.04962,   0.55181
  -0.68530,  -0.08604,  -0.00254,  -0.81461,   0.54193,  -0.74731,  -0.37858,  -0.59026,   0.16437,   0.88868
   0.37670,  -0.68676,   0.17911,   0.80006,   0.87631,   0.67833,  -0.31654,  -0.76798,  -0.72375,  -0.82307
  -0.93750,   0.93750,   0.33281,  -0.24969,   0.59145,  -0.93750,  -0.83865,  -0.93750,  -0.93750,  -0.72645
   0.47738,   0.40364,   0.93750,   0.86810,  -0.61391,  -0.83576,  -0.93750,  -0.00144,  -0.27666,  -0.01597
  -0.48612,  -0.87675,  -0.10659,   0.12749,  -0.40197,   0.57088,  -0.93750,   0.85294,   0.56515,  -0.06739
  -0.36510,  -0.27947,  -0.81559,  -0.42878,  -0.62938,  -0.81036,  -0.29353,  -0.47302,  -0.18405,   0.93750
  -0.93750,   0.34554,  -0.93750,  -0.67166,  -0.93750,   0.93750,   0.36268,   0.04187,   0.82373,  -0.36508
  -0.69731,  -0.93750,  -0.31641,   0.14997,   0.93750,   0.93750,   0.59681,  -0.64154,  -0.80889,  -0.17754
   0.82932,  -0.40087,  -0.38103,   0.69292,   0.83252,  -0.93750,  -0.93750,   0.05337,   0.80973,   0.05974
   0.09208,   0.76041,   0.45706,   0.22036,  -0.25009,   0.09887,  -0.51685,  -0.11075,  -0.52681,   0.07229
   0.86364,   0.68999,   0.30854,  -0.79755,   0.77474,   0.35563,   0.29639,  -0.74116,  -0.22634,  -0.87700
