  -0.09507,  -0.52899,  -0.51296,  -0.27553,   0.20241,   0.40850,   0.93750,  -0.57525,  -0.62291,  -0.55057
   0.03844,   0.93750,  -0.93750,   0.42347,   0.30452,   0.24133,   0.54776,   0.93750,   0.93750,  -0.65139
  -0.56170,   0.71167,   0.16279,  -0.74604,  -0.89841,   0.21258,   0.93750,  -0.46434,  -0.62174,   0.91792
  -0.06966,   0.06792,  -0.36444,   0.44867,  -0.73133,   0.75904,   0.01084,   0.12847,  -0.26711,  -0.09040
   0.79343,   0.82496,  -0.60991,  -0.93750,   0.86257,  -0.93750,   0.93750,   0.93750,   0.81985,  -0.42614
  -0.78222,  -0.16155,   0.44806,   0.09217,   0.93750,   0.93750,  -0.93750,  -0.75575,  -0.73625,   0.47677
   0.19650,   0.48694,  -0.59558,   0.15665,   0.14464,  -0.77242,   0.05771,   0.92141,   0.32386,  -0.61165
   0.02119,   0.29732,  -0.13134,  -0.69069,   0.56301,   0.68095,  -0.06771,   0.43760,   0.08764,  -0.23824
  -0.04490,   0.21181,   0.83419,  -0.23171,   0.59230,   0.23375,  -0.55986,  -0.46929,  -0.07696,   0.60092
   0.22631,   0.23331,  -0.93750,  -0.68451,   0.93750,  -0.86220,   0.93750,  -0.16017,   0.31496,   0.13279
  -0.63229,  -0.87163,   0.93750,   0.93750,  -0.64299,   0.93750,  -0.63787,  -0.50311,  -0.08397,  -0.73058
   0.40173,   0.55467,  -0.63432,   0.74789,   0.93750,  -0.30514,  -0.87915,  -0.11812,  -0.54039,   0.24953
  -0.15724,   0.27252,   0.01057,   0.22114,   0.26159,  -0.06030,   0.26268,   0.43281,  -0.01132,   0.25412
   0.88096,   0.51078,  -0.84482,  -0.82757,   0.47245,  -0.18121,   0.03503,  -0.74940,   0.73947,   0.68365
   0.93750,   0.93750,   0.93750,   0.06802,   0.93750,   0.39454,  -0.74876,  -0.90441,   0.93750,   0.93750
  -0.18406,   0.31206,   0.73356,  -0.91808,   0.87563,   0.50736,   0.34536,   0.87425,  -0.21056,   0.22023
  -0.87665,  -0.26205,  -0.73989,   0.93750,  -0.82134,   0.87820,   0.75743,  -0.93750,   0.43548,  -0.30859
  -0.32099,   0.93750,  -0.37481,  -0.52798,  -0.93750,   0.35502,  -0.70266,  -0.61365,   0.29024,  -0.56190
   0.10894,   0.87446,   0.06305,   0.87666,  -0.18166,  -0.82996,  -0.80690,  -0.13213,   0.00655,   0.87580
   0.93750,   0.86756,  -0.57503,   0.75357,  -0.14950,   0.49701,  -0.48348,  -0.00592,  -0.54227,  -0.36143
   0.85881,  -0.29676,   0.33691,   0.10737,   0.43527,   0.24260,   0.76045,  -0.54900,   0.33841,   0.87927
   0.04420,   0.44304,  -0.26703,   0.25291,  -0.44601,   0.85910,   0.32816,  -0.93750,  -0.21646,  -0.15127
   0.67246,  -0.81983,   0.93750,  -0.56233,   0.93750,   0.89254,  -0.74850,  -0.79941,   0.93750,  -0.29068
  -0.70255,   0.93750,   0.41069,  -0.54163,  -0.58413,  -0.42151,  -0.34287,  -0.57678,  -0.73664,  -0.93750
  -0.55008,   0.67128,   0.47505,  -0.33276,   0.82690,   0.68401,  -0.68706,  -0.93750,   0.18476,  -0.89737
  -0.93750,   0.66156,   0.46078,   0.64835,   0.46918,  -0.12462,  -0.80745,  -0.53810,  -0.09454,  -0.24395
  -0.25848,  -0.57559,  -0.76518,  -0.41382,   0.93126,   0.87014,  -0.36958,   0.93750,   0.42347,  -0.39220
   0.87616,   0.93750,  -0.32732,   0.86162,   0.31144,   0.03913,   0.22151,   0.17309,  -0.55580,  -0.87519
  -0.75812,  -0.20330,  -0.81632,   0.19564,  -0.31740,   0.11862,  -0.77226,   0.57729,   0.09126,   0.11944
  -0.54394,   0.84526,  -0.87742,  -0.84771,   0.75123,  -0.47500,  -0.29220,  -0.61604,   0.55010,   0.79497
   0.93750,  -0.86214,   0.93750,  -0.82700,  -0.93750,  -0.47946,  -0.68192,   0.59822,  -0.24863,  -0.55463
   0.56634,   0.58434,  -0.11999,   0.76160,  -0.09448,   0.13286,   0.93750,  -0.87581,   0.87089,   0.54674
   0.93750,  -0.93750,  -0.06848,  -0.37978,   0.93750,   0.79268,   0.93750,  -0.29027,  -0.20908,  -0.26535
   0.60084,   0.41748,  -0.86625,   0.11398,   0.93750,   0.54780,  -0.93750,  -0.73855,  -0.75522,  -0.81285
   0.52073,  -0.82097,  -0.90936,   0.54606,   0.93750,  -0.92811,  -0.46279,  -0.77786,  -0.15550,  -0.03088
   0.50061,  -0.79704,  -0.05716,  -0.92333,   0.30428,  -0.36373,  -0.39182,  -0.26071,   0.34471,   0.93750
   0.32919,   0.86797,   0.93750,  -0.93750,  -0.63238,  -0.13447,  -0.01362,  -0.24038,  -0.11341,   0.74535
   0.39175,   0.12259,  -0.69456,  -0.86165,  -0.26764,   0.93392,   0.93750,   0.89282,  -0.13718,   0.12724
  -0.36221,   0.81088,   0.85170,   0.49065,  -0.30559,   0.19556,  -0.44583,   0.12249,  -0.43936,   0.39228
   0.93750,   0.46354,   0.93750,  -0.47557,   0.15762,  -0.66302,  -0.05768,  -0.20511,   0.81866,  -0.30597
   0.93750,  -0.59334,  -0.68316,  -0.50198,   0.00595,  -0.36729,   0.24920,   0.75975,   0.93750,  -0.25939
   0.84288,  -0.30278,   0.80965,  -0.74463,   0.92448,  -0.20560,   0.93516,  -0.43799,   0.29127,  -0.43820
  -0.74543,  -0.82503,  -0.00583,  -0.30305,  -0.29889,   0.15224,   0.59277,  -0.04267,  -0.17794,   0.93750
   0.93750,   0.82951,   0.67799,   0.21481,   0.93750,  -0.93750,   0.93750,   0.93750,   0.33262,   0.93750
  -0.18755,  -0.17429,  -0.89009,  -0.66106,   0.60013,   0.87516,  -0.85598,   0.93750,   0.76093,  -0.15160
  -0.16902,   0.39621,   0.61885,  -0.12752,   0.79645,  -0.13207,   0.09779,  -0.04731,   0.56709,   0.24672
   0.40127,   0.93750,  -0.63969,  -0.77843,   0.93750,   0.93750,   0.03773,  -0.87993,   0.21086,   0.93316
  -0.93694,  -0.89870,   0.40571,   0.87363,   0.85841,   0.67716,   0.92908,   0.50323,  -0.73045,  -0.70031
   0.82473,   0.50403,  -0.52683,   0.17660,   0.85813,  -0.05954,  -0.36037,  -0.15254,  -0.60462,  -0.77584
  -0.09120,   0.93750,   0.07925,  -0.21865,   0.32318,   0.07719,  -0.74952,   0.07338,  -0.87029,  -0.45786
  -0.86748,  -0.81811,  -0.16763,  -0.26294,   0.54846,  -0.68480,   0.44358,  -0.37621,   0.42915,   0.40842
  -0.58508,   0.93451,  -0.60507,  -0.93750,  -0.88131,  -0.58187,  -0.85068,   0.93750,  -0.73326,   0.93675
   0.87491,   0.55398,  -0.75906,   0.08119,  -0.80378,   0.55479,   0.47556,  -0.03674,   0.10283,   0.76189
  -0.69567,   0.82947,  -0.72157,   0.39106,  -0.13124,  -0.39606,  -0.09183,  -0.73479,  -0.04647,  -0.60452
  -0.93750,   0.34372,  -0.68900,  -0.61862,   0.23893,   0.41369,  -0.02248,   0.25446,  -0.29672,  -0.40315
  -0.23127,   0.93750,  -0.11498,  -0.75109,   0.86655,   0.93750,  -0.80492,   0.88328,   0.03267,  -0.02613
  -0.49072,   0.17881,  -0.59411,   0.04120,   0.48188,  -0.19917,  -0.56867,   0.18456,   0.93750,  -0.50780
  -0.44035,  -0.69263,  -0.62499,  -0.59952,   0.22116,  -0.75311,   0.75166,  -0.68845,   0.88034,  -0.80307
  -0.93750,  -0.12742,   0.09494,  -0.63534,  -0.88024,  -0.43527,  -0.93750,  -0.93750,   0.26956,  -0.87408
  -0.46127,  -0.76361,  -0.87767,  -0.75134,  -0.78378,   0.93750,  -0.62327,  -0.93750,  -0.90707,   0.04575
  -0.93750,   0.93750,   0.93750,   0.93750,   0.54650,   0.93750,   0.93750,   0.93750,  -0.93750,   0.18029
  -0.86700,   0.43910,   0.44612,   0.87440,  -0.88333,  -0.87312,   0.68681,  -0.80217,   0.29198,  -0.27373
  -0.10600,   0.36910,   0.36219,  -0.69582,   0.53803,   0.06738,   0.44145,   0.56591,  -0.48258,  -0.31407
   0.77732,   0.76106,  -0.37453,  -0.49738,   0.87539,   0.41835,   0.93750,  -0.29803,  -0.34103,   0.28006
   0.67916,   0.15219,  -0.36967,  -0.19941,  -0.59293,   0.87490,  -0.06429,   0.75308,   0.04143,   0.16416
  -0.37614,  -0.60661,  -0.87187,  -0.74101,  -0.22903,   0.93750,  -0.46079,   0.73724,   0.93750,   0.28247
   0.24055,  -0.02214,  -0.19477,  -0.67829,   0.04724,  -0.26497,  -0.21630,   0.93524,  -0.23555,   0.04310
   0.64361,   0.27726,   0.93750,  -0.93750,  -0.14077,   0.73729,   0.60419,  -0.76460,   0.59376,   0.15307
   0.66335,  -0.03419,  -0.33487,  -0.28783,   0.45339,  -0.62317,   0.10679,   0.63357,   0.51666,  -0.65140
  -0.17072,  -0.13650,   0.17037,  -0.17161,  -0.72980,   0.80764,   0.80641,  -0.22973,  -0.01393,   0.17673
   0.60028,  -0.16773,   0.13304,  -0.06846,   0.58302,  -0.23243,   0.84975,  -0.69128,  -0.03590,  -0.47264
  -0.47450,   0.25022,   0.79849,  -0.19589,  -0.18364,   0.65323,  -0.46596,   0.08558,   0.17661,  -0.22939
   0.22626,  -0.93750,  -0.56307,  -0.37565,  -0.93750,  -0.83542,   0.33777,  -0.41369,  -0.87293,   0.93750
  -0.93750,  -0.86478,  -0.93750,   0.93750,  -0.93750,   0.62783,  -0.93750,   0.80698,   0.55334,  -0.93750
   0.62110,  -0.71703,   0.93750,  -0.66246,  -0.37863,  -0.67677,  -0.76658,  -0.16957,  -0.01791,   0.35092
  -0.09056,   0.88593,   0.50141,   0.21792,  -0.49266,  -0.35493,   0.01779,   0.53824,  -0.57278,  -0.56199
  -0.87630,   0.93750,  -0.55076,  -0.73723,  -0.35761,  -0.51123,   0.49546,   0.43992,   0.12535,   0.26067
  -0.82193,   0.75645,   0.84760,  -0.87217,   0.93750,   0.87552,  -0.17461,   0.93086,   0.14374,  -0.44405
  -0.38366,   0.52850,  -0.80131,  -0.37222,  -0.44203,  -0.16377,   0.87205,  -0.56741,   0.87320,   0.75638
   0.89209,  -0.42123,  -0.93750,  -0.87449,  -0.93750,   0.87321,  -0.93750,   0.45317,   0.80845,   0.81663
   0.93545,  -0.87202,   0.17610,  -0.02242,  -0.84305,   0.40074,  -0.39510,  -0.60402,   0.82476,  -0.92329
  -0.25109,  -0.11858,  -0.83802,  -0.87593,   0.86122,  -0.23885,   0.93750,   0.06403,  -0.33731,  -0.03702
   0.41552,   0.74443,  -0.64457,   0.19880,   0.93750,  -0.66225,  -0.86577,  -0.81608,   0.93081,  -0.88458
   0.08647,  -0.93750,   0.59654,  -0.93750,   0.82187,  -0.42391,   0.30230,  -0.93750,   0.93750,   0.22210
  -0.37774,   0.08302,  -0.85604,   0.27600,   0.93750,   0.54809,   0.56012,   0.35282,   0.09806,  -0.45605
   0.47196,  -0.93750,  -0.93750,   0.93750,   0.93750,   0.93750,  -0.81901,   0.83358,  -0.93750,  -0.93750
   0.35324,   0.74355,  -0.33036,  -0.74064,   0.15241,  -0.93750,   0.56975,  -0.17464,  -0.51047,  -0.36459
  -0.92102,   0.93750,   0.04340,  -0.74731,   0.81697,  -0.39516,  -0.08307,  -0.73085,   0.25012,  -0.03292
  -0.13209,   0.46903,  -0.86882,   0.87095,  -0.20778,  -0.93750,  -0.77036,   0.93750,   0.87294,  -0.93750
   0.87042,  -0.15143,  -0.61487,   0.66367,  -0.53599,  -0.93750,   0.42964,  -0.93750,   0.20293,  -0.87218
  -0.42172,  -0.32209,   0.93750,  -0.47773,  -0.82023,   0.40285,   0.92004,  -0.74495,   0.89646,  -0.42784
   0.87272,   0.11049,   0.38135,   0.65704,  -0.93750,  -0.93750,   0.87594,   0.69780,   0.75181,   0.01147
   0.16198,   0.70931,  -0.01199,  -0.76062,  -0.81646,  -0.85923,  -0.25691,   0.93750,   0.01798,  -0.38086
   0.48523,  -0.56411,  -0.15107,  -0.63580,   0.76199,  -0.35136,  -0.14201,  -0.04637,   0.60605,   0.80665
  -0.31581,   0.77078,  -0.76211,   0.40745,   0.56415,  -0.74393,  -0.61934,  -0.49733,   0.78875,   0.59420
   0.93750,   0.30033,  -0.67373,  -0.43286,  -0.14179,  -0.81089,  -0.32059,  -0.06829,  -0.64192,  -0.79610
   0.48364,   0.06099,  -0.52244,  -0.51025,  -0.16119,   0.81705,   0.34610,  -0.46404,  -0.01440,   0.16632
  -0.26482,   0.04664,  -0.04930,   0.73995,   0.31187,   0.11888,  -0.61518,  -0.20472,   0.48716,   0.27777
   0.24877,   0.55084,   0.43242,   0.23896,  -0.11798,  -0.08640,  -0.71277,   0.85174,  -0.08949,  -0.69591
  -0.89301,   0.33694,  -0.42953,   0.87433,  -0.68962,   0.87152,  -0.16237,  -0.87400,   0.93435,  -0.14823
  -0.40275,  -0.46854,   0.00083,  -0.68034,   0.93750,  -0.74552,   0.01177,   0.80064,   0.45734,  -0.13628
  -0.93750,  -0.51360,   0.93750,   0.88049,  -0.82577,   0.66704,  -0.93750,   0.93750,  -0.22285,  -0.67413
   0.05676,   0.14226,   0.31851,  -0.93750,   0.27643,   0.57443,   0.61278,   0.30583,   0.04248,  -0.07694
  -0.07949,  -0.03499,   0.79720,  -0.52787,  -0.08284,   0.11881,  -0.38558,  -0.32604,  -0.12117,  -0.23913
  -0.04315,   0.31823,   0.62427,   0.46520,   0.93750,  -0.53034,  -0.72888,  -0.65695,  -0.01514,  -0.14962
   0.41271,   0.47945,  -0.73885,  -0.63164,   0.22339,   0.13183,   0.88609,  -0.53489,  -0.93750,   0.38983
  -0.05405,  -0.22163,   0.12840,   0.34279,   0.93750,  -0.88083,   0.56378,  -0.87901,  -0.93750,   0.37165
   0.38689,   0.20162,   0.43226,  -0.10857,  -0.32416,  -0.46621,  -0.52180,   0.92800,  -0.52439,   0.06213
   0.45053,   0.14302,   0.20229,  -0.41240,   0.93750,  -0.51621,   0.40046,   0.23558,  -0.47392,   0.67026
   0.92966,  -0.09830,  -0.56124,   0.93750,   0.93750,   0.05692,  -0.75936,  -0.50267,   0.93750,  -0.69740
  -0.10777,  -0.54922,  -0.87452,  -0.52768,   0.45411,   0.36118,   0.93603,   0.82334,  -0.80071,   0.81110
   0.93750,  -0.04676,  -0.68582,   0.93750,  -0.12550,  -0.88114,   0.14450,  -0.15770,  -0.04677,   0.15864
  -0.87744,   0.93750,  -0.79300,   0.53456,   0.86591,  -0.81942,   0.22975,   0.93616,   0.68663,  -0.42763
   0.93750,   0.05292,   0.37900,   0.93750,  -0.02003,  -0.51139,   0.79603,  -0.87720,   0.47621,  -0.13603
  -0.55652,   0.29913,   0.48287,  -0.76118,   0.38622,   0.86749,   0.61004,  -0.39663,   0.20228,   0.49317
  -0.73174,   0.93750,  -0.37136,   0.86915,   0.51506,   0.21463,   0.39782,  -0.54144,   0.44138,  -0.50810
   0.58448,   0.82069,   0.24451,  -0.15573,   0.71509,  -0.78124,   0.12452,  -0.79283,  -0.01282,  -0.81830
  -0.03905,  -0.19565,  -0.33592,  -0.35382,   0.70386,   0.73308,   0.01463,   0.25718,   0.34942,   0.07861
   0.82668,  -0.47475,   0.66867,   0.43343,  -0.25705,  -0.81319,   0.46492,  -0.01533,  -0.25449,   0.45691
   0.93750,  -0.05397,   0.46825,   0.48708,   0.04488,  -0.93750,  -0.52954,   0.15110,  -0.93750,  -0.92304
  -0.11445,   0.86936,  -0.93750,   0.36847,   0.45217,  -0.93750,   0.55569,   0.81636,   0.53295,  -0.93750
  -0.45245,   0.02487,   0.92969,  -0.35360,   0.51761,  -0.70307,  -0.75168,  -0.87464,  -0.73559,   0.87290
   0.86813,  -0.38268,   0.07060,   0.40354,   0.68619,   0.12516,   0.39172,   0.04906,   0.40081,  -0.33853
   0.24727,  -0.01735,   0.39611,  -0.71060,  -0.27487,   0.93750,  -0.05724,  -0.54702,   0.26669,  -0.06829
  -0.70483,  -0.44689,   0.81209,   0.09628,   0.15145,   0.03473,  -0.08294,   0.75102,  -0.87843,   0.81500
  -0.51729,  -0.91035,  -0.93750,   0.93750,  -0.03791,  -0.37211,   0.93750,   0.05091,   0.86886,  -0.45584
  -0.81168,   0.91522,  -0.52770,   0.04840,  -0.74652,  -0.63596,  -0.37279,   0.17508,   0.93477,  -0.93750
   0.93750,  -0.64837,  -0.89498,  -0.36107,   0.15793,  -0.12730,  -0.79709,  -0.20969,   0.86625,  -0.56995
   0.66467,  -0.36824,   0.38279,  -0.27598,  -0.72584,  -0.70201,  -0.23310,   0.93750,  -0.88124,  -0.27830
   0.48027,   0.00798,   0.78841,   0.93750,   0.77983,   0.57029,  -0.10226,  -0.22896,   0.69035,   0.28688
   0.81412,  -0.93750,  -0.26475,   0.93750,   0.91410,  -0.44887,  -0.41450,  -0.36920,   0.30837,  -0.73013
   0.45247,  -0.33961,  -0.67592,   0.93437,  -0.24603,  -0.05725,  -0.05636,  -0.50462,   0.93750,  -0.54670
  -0.37860,   0.23410,   0.81832,  -0.63746,  -0.75648,   0.80154,  -0.72596,  -0.56174,   0.43483,  -0.07462
   0.54407,   0.30650,   0.30372,   0.53911,  -0.11665,  -0.75147,   0.37140,   0.93750,   0.58612,  -0.51174
  -0.35577,   0.36500,   0.91334,  -0.48946,   0.93750,  -0.01204,  -0.53601,   0.06403,   0.51963,   0.49636
  -0.07948,   0.00129,  -0.87697,  -0.15303,   0.79146,  -0.77530,   0.54189,   0.48202,   0.64295,   0.02907
   0.09519,   0.00793,  -0.43677,   0.58697,  -0.87567,   0.22130,  -0.66167,  -0.13418,  -0.05607,  -0.93750
   0.24563,   0.93295,   0.06168,  -0.31848,  -0.36951,  -0.50082,   0.09843,   0.57160,  -0.81302,  -0.74739
  -0.43298,   0.33800,  -0.93750,  -0.16644,  -0.84704,  -0.80429,   0.91349,  -0.82211,   0.93750,  -0.75517
  -0.25545,  -0.04377,  -0.16374,  -0.32650,  -0.22788,   0.54676,   0.41948,   0.63885,   0.40260,  -0.53546
   0.08080,   0.01600,   0.76317,   0.93750,   0.55194,   0.91874,  -0.93750,   0.93750,   0.93750,   0.13865
   0.87437,   0.79707,  -0.40981,   0.47292,   0.22964,   0.09833,   0.28180,  -0.45032,  -0.74476,  -0.47577
   0.14896,  -0.11675,  -0.88164,   0.93750,  -0.40462,  -0.93750,   0.93750,  -0.33996,   0.15157,   0.77415
  -0.04328,   0.93650,  -0.51231,  -0.61126,  -0.00657,  -0.53206,   0.35846,   0.38941,  -0.38805,   0.30449
   0.63167,   0.01256,  -0.90176,   0.93750,  -0.87010,  -0.54435,  -0.05653,  -0.85343,   0.93750,  -0.35253
   0.41653,   0.68269,   0.93750,  -0.48111,   0.93750,   0.33016,  -0.17162,  -0.90859,  -0.93750,   0.24903
  -0.15746,  -0.02320,   0.92820,  -0.43235,   0.65355,  -0.27373,  -0.65975,  -0.29402,   0.04868,   0.10456
  -0.80030,  -0.93343,   0.19876,  -0.44305,   0.13428,   0.21633,   0.44190,  -0.14118,  -0.57685,   0.93750
   0.36974,  -0.22668,  -0.43268,   0.76861,  -0.56970,   0.31025,   0.62572,   0.16574,  -0.07023,  -0.81044
   0.86456,  -0.73272,   0.54520,  -0.77163,  -0.63335,   0.47296,   0.80668,  -0.93750,   0.31787,   0.93750
  -0.51540,  -0.16565,  -0.62814,   0.61797,  -0.29492,  -0.34723,   0.38236,   0.55025,  -0.47871,  -0.32662
   0.50737,  -0.21629,  -0.82986,   0.03187,  -0.75729,   0.16210,   0.93750,  -0.80797,  -0.38914,  -0.12882
  -0.71160,  -0.27370,  -0.93750,  -0.29349,   0.24132,   0.64298,  -0.68836,   0.27643,   0.27536,   0.43513
  -0.93750,   0.93750,  -0.93750,   0.93750,   0.93750,   0.93750,  -0.70922,   0.22346,  -0.37344,   0.93750
  -0.80938,   0.29382,   0.09958,  -0.88619,  -0.59201,  -0.39388,  -0.64798,  -0.24901,   0.93750,  -0.03353
  -0.16169,   0.68236,   0.41544,   0.93750,   0.06059,   0.53974,   0.81910,  -0.86719,  -0.41264,   0.88146
  -0.51067,   0.38239,   0.42016,   0.23612,   0.14424,   0.19794,  -0.43060,   0.61111,   0.18948,  -0.19754
  -0.07957,  -0.33361,  -0.22239,  -0.45659,  -0.17494,   0.93750,   0.16184,  -0.17667,  -0.10194,   0.34267
   0.88408,   0.02816,   0.19167,  -0.86915,   0.93750,  -0.87136,   0.05063,  -0.59441,  -0.28956,   0.88212
   0.46112,   0.80239,  -0.60782,  -0.86970,   0.93750,  -0.93750,  -0.87431,   0.93750,   0.93750,  -0.52133
   0.80139,   0.60625,  -0.68605,  -0.41791,  -0.62553,  -0.69791,   0.04103,   0.40093,   0.03139,   0.53266
  -0.33730,   0.86749,   0.13161,  -0.91474,  -0.64164,  -0.56254,   0.93750,   0.21635,  -0.10847,  -0.14247
   0.57204,  -0.93750,   0.93750,  -0.47259,   0.93750,   0.71671,  -0.63386,  -0.13805,  -0.93750,  -0.93750
   0.88561,  -0.75689,  -0.68945,   0.58733,   0.32988,   0.45707,  -0.30928,  -0.88701,  -0.87791,   0.93502
  -0.18149,  -0.03435,  -0.55997,   0.93485,  -0.60141,  -0.75794,   0.93750,   0.02666,   0.74129,   0.00660
   0.93750,   0.93750,   0.64540,   0.62806,   0.26334,   0.93750,  -0.82216,   0.91073,  -0.93750,  -0.15841
   0.70714,   0.42019,  -0.87463,  -0.88350,  -0.49495,   0.69405,   0.93750,  -0.69738,  -0.21579,   0.93750
   0.26611,   0.93730,  -0.20078,  -0.82265,  -0.23166,   0.32571,  -0.41064,  -0.50219,   0.17424,  -0.63220
  -0.21394,   0.22739,   0.63485,   0.70441,  -0.30149,  -0.03077,  -0.04456,  -0.15129,  -0.24481,  -0.25906
   0.34322,   0.50549,  -0.72575,  -0.12997,   0.87974,   0.93750,   0.31423,   0.61965,   0.60276,  -0.15329
   0.93750,  -0.25551,  -0.89736,  -0.48578,   0.93750,  -0.93750,  -0.21304,  -0.81112,  -0.64092,  -0.79883
  -0.72705,  -0.20367,   0.93750,   0.05745,  -0.43973,  -0.42374,   0.29258,   0.25247,   0.93750,  -0.24742
   0.33585,   0.23691,  -0.89489,   0.67211,  -0.21914,   0.93750,  -0.61896,   0.54370,  -0.55523,   0.68383
   0.60491,  -0.15756,  -0.49724,   0.92213,  -0.55905,   0.93750,  -0.44884,   0.01871,  -0.28881,   0.50700
  -0.71903,  -0.04538,  -0.37311,   0.93750,  -0.93750,  -0.66912,   0.80975,   0.24004,   0.88244,   0.52888
   0.57647,   0.04179,   0.93750,  -0.86233,  -0.92552,   0.89083,   0.93750,  -0.81552,   0.19098,  -0.28399
  -0.35680,  -0.45111,  -0.21651,   0.20798,  -0.10881,  -0.85324,   0.92325,   0.26988,   0.93750,   0.80606
  -0.87276,  -0.37850,   0.47466,   0.91977,   0.43736,  -0.71736,  -0.54837,   0.87969,   0.74396,  -0.16084
   0.29417,   0.93750,  -0.16651,   0.36320,  -0.33205,  -0.43264,  -0.61509,   0.32317,   0.15224,  -0.92661
  -0.37357,   0.18808,   0.14549,  -0.64190,   0.73664,  -0.20970,  -0.93750,   0.82115,   0.08621,   0.60533
  -0.07529,   0.32758,   0.52198,   0.42491,  -0.04119,   0.31322,   0.11306,   0.93750,   0.20309,   0.14225
   0.93750,  -0.93750,   0.80673,   0.86718,   0.93750,   0.77417,   0.55158,  -0.87556,  -0.93750,  -0.26276
  -0.10784,  -0.80766,  -0.80387,   0.66708,  -0.63865,  -0.48902,   0.08403,  -0.21918,  -0.93750,  -0.80548
  -0.62584,  -0.80734,   0.02045,  -0.82970,   0.93750,  -0.27780,  -0.03164,   0.61717,   0.51463,   0.30203
  -0.00120,   0.46347,  -0.43061,  -0.93223,  -0.18314,   0.61394,   0.60433,  -0.75508,   0.81693,   0.76648
  -0.28542,  -0.39336,   0.52055,   0.74516,  -0.75129,  -0.51281,   0.15636,   0.68755,   0.13258,   0.68270
  -0.93750,  -0.41564,  -0.19653,  -0.88284,  -0.39839,   0.93750,  -0.80475,  -0.20373,   0.35101,  -0.84173
  -0.24463,   0.61773,  -0.62501,   0.93750,  -0.49838,   0.29433,  -0.51708,  -0.42838,   0.83957,   0.26712
   0.44739,  -0.09308,   0.82367,  -0.56938,  -0.53995,   0.33048,  -0.07926,  -0.01352,   0.51848,  -0.41361
   0.18931,  -0.17235,   0.12610,  -0.32784,   0.73953,   0.73580,   0.24304,  -0.00098,   0.67234,  -0.36722
  -0.90935,  -0.51536,  -0.75472,  -0.10137,   0.47577,  -0.68591,   0.10021,   0.63906,   0.93750,   0.75944
   0.93750,  -0.38959,   0.27357,  -0.68440,   0.57255,   0.03707,  -0.24865,  -0.36732,   0.12857,   0.93750
   0.36534,  -0.02932,  -0.31943,  -0.70006,  -0.63316,   0.93750,  -0.81652,   0.35280,  -0.54079,   0.87708
   0.93750,   0.93750,   0.40268,   0.02168,   0.90973,  -0.82767,  -0.93750,  -0.66678,   0.18692,  -0.93750
  -0.56869,   0.74626,  -0.30206,  -0.68110,  -0.47766,   0.69865,   0.86929,  -0.10141,  -0.03186,   0.18397
   0.74882,   0.87471,   0.67242,   0.93750,  -0.26667,  -0.82572,  -0.03575,  -0.25003,  -0.36788,  -0.86608
  -0.60555,  -0.93750,   0.93750,   0.93750,   0.68372,  -0.25456,  -0.42493,  -0.69025,  -0.93750,  -0.68368
   0.42567,   0.93750,  -0.13702,  -0.02550,  -0.37432,   0.46820,  -0.82069,   0.83983,   0.07200,   0.58590
  -0.28780,  -0.47175,   0.34103,   0.93750,   0.15058,  -0.82777,  -0.20092,   0.40120,  -0.63473,   0.87829
  -0.05188,  -0.36147,  -0.02225,  -0.62457,   0.12092,   0.93507,  -0.45809,  -0.54009,   0.78550,   0.56427
  -0.33565,  -0.04339,   0.07172,  -0.34231,  -0.76880,   0.70229,   0.54982,   0.51759,   0.35010,   0.59930
   0.04068,  -0.47651,  -0.71049,  -0.93123,  -0.79333,  -0.88954,   0.93750,   0.12862,  -0.27909,  -0.09501
   0.93750,  -0.32606,   0.58868,   0.12932,   0.93750,  -0.85350,  -0.02715,   0.82332,   0.01773,  -0.32258
  -0.68029,   0.75655,  -0.78158,   0.69826,  -0.08619,   0.53029,  -0.48045,  -0.46198,  -0.14181,  -0.22520
  -0.87974,   0.59984,   0.88836,  -0.62438,   0.36587,  -0.93750,   0.49636,  -0.80566,  -0.39984,  -0.84904
  -0.57199,   0.87077,  -0.03801,  -0.13784,  -0.77713,   0.70225,   0.93750,   0.09178,   0.79525,  -0.49841
   0.18688,   0.93750,   0.56802,  -0.75603,   0.93750,  -0.74486,   0.33875,   0.93750,  -0.74523,  -0.93750
  -0.31211,   0.53854,   0.72441,  -0.54064,  -0.65895,  -0.16113,   0.32572,   0.85841,  -0.57628,  -0.31192
   0.22140,   0.21251,   0.80391,  -0.20710,   0.86543,  -0.42669,  -0.06320,  -0.60854,  -0.06841,   0.10219
  -0.62674,  -0.04009,  -0.01072,   0.85087,  -0.30790,  -0.47647,   0.54496,   0.55367,   0.74569,   0.07315
  -0.88544,  -0.53507,  -0.57214,   0.78517,  -0.59559,   0.93750,   0.67684,   0.41569,  -0.40780,   0.75010
  -0.31817,  -0.08901,  -0.66669,   0.93750,  -0.81438,  -0.93750,  -0.35887,   0.61027,  -0.20965,  -0.34484
   0.93750,   0.78863,  -0.87213,  -0.93750,   0.35664,   0.13876,   0.93750,   0.93750,  -0.93750,   0.93750
   0.21098,  -0.16041,   0.64152,   0.57558,  -0.55040,  -0.66225,  -0.33850,   0.53928,  -0.25623,   0.81429
   0.93750,  -0.93750,   0.93750,   0.93750,   0.21548,   0.46759,  -0.63397,   0.32292,   0.01205,   0.19538
  -0.51979,  -0.80388,  -0.36109,  -0.07314,  -0.10974,   0.04935,  -0.00928,  -0.12704,  -0.58468,   0.93750
  -0.47153,  -0.74734,  -0.68103,  -0.82234,   0.06114,  -0.13726,   0.42885,   0.46930,  -0.22742,  -0.10841
   0.48607,   0.91587,  -0.93750,   0.18590,  -0.93750,   0.05194,   0.66932,  -0.02719,  -0.58621,  -0.88485
   0.71307,   0.93750,  -0.22441,  -0.93750,   0.25295,  -0.79959,   0.07845,  -0.20675,  -0.16812,   0.81141
   0.93750,  -0.12376,  -0.81618,  -0.63927,  -0.79798,   0.07912,  -0.93750,  -0.55454,   0.93750,   0.61878
   0.93750,   0.93750,   0.47012,  -0.93750,  -0.30511,  -0.93750,  -0.52436,   0.69477,   0.93750,  -0.88753
   0.93750,  -0.14746,   0.06089,   0.93750,   0.93750,  -0.93750,   0.93750,   0.93750,   0.12948,   0.73380
  -0.73588,  -0.88117,   0.69730,  -0.93750,  -0.19150,   0.93750,  -0.76522,   0.87833,   0.05405,  -0.64018
   0.38536,   0.32375,  -0.87401,  -0.65409,   0.68403,   0.64655,   0.52594,   0.04470,  -0.19968,   0.55923
  -0.29196,   0.46346,  -0.73398,   0.10394,   0.75629,  -0.85621,  -0.32128,  -0.80578,  -0.34667,  -0.69214
   0.63850,   0.77638,   0.87493,  -0.62670,   0.93750,  -0.73445,   0.35100,   0.91411,  -0.24976,  -0.62755
   0.73577,  -0.93750,   0.51277,   0.93750,   0.41195,  -0.93750,   0.87235,  -0.93750,  -0.72989,   0.90547
   0.63876,   0.93750,   0.08061,  -0.45971,   0.39492,  -0.17577,   0.58640,  -0.65965,  -0.71007,  -0.80696
   0.46652,   0.09809,  -0.69045,  -0.18788,   0.01496,   0.90974,   0.91378,   0.31122,  -0.04333,   0.34761
  -0.48938,   0.07990,  -0.24628,  -0.93750,   0.48999,   0.93750,  -0.59383,  -0.17512,  -0.42079,   0.32430
  -0.32737,   0.04843,   0.38469,   0.66772,  -0.75275,   0.30147,  -0.43206,  -0.24510,   0.54396,  -0.19382
  -0.34862,  -0.45827,  -0.93750,   0.93750,   0.86893,   0.11452,  -0.17807,  -0.53351,  -0.11577,  -0.18559
  -0.26152,  -0.18335,  -0.02655,   0.93750,  -0.81573,   0.69606,   0.93750,  -0.86478,  -0.81131,   0.93750
   0.84595,   0.76252,   0.54659,   0.06514,  -0.24661,   0.32405,   0.87089,  -0.93750,   0.05992,  -0.54618
  -0.76997,  -0.16609,   0.63421,   0.93750,   0.74951,  -0.11679,  -0.37143,   0.93750,  -0.59666,  -0.24967
   0.66309,   0.87467,   0.86852,   0.13489,   0.93750,   0.87098,   0.56471,  -0.81288,  -0.22316,  -0.93750
   0.07032,   0.54630,   0.35492,  -0.71248,   0.00120,   0.74233,  -0.35737,   0.44397,  -0.33911,  -0.56989
  -0.09697,   0.44371,   0.72299,  -0.58928,   0.31609,   0.68512,  -0.27172,  -0.60071,   0.07980,  -0.02640
   0.30228,  -0.21170,   0.26684,  -0.03337,   0.63773,   0.79956,  -0.37468,  -0.56019,  -0.26310,   0.93750
   0.87323,   0.02110,  -0.05977,  -0.85326,   0.22120,   0.93750,   0.93516,  -0.48515,   0.80821,   0.58593
  -0.65621,   0.01977,  -0.79885,   0.92353,  -0.76597,   0.93750,   0.93750,  -0.60710,  -0.72603,  -0.50373
   0.37456,   0.93750,  -0.58494,  -0.73919,  -0.35117,   0.52098,   0.89926,  -0.62283,  -0.43150,   0.62592
  -0.93750,   0.62659,   0.93750,   0.21220,  -0.93750,  -0.68219,  -0.48520,   0.27678,  -0.03302,  -0.75217
   0.73757,   0.19534,   0.22622,  -0.00653,   0.69761,  -0.71958,   0.53517,  -0.05820,  -0.12160,  -0.16226
  -0.05907,   0.18111,  -0.45786,  -0.86824,  -0.12109,   0.88393,  -0.87353,  -0.57642,   0.93444,   0.93750
   0.56324,  -0.54403,   0.13327,   0.93750,   0.93750,  -0.88486,  -0.84064,   0.52976,  -0.26911,  -0.50469
   0.87137,   0.09984,  -0.49717,  -0.43654,  -0.26829,  -0.20795,  -0.23404,   0.28986,   0.29753,   0.60942
   0.92572,  -0.67902,  -0.15668,   0.93750,  -0.88127,  -0.69129,   0.88372,  -0.85375,   0.74570,  -0.60009
   0.24917,   0.73944,  -0.87986,   0.93750,   0.27625,  -0.90799,  -0.02008,   0.85057,  -0.62504,  -0.81331
   0.46497,   0.86931,  -0.80852,   0.28815,   0.93750,  -0.28303,   0.42509,  -0.07133,   0.65330,  -0.93750
   0.88772,   0.01254,   0.06306,  -0.69130,   0.92690,  -0.93750,  -0.93750,   0.22884,  -0.56078,   0.93750
  -0.53513,  -0.80779,   0.23464,   0.86947,   0.49553,  -0.47790,   0.56513,  -0.23726,  -0.44535,   0.93750
   0.85923,  -0.87519,  -0.39521,  -0.34478,   0.40009,  -0.74876,   0.93750,  -0.74260,   0.86973,   0.93750
   0.57957,   0.09923,  -0.24673,  -0.39321,   0.81763,  -0.18173,   0.28317,  -0.27394,  -0.69393,   0.00968
   0.13685,  -0.24437,  -0.86827,   0.93750,   0.93750,  -0.03160,  -0.55950,   0.03008,   0.02446,  -0.76191
   0.19922,  -0.93750,  -0.82695,   0.34924,   0.85009,   0.93750,   0.81133,  -0.67504,  -0.93750,  -0.74576
   0.00237,   0.08545,  -0.57247,   0.75966,  -0.81345,  -0.19027,  -0.17575,   0.87955,  -0.68770,   0.00709
   0.37795,   0.36564,   0.54303,   0.75084,   0.40331,  -0.18128,   0.25288,  -0.11634,  -0.28272,   0.13222
   0.93750,  -0.93750,  -0.87784,   0.93750,   0.93750,   0.88038,  -0.48510,   0.93750,   0.67975,   0.68061
   0.27240,   0.93750,  -0.35169,   0.47084,  -0.76495,   0.09324,   0.89900,  -0.24916,   0.47337,  -0.93750
   0.61410,   0.48787,   0.85974,  -0.40778,  -0.70593,  -0.86847,  -0.93750,   0.87335,  -0.76039,   0.07047
  -0.69911,   0.45712,  -0.54245,  -0.81453,   0.82291,   0.00612,   0.93750,   0.87477,  -0.51517,  -0.07357
   0.68847,  -0.93750,   0.93750,  -0.72455,  -0.74618,   0.93750,   0.13023,  -0.93750,  -0.54366,  -0.66187
   0.18308,  -0.14545,  -0.02648,   0.68973,   0.59355,  -0.05196,  -0.60413,   0.54962,  -0.09763,  -0.26959
   0.01240,  -0.43888,   0.13727,  -0.41863,  -0.54659,  -0.46333,   0.28863,   0.92532,   0.12761,  -0.36262
  -0.93750,  -0.93750,  -0.93750,   0.55845,   0.93750,  -0.93750,  -0.87600,  -0.93750,  -0.55785,   0.93750
   0.28355,  -0.82537,   0.34776,  -0.21650,   0.87151,  -0.82117,   0.70168,   0.01871,   0.93750,  -0.01818
  -0.54896,  -0.87528,   0.26750,  -0.23939,  -0.00088,  -0.51736,   0.31008,   0.93750,   0.62976,   0.71121
   0.18284,  -0.18870,   0.00406,   0.50941,  -0.74452,  -0.60911,   0.51302,   0.93750,  -0.08907,  -0.33266
   0.71389,  -0.49406,  -0.80386,   0.46136,  -0.88115,  -0.87045,   0.93750,  -0.93750,   0.68236,   0.87732
  -0.87331,   0.26583,  -0.92049,   0.93750,   0.47288,   0.28791,   0.87314,   0.62091,  -0.74063,  -0.74635
  -0.82079,  -0.08603,   0.87060,   0.87780,  -0.31326,   0.93750,  -0.93750,   0.86534,  -0.93750,  -0.05181
  -0.37828,  -0.44988,   0.06002,  -0.05273,   0.53375,   0.40011,   0.60342,   0.70776,  -0.63050,  -0.17990
   0.37757,  -0.06682,   0.93750,   0.42916,  -0.93750,   0.79388,  -0.05310,  -0.54544,   0.33081,   0.32644
  -0.05265,  -0.08230,  -0.64179,  -0.46413,  -0.65339,  -0.44312,   0.84914,   0.54925,  -0.43963,   0.16747
  -0.86931,   0.87879,   0.71279,  -0.86672,  -0.93750,   0.75815,  -0.81466,   0.93750,  -0.73915,   0.73054
  -0.77112,   0.93750,  -0.93501,   0.87910,   0.22175,  -0.69261,  -0.55696,   0.93750,  -0.39879,  -0.74853
  -0.72126,  -0.81212,  -0.89149,   0.93750,   0.08659,  -0.74601,   0.24231,  -0.58014,   0.09353,   0.93750
   0.12206,   0.78354,  -0.77049,   0.93750,  -0.47212,   0.05657,  -0.36221,   0.49674,   0.46838,  -0.92984
   0.52391,   0.08848,  -0.57950,   0.39406,  -0.31964,   0.03634,   0.34093,   0.12035,   0.85966,   0.93750
   0.69685,  -0.28922,  -0.93750,   0.78878,  -0.74305,   0.93750,   0.93750,   0.18474,  -0.93750,  -0.41634
  -0.93750,   0.93750,   0.29422,   0.93750,   0.87550,   0.93750,   0.93750,  -0.33786,   0.86710,   0.62985
   0.61237,  -0.34240,  -0.91647,  -0.81642,   0.51484,  -0.93750,   0.28833,  -0.28382,   0.68699,   0.74901
   0.93572,   0.45793,   0.93750,  -0.76326,  -0.26584,  -0.25987,  -0.74800,   0.59869,  -0.42663,  -0.45190
   0.13018,   0.17575,  -0.01669,   0.86932,   0.28804,  -0.69709,  -0.51006,  -0.28657,   0.54654,  -0.12067
  -0.88213,  -0.93750,  -0.93750,  -0.86861,  -0.14782,   0.18068,   0.72775,   0.08357,   0.37576,  -0.93750
  -0.62840,  -0.76007,   0.03658,  -0.88205,   0.33926,   0.93750,  -0.19693,   0.01125,   0.51547,   0.30006
   0.48246,  -0.35968,   0.76686,  -0.61062,  -0.48921,   0.87026,  -0.31086,  -0.74574,   0.61708,  -0.37833
  -0.93750,  -0.62189,   0.93750,   0.25368,  -0.68210,   0.42052,  -0.03424,   0.44444,   0.20724,  -0.85075
  -0.56663,   0.12465,  -0.75647,   0.54496,   0.63715,  -0.59174,   0.49518,  -0.80137,   0.71849,   0.60750
   0.09529,  -0.11744,   0.20135,  -0.56969,  -0.21291,   0.80197,  -0.21936,  -0.35250,  -0.42763,   0.18589
  -0.41760,   0.73435,   0.53026,  -0.93750,   0.16819,  -0.83210,   0.59924,  -0.86317,  -0.76378,  -0.87606
   0.20261,  -0.32655,   0.87236,   0.88065,  -0.55683,   0.16324,   0.16628,  -0.24696,  -0.31138,  -0.18668
  -0.01783,   0.93750,   0.93750,   0.93750,   0.93750,  -0.93750,   0.88457,   0.93750,   0.80442,  -0.93750
  -0.49606,  -0.48945,  -0.55920,   0.66703,   0.87390,   0.86436,   0.35154,  -0.34654,  -0.21018,   0.01687
  -0.74954,   0.52262,  -0.07851,   0.93750,   0.12982,  -0.79851,  -0.16948,  -0.33343,  -0.72176,   0.93750
   0.73824,  -0.83151,   0.77694,  -0.93750,   0.82239,  -0.16810,   0.93750,   0.93750,   0.59351,  -0.93750
  -0.60936,   0.59317,   0.78006,  -0.73136,   0.93750,   0.02757,   0.93629,  -0.84237,  -0.29788,  -0.43766
  -0.67725,   0.68126,   0.53187,  -0.88990,  -0.87436,   0.18736,   0.87439,  -0.24478,  -0.72642,   0.87340
  -0.13020,   0.93750,   0.59177,   0.46194,  -0.20166,   0.58756,   0.59974,   0.38067,   0.55841,  -0.71181
  -0.07511,  -0.06872,   0.93750,  -0.65433,   0.14503,   0.40811,   0.87120,  -0.70275,  -0.75942,   0.81579
  -0.88508,  -0.63582,   0.17396,  -0.49939,  -0.81939,   0.61638,  -0.11871,   0.73247,  -0.69435,  -0.10082
   0.93750,   0.41545,  -0.90113,   0.53659,  -0.27719,  -0.41141,  -0.11489,   0.06446,  -0.85967,  -0.17296
  -0.01826,  -0.14882,   0.93750,  -0.24520,  -0.38401,   0.51942,  -0.88337,  -0.05814,   0.51775,   0.51426
  -0.50797,  -0.03368,  -0.41347,  -0.49052,   0.78339,   0.37471,   0.27333,  -0.26126,  -0.39865,   0.93750
   0.36189,   0.14858,   0.46705,  -0.56507,  -0.15525,   0.80964,   0.21596,  -0.73213,   0.11542,   0.30416
  -0.87344,  -0.41173,   0.81352,  -0.68986,  -0.87419,   0.80871,  -0.82829,   0.86812,   0.68212,   0.84716
   0.21064,  -0.28103,  -0.51141,  -0.64597,   0.87423,   0.20194,   0.24654,  -0.29340,  -0.28079,  -0.21665
  -0.64356,  -0.86592,  -0.38656,  -0.93750,  -0.93750,  -0.93750,  -0.93750,  -0.93750,   0.12297,  -0.93750
   0.18755,   0.57212,   0.14669,  -0.63556,  -0.93750,  -0.93750,  -0.82466,   0.87830,   0.79530,  -0.07577
  -0.62613,   0.63712,   0.86282,  -0.50193,  -0.16859,  -0.42419,   0.71737,   0.80479,  -0.38919,  -0.48449
   0.81250,  -0.67947,  -0.83881,   0.69276,  -0.54862,   0.06073,   0.93750,  -0.40355,  -0.86887,   0.68916
  -0.48588,   0.47477,   0.93750,   0.93109,  -0.01684,  -0.25222,   0.79978,   0.64560,   0.52780,  -0.82763
  -0.69585,  -0.23793,  -0.54782,   0.68149,   0.42898,   0.87827,   0.14188,  -0.92944,   0.46212,  -0.71169
   0.93750,  -0.26930,   0.82541,  -0.93750,  -0.88472,   0.40115,   0.93750,   0.93750,   0.93750,   0.06426
  -0.74455,   0.30234,  -0.76466,  -0.31093,   0.93750,  -0.61600,  -0.26932,  -0.49047,  -0.63017,   0.93750
  -0.43096,   0.93750,  -0.41050,   0.53760,   0.67998,   0.42972,   0.01211,  -0.18985,  -0.41110,   0.62035
  -0.20349,   0.88228,   0.06281,  -0.54012,   0.86607,   0.81298,  -0.81277,   0.73467,   0.58081,  -0.21903
   0.04869,   0.40454,   0.40959,   0.07349,  -0.48179,  -0.93750,  -0.25596,   0.08427,  -0.00932,   0.25574
  -0.38196,  -0.09157,   0.74379,  -0.12568,  -0.46149,   0.93750,  -0.78040,  -0.01007,   0.64831,  -0.20791
  -0.50076,  -0.32928,  -0.51925,  -0.24343,  -0.36724,   0.43402,   0.60178,   0.43532,  -0.66475,  -0.86354
   0.62208,  -0.28108,   0.62183,   0.18925,  -0.84931,   0.45108,   0.64236,   0.04812,  -0.81283,  -0.74585
  -0.42347,   0.67655,   0.74028,   0.78713,   0.81636,  -0.90818,  -0.49270,   0.89189,   0.75845,  -0.04977
  -0.83253,  -0.23495,  -0.27752,   0.84406,   0.74328,   0.93750,  -0.81233,   0.31914,   0.87043,   0.44611
  -0.46690,   0.75505,  -0.93750,   0.45876,   0.85803,  -0.61799,  -0.88420,  -0.87026,  -0.20293,   0.26760
  -0.17564,   0.10709,  -0.56741,   0.93286,   0.86828,  -0.58982,  -0.84752,   0.20010,  -0.15665,   0.06427
  -0.24012,  -0.93750,   0.93750,   0.16424,   0.93750,   0.81289,   0.93750,   0.61151,  -0.93750,   0.60354
   0.50622,   0.93750,  -0.80659,  -0.05281,  -0.75862,  -0.93750,  -0.86596,  -0.93750,  -0.72825,  -0.56931
   0.42935,  -0.25854,   0.27271,  -0.77803,  -0.71867,   0.93750,   0.46529,  -0.62897,  -0.20355,   0.15863
   0.93750,  -0.66250,   0.93750,  -0.49465,   0.12455,   0.35914,  -0.88151,  -0.65023,  -0.46939,  -0.50116
   0.62863,  -0.79180,  -0.25482,   0.74565,   0.48581,  -0.38008,   0.27649,   0.11857,   0.26195,  -0.67851
   0.80111,  -0.56691,   0.64836,  -0.60665,  -0.86110,  -0.16751,  -0.93750,   0.92362,   0.08876,  -0.21815
  -0.92633,   0.88295,  -0.85301,  -0.30792,   0.88516,  -0.84267,   0.93750,   0.93750,  -0.93750,  -0.80894
  -0.80978,   0.55311,   0.40542,   0.87074,   0.11796,   0.58258,  -0.86483,  -0.25031,  -0.93750,   0.91175
  -0.66028,   0.06388,   0.39944,   0.80537,  -0.80652,   0.93750,   0.93750,  -0.59681,  -0.82041,  -0.49548
  -0.54787,   0.49291,  -0.76250,   0.88460,   0.93750,   0.31867,   0.10391,   0.25017,   0.29388,   0.93750
  -0.49034,   0.53785,  -0.93431,   0.10729,   0.56379,   0.78672,   0.29555,  -0.29481,   0.20558,  -0.55472
   0.93750,  -0.33588,   0.01830,  -0.28924,  -0.41150,   0.10449,   0.22881,   0.30155,  -0.56979,   0.61535
  -0.88332,  -0.57438,   0.29246,  -0.92121,   0.25741,  -0.93750,  -0.80297,   0.93750,  -0.80215,  -0.87153
   0.84621,  -0.40157,  -0.57246,   0.57345,  -0.73958,  -0.53574,  -0.63786,   0.02797,   0.25148,   0.51256
  -0.59436,  -0.13497,   0.69880,  -0.79355,   0.93750,  -0.83758,   0.19958,  -0.74068,   0.73562,  -0.40377
  -0.01380,   0.42185,   0.40955,   0.47566,  -0.61665,   0.92507,   0.14452,   0.35359,  -0.49703,   0.19474
   0.29009,   0.85213,  -0.13510,  -0.58027,   0.93750,  -0.08333,  -0.02770,  -0.00724,  -0.47513,  -0.18738
  -0.62333,  -0.16353,  -0.34577,  -0.92353,   0.45411,   0.93750,  -0.68062,  -0.77726,  -0.24070,   0.38999
  -0.43010,  -0.31090,  -0.43171,   0.87727,   0.93750,  -0.83108,  -0.88351,  -0.93750,  -0.87702,   0.93750
   0.73942,  -0.28080,   0.93750,  -0.48915,  -0.86520,   0.88047,   0.30885,   0.47745,   0.93750,  -0.09178
  -0.74789,  -0.73276,   0.40029,  -0.12166,  -0.93750,  -0.81575,   0.55232,   0.93750,   0.93750,   0.81523
  -0.93593,   0.93750,   0.57942,  -0.01369,   0.93750,   0.66949,  -0.22221,   0.02969,   0.16262,  -0.74717
   0.21007,  -0.54537,   0.69448,  -0.80228,  -0.49344,   0.62088,  -0.54721,   0.29002,   0.75124,  -0.59658
  -0.81571,   0.31453,  -0.25182,   0.76863,  -0.93750,   0.08583,  -0.43921,   0.16888,  -0.53566,   0.93750
  -0.79544,   0.92408,  -0.56721,   0.16771,  -0.65570,  -0.80361,  -0.29952,   0.93750,   0.00083,  -0.55790
  -0.12344,   0.63083,  -0.63204,   0.07845,  -0.45761,   0.84670,   0.63964,  -0.35163,   0.50285,   0.25618
   0.81201,  -0.42161,   0.81264,   0.90518,  -0.67190,  -0.76864,   0.73865,   0.64859,  -0.87000,   0.00916
  -0.27169,   0.02547,   0.13630,  -0.93596,  -0.81972,   0.93750,   0.86338,   0.93750,  -0.06032,   0.25746
   0.06905,   0.47754,  -0.81674,  -0.19924,   0.75075,   0.37464,  -0.76844,   0.87670,  -0.27354,  -0.82188
  -0.12508,   0.93750,  -0.87368,  -0.93750,  -0.37530,   0.93750,  -0.46979,  -0.45184,  -0.01319,   0.73245
  -0.52289,   0.93750,  -0.40615,   0.93750,  -0.87693,   0.75640,   0.41180,  -0.48712,   0.37044,  -0.86713
  -0.34036,  -0.88434,   0.01155,  -0.88097,   0.93750,  -0.90547,  -0.73489,  -0.74138,  -0.37120,  -0.57782
   0.93750,   0.49652,  -0.84988,   0.63441,   0.81747,  -0.34770,  -0.22134,   0.37665,  -0.93750,   0.93750
  -0.21035,   0.19029,  -0.81017,  -0.52561,   0.24431,   0.48830,   0.54917,   0.10802,  -0.31140,   0.59337
   0.93750,  -0.48440,  -0.86422,   0.70239,   0.83636,   0.93750,  -0.93750,   0.93750,  -0.10606,  -0.93750
  -0.30899,  -0.39354,  -0.02419,   0.67145,   0.02862,  -0.57949,   0.16840,  -0.26037,  -0.37102,   0.44195
  -0.82620,   0.26831,  -0.29293,   0.93750,   0.00976,  -0.73807,  -0.23875,   0.83445,   0.22385,   0.37375
   0.02922,   0.18023,   0.30244,   0.93750,  -0.88008,  -0.93750,   0.21331,   0.19087,   0.53634,  -0.61283
   0.93750,  -0.69817,   0.93750,   0.81820,   0.18525,  -0.26688,  -0.46491,  -0.22901,   0.80362,  -0.02702
   0.50042,   0.75294,   0.46384,  -0.64663,  -0.64874,  -0.87061,   0.93750,  -0.75247,   0.60740,  -0.11584
  -0.87644,   0.27530,   0.93750,  -0.05554,   0.32823,  -0.66960,   0.67094,  -0.15548,  -0.31848,   0.09048
   0.16787,   0.13551,   0.93750,  -0.03674,   0.86611,  -0.72140,  -0.82204,   0.32824,   0.69093,  -0.73442
  -0.80367,   0.35552,  -0.80858,  -0.57036,   0.93750,  -0.93750,   0.93750,   0.20503,  -0.84385,  -0.93750
   0.09721,   0.11620,  -0.12327,  -0.89986,   0.03765,   0.80657,   0.78140,   0.31005,  -0.23101,   0.76086
  -0.75385,   0.43649,  -0.41647,   0.55203,   0.05442,  -0.31940,   0.81244,   0.93750,   0.24319,  -0.80784
   0.93750,   0.93750,  -0.29998,  -0.74766,  -0.46812,  -0.52595,  -0.35853,   0.37573,  -0.64830,   0.71961
   0.87880,  -0.53563,   0.93750,  -0.81155,   0.75227,  -0.53071,  -0.93750,  -0.26464,  -0.66649,  -0.45226
  -0.93750,  -0.80637,   0.87952,  -0.56428,   0.93750,  -0.23233,   0.68629,  -0.63978,   0.84675,  -0.07780
  -0.77623,   0.87283,  -0.51678,  -0.77898,  -0.66762,   0.10169,   0.80063,   0.55531,   0.79192,  -0.00296
  -0.26021,   0.12502,  -0.52701,   0.85753,  -0.24422,  -0.38957,  -0.51644,   0.36003,  -0.45178,  -0.00355
  -0.13296,   0.59803,  -0.78871,   0.86627,  -0.74030,   0.57633,   0.26820,   0.00722,  -0.72375,  -0.28097
   0.03758,   0.08015,   0.77333,  -0.04751,  -0.64124,   0.39906,   0.28399,  -0.39202,   0.41405,  -0.13167
  -0.32851,   0.07612,   0.93750,  -0.92587,  -0.93750,  -0.41867,   0.93633,   0.25638,  -0.69663,   0.08233
  -0.14069,  -0.36099,  -0.18747,   0.14757,   0.24695,  -0.66516,   0.86294,  -0.05657,   0.52371,   0.93750
   0.27682,   0.80859,   0.24159,  -0.78587,  -0.23525,  -0.00306,   0.93473,  -0.88063,   0.28675,   0.33580
   0.09795,   0.37765,   0.15837,   0.92961,   0.27766,  -0.59205,  -0.16021,  -0.27306,  -0.28361,  -0.09564
   0.20183,   0.23472,  -0.58690,   0.93750,  -0.60184,  -0.88810,  -0.81010,   0.04538,   0.26574,   0.38250
   0.91185,   0.59107,  -0.11149,  -0.93750,  -0.88467,  -0.84631,   0.17051,   0.93750,   0.38214,  -0.34081
   0.24258,  -0.24819,   0.29066,  -0.21363,  -0.34084,   0.85868,   0.69440,  -0.50332,   0.36973,   0.10268
   0.09704,  -0.13968,   0.79542,  -0.61117,   0.86214,   0.34533,  -0.47487,  -0.07782,   0.02117,  -0.57468
   0.93750,   0.83806,  -0.93750,  -0.53114,   0.43876,   0.27921,   0.26841,  -0.88109,   0.31537,  -0.41562
  -0.26984,   0.80369,  -0.34133,   0.16147,   0.93750,  -0.36552,   0.11139,  -0.93750,  -0.13475,   0.93750
  -0.38273,   0.12149,  -0.66567,  -0.13900,  -0.18994,   0.68080,  -0.37366,   0.68042,   0.22818,  -0.55743
  -0.26668,   0.25842,   0.37635,   0.37262,  -0.83435,   0.62070,  -0.63590,  -0.92670,   0.86974,  -0.40953
   0.58440,  -0.12521,   0.28929,   0.13069,  -0.25466,  -0.56584,   0.01630,   0.93584,   0.86541,  -0.09266
  -0.03446,  -0.70100,  -0.02539,   0.93750,  -0.86012,  -0.77310,  -0.55692,  -0.20023,   0.47281,  -0.00245
   0.87208,   0.19352,   0.05241,   0.69739,   0.48585,   0.04450,  -0.07296,  -0.87448,  -0.79551,   0.36094
   0.93750,   0.50272,  -0.90225,  -0.63590,   0.25537,  -0.81935,  -0.07887,  -0.27472,   0.70308,  -0.29593
  -0.48143,   0.33258,   0.61305,   0.93633,  -0.40088,  -0.37518,  -0.22418,  -0.40770,  -0.65589,   0.31637
   0.78522,   0.64171,   0.38782,   0.93750,  -0.15220,  -0.78733,   0.60871,  -0.35573,  -0.32692,   0.93750
  -0.17347,   0.13340,   0.51448,  -0.02449,  -0.30338,  -0.88370,  -0.06004,  -0.56359,  -0.50022,   0.74600
  -0.93750,  -0.93750,  -0.35812,  -0.93750,  -0.64139,   0.57723,  -0.15348,  -0.88119,   0.67917,  -0.93750
  -0.58890,   0.87800,  -0.75171,   0.93750,  -0.52351,   0.64566,  -0.23894,  -0.86981,   0.22680,   0.67731
   0.28349,   0.21156,   0.18659,  -0.24797,  -0.18183,   0.81450,  -0.20713,   0.36119,   0.08690,   0.34023
  -0.81706,   0.27307,   0.93750,   0.40693,  -0.93750,  -0.34592,  -0.93750,   0.10663,   0.93750,  -0.87240
   0.93750,  -0.93750,  -0.23658,  -0.66904,   0.93750,   0.12426,   0.93128,   0.86654,   0.93750,  -0.78052
   0.80570,  -0.43044,   0.81674,  -0.16002,   0.06631,  -0.52020,  -0.15946,   0.81610,   0.23494,   0.50668
   0.02296,  -0.88093,  -0.67889,  -0.30997,  -0.88162,  -0.25855,   0.53583,   0.93750,   0.15660,  -0.93750
   0.32696,  -0.41919,  -0.14356,   0.51396,  -0.63708,  -0.03692,   0.69184,   0.65805,  -0.06986,   0.81726
  -0.64639,   0.24684,   0.92272,  -0.46377,  -0.78538,   0.39571,  -0.76762,   0.01348,   0.45477,   0.25796
   0.70553,   0.33814,  -0.36924,  -0.12195,   0.72700,   0.48393,   0.15348,  -0.69046,  -0.34620,   0.22106
   0.12989,   0.92801,  -0.05133,  -0.88355,  -0.81537,  -0.32267,  -0.77025,   0.14413,  -0.36802,   0.39930
  -0.43392,  -0.59457,  -0.93750,   0.61482,  -0.69278,   0.06715,   0.93750,   0.20208,  -0.11565,   0.93750
  -0.81081,  -0.93750,   0.87462,  -0.93750,   0.93750,   0.46421,   0.93750,  -0.93750,   0.80362,  -0.76657
  -0.55991,   0.81293,  -0.93750,  -0.77275,   0.20120,   0.17460,  -0.41135,   0.38479,  -0.55085,  -0.86968
   0.88979,  -0.39556,  -0.86675,   0.86735,   0.48282,  -0.52604,  -0.09772,  -0.08775,  -0.62597,   0.56136
   0.54261,  -0.01428,  -0.69815,   0.83797,   0.31303,  -0.93230,  -0.14900,  -0.26215,  -0.04943,   0.20225
  -0.51150,   0.06723,  -0.67042,  -0.75992,  -0.66021,  -0.00525,   0.93750,   0.77342,  -0.56136,  -0.15158
  -0.45408,   0.38096,  -0.47158,  -0.57486,   0.15707,  -0.73785,   0.79223,   0.63769,   0.64435,   0.87335
  -0.28835,  -0.69564,  -0.41727,   0.85123,   0.93750,   0.24451,  -0.14551,   0.45955,  -0.67911,  -0.91117
   0.93750,  -0.10825,  -0.78615,  -0.81248,   0.16397,  -0.67892,   0.58556,  -0.74465,   0.34459,   0.17220
  -0.43954,  -0.31941,   0.86085,  -0.88013,  -0.04927,   0.93720,   0.16222,  -0.93750,   0.51322,   0.76133
  -0.53875,   0.32935,   0.93750,   0.39287,  -0.56203,  -0.48242,  -0.64453,   0.56857,  -0.80754,  -0.30483
  -0.19906,  -0.65007,   0.93750,   0.23575,   0.93750,  -0.80987,   0.93750,   0.38550,  -0.17886,   0.93750
   0.42045,  -0.40337,   0.85906,  -0.48667,  -0.34416,  -0.37193,  -0.32524,   0.26350,   0.08905,   0.82203
  -0.57525,  -0.18430,   0.47313,   0.03215,   0.93750,  -0.78542,  -0.18465,  -0.30711,  -0.00008,   0.45849
   0.88087,   0.93750,  -0.79622,   0.93750,  -0.75594,   0.25278,   0.57423,   0.48215,  -0.50015,  -0.70521
   0.51483,  -0.79855,  -0.39915,  -0.30147,  -0.54720,  -0.15205,   0.93750,   0.42250,  -0.57067,   0.07754
  -0.17846,  -0.27077,   0.08209,   0.93750,  -0.24553,   0.35102,  -0.51434,  -0.86850,   0.37836,   0.93750
  -0.51393,   0.60237,  -0.64649,   0.46907,   0.60814,   0.16274,   0.52434,   0.55588,  -0.61195,  -0.33535
   0.10771,  -0.20491,   0.80012,   0.57203,  -0.39491,  -0.23208,   0.21548,  -0.34208,   0.02741,   0.08581
  -0.81302,  -0.68944,  -0.16607,   0.06285,  -0.93750,  -0.82236,   0.21171,   0.63906,   0.61496,   0.19383
  -0.93750,   0.93750,   0.22042,   0.47987,   0.00973,  -0.40164,  -0.63222,   0.34714,   0.77850,   0.03567
  -0.93392,  -0.01312,   0.93417,   0.60895,  -0.86238,   0.88338,   0.93750,  -0.86523,  -0.43707,  -0.25937
   0.50831,   0.83183,  -0.55137,  -0.93750,   0.93750,  -0.00022,  -0.52128,   0.20785,  -0.93750,   0.72724
  -0.31281,  -0.80093,  -0.93750,  -0.81161,  -0.81448,  -0.84024,   0.93750,   0.85907,  -0.89029,   0.63811
  -0.18931,   0.05683,  -0.83042,   0.72994,   0.93750,   0.24018,  -0.80384,  -0.82363,  -0.31268,  -0.03288
  -0.55967,  -0.19433,   0.93750,   0.31375,  -0.84299,  -0.68939,   0.79311,   0.11888,   0.05095,  -0.00353
   0.93750,  -0.17795,  -0.93750,  -0.21510,  -0.59115,  -0.87456,   0.93750,  -0.15686,  -0.32985,  -0.51872
   0.26266,  -0.60940,  -0.05351,   0.31523,   0.69096,   0.69767,  -0.15572,  -0.66109,   0.20506,   0.85519
  -0.76137,   0.28185,  -0.43656,  -0.17630,  -0.38438,   0.65995,   0.93750,  -0.93750,  -0.93750,  -0.61193
  -0.85316,   0.93368,  -0.20445,   0.09069,   0.35355,  -0.12429,   0.28360,   0.13413,  -0.86690,   0.93372
   0.10280,  -0.48110,   0.75665,  -0.17767,  -0.67876,   0.80698,  -0.15659,  -0.86859,   0.28884,  -0.86350
  -0.01322,   0.61925,   0.51575,   0.73476,  -0.57622,  -0.79377,  -0.25758,   0.09470,  -0.50547,  -0.58025
  -0.45302,  -0.91606,   0.16106,   0.71272,   0.11445,   0.69760,  -0.47105,   0.19882,  -0.21189,   0.93750
  -0.48381,   0.93750,   0.93750,   0.21389,  -0.45908,  -0.86579,  -0.16403,  -0.87039,  -0.93750,  -0.67810
  -0.70599,   0.93750,  -0.81357,  -0.06736,  -0.06387,   0.09085,  -0.23226,  -0.20889,  -0.92150,  -0.51470
   0.78070,  -0.89176,   0.61663,   0.87397,  -0.72351,   0.70185,   0.82568,  -0.57206,   0.41074,  -0.53940
  -0.92777,   0.80845,   0.93246,   0.12823,   0.93691,  -0.83138,  -0.88262,   0.30042,   0.22708,   0.79201
   0.28074,   0.12549,   0.19215,   0.74282,   0.16320,  -0.76153,  -0.33472,  -0.32803,   0.03223,   0.39268
  -0.43501,   0.22126,  -0.93750,   0.93750,  -0.04082,  -0.93750,   0.67499,  -0.25801,  -0.36146,   0.38552
  -0.34674,   0.24327,  -0.88531,  -0.76007,  -0.44465,   0.77828,  -0.85857,  -0.35142,  -0.93750,  -0.93750
  -0.35113,   0.30148,   0.10823,   0.69906,  -0.14934,  -0.57817,   0.84019,  -0.53217,   0.86978,   0.38398
  -0.88629,   0.87580,  -0.73867,   0.74998,   0.43517,   0.32960,  -0.79576,   0.33177,  -0.86595,   0.93750
   0.63009,  -0.93750,   0.42852,  -0.80073,  -0.84948,   0.20778,   0.24991,   0.12807,  -0.06786,   0.00022
   0.37054,  -0.81603,   0.13871,  -0.13541,  -0.02798,  -0.75803,   0.68768,   0.00172,   0.52599,  -0.93750
   0.13337,   0.01889,  -0.32112,   0.86101,  -0.48251,  -0.45819,  -0.50307,   0.49329,  -0.47807,  -0.07288
  -0.80406,  -0.82094,   0.86909,  -0.88350,  -0.93750,  -0.72064,  -0.88003,  -0.93750,  -0.14414,  -0.82143
  -0.27982,  -0.07254,  -0.88122,   0.82095,   0.74083,   0.16040,  -0.68285,  -0.30698,   0.23303,   0.36976
   0.87396,  -0.87275,   0.35548,  -0.81381,   0.44918,   0.39907,   0.68461,  -0.19539,   0.57203,  -0.81451
   0.27490,   0.60953,   0.93750,  -0.82182,   0.93750,  -0.93750,  -0.93750,  -0.61028,   0.35583,   0.93750
  -0.84022,   0.74920,  -0.93750,   0.88000,   0.87546,   0.87880,  -0.93750,   0.52047,  -0.88166,  -0.87120
   0.34309,  -0.24578,  -0.70640,  -0.25339,   0.58531,  -0.83476,   0.93750,  -0.54361,   0.48872,   0.54483
  -0.71430,   0.10686,   0.38450,  -0.54219,  -0.39678,  -0.34319,   0.52703,  -0.35552,   0.93715,   0.29308
  -0.93750,   0.35269,   0.76515,   0.46096,  -0.93750,  -0.11506,   0.83730,  -0.48342,  -0.50596,   0.93750
  -0.26941,   0.07856,  -0.41080,  -0.59919,  -0.44231,   0.82039,   0.32227,  -0.12941,   0.02774,   0.47980
   0.93750,  -0.63203,  -0.36874,   0.93750,   0.93750,  -0.85391,   0.93750,   0.93750,   0.03231,   0.75470
   0.41134,   0.44329,  -0.25823,   0.56698,  -0.45892,   0.20933,   0.08236,   0.13630,  -0.18034,  -0.75285
  -0.93750,  -0.90182,  -0.64755,  -0.84442,  -0.90395,   0.13656,  -0.69752,   0.34853,  -0.46910,  -0.88653
   0.85867,   0.35645,  -0.34267,  -0.32032,  -0.74376,   0.31660,  -0.09302,  -0.12141,  -0.31073,  -0.30359
  -0.81699,   0.44459,  -0.24417,  -0.36649,   0.49920,   0.93750,  -0.52608,  -0.93750,  -0.89894,   0.56197
  -0.31958,  -0.42376,  -0.86779,   0.34699,   0.62790,   0.25515,  -0.67907,   0.81519,   0.03684,  -0.03903
  -0.90306,   0.58595,   0.84334,   0.86388,  -0.80975,  -0.75196,  -0.52310,   0.93750,   0.11979,   0.30180
   0.63366,   0.36422,  -0.75509,  -0.30105,   0.75151,  -0.62545,  -0.48993,   0.72894,   0.15208,   0.06337
  -0.18940,   0.49445,   0.48543,   0.93750,   0.27560,  -0.45504,  -0.92653,   0.41458,  -0.25466,   0.36581
   0.93750,  -0.55660,  -0.93750,   0.60791,  -0.81418,   0.93750,  -0.93750,  -0.27437,   0.61963,  -0.15850
   0.93750,   0.71220,   0.65317,  -0.87427,  -0.74193,   0.83926,  -0.57149,   0.06854,  -0.81178,  -0.92580
   0.93750,   0.82221,   0.93750,   0.18397,  -0.26251,  -0.13927,   0.18230,   0.40889,  -0.86576,  -0.81331
   0.07190,   0.93750,  -0.93750,   0.02644,  -0.75312,  -0.93750,  -0.87360,  -0.56394,  -0.93750,  -0.58594
   0.22635,  -0.09072,  -0.47777,  -0.60821,   0.86569,   0.91442,  -0.29866,  -0.08738,  -0.11571,   0.23445
  -0.61118,   0.80489,  -0.85742,   0.41079,  -0.20202,  -0.26648,  -0.93750,  -0.10939,   0.70269,   0.93750
  -0.71834,   0.93750,   0.25575,   0.26306,   0.39922,  -0.08626,   0.36317,  -0.18653,  -0.67739,   0.09041
   0.32166,  -0.20652,   0.17359,  -0.41855,  -0.36463,  -0.66432,   0.92169,  -0.07992,   0.63782,   0.54391
   0.03710,  -0.38283,  -0.74941,  -0.11855,  -0.04515,   0.82268,   0.73615,  -0.50057,   0.30222,  -0.79291
   0.54833,  -0.03975,  -0.93750,  -0.51220,  -0.93750,  -0.93750,  -0.80402,  -0.30531,   0.93750,  -0.16896
   0.56421,   0.02715,  -0.93750,   0.56449,  -0.93750,  -0.87796,   0.93750,   0.87834,   0.14984,   0.14775
  -0.13084,   0.88126,  -0.10989,  -0.62120,   0.67723,  -0.44631,   0.75211,  -0.15611,  -0.23172,  -0.67086
  -0.75340,  -0.13429,   0.93750,  -0.81813,   0.93750,   0.83255,  -0.10211,   0.14185,  -0.93750,  -0.93750
   0.93750,  -0.93750,   0.08876,  -0.59917,  -0.84251,  -0.64238,  -0.93750,   0.81980,   0.73851,  -0.31227
  -0.20025,  -0.09462,  -0.18810,  -0.31241,  -0.52572,   0.93750,  -0.47753,  -0.02142,  -0.13795,   0.15431
   0.93750,  -0.02445,  -0.68151,  -0.26345,  -0.24526,   0.83237,  -0.18238,  -0.82679,   0.32176,   0.41058
   0.70126,   0.10805,   0.42915,   0.93750,  -0.67160,  -0.93750,   0.29662,   0.71620,  -0.14359,  -0.11051
   0.43700,   0.08636,   0.62135,  -0.76252,  -0.43353,   0.82489,  -0.26848,   0.08509,   0.13939,   0.16941
   0.21786,   0.29682,   0.23005,  -0.36489,   0.41097,   0.36018,   0.07651,  -0.66378,   0.13430,   0.01398
  -0.87257,  -0.07292,   0.15185,   0.93750,   0.70566,  -0.91110,   0.13061,  -0.45528,   0.56445,  -0.12876
  -0.47355,   0.88248,   0.14706,   0.47152,  -0.66216,  -0.93750,   0.68599,  -0.39285,   0.35338,   0.11454
  -0.49648,   0.54113,   0.77034,   0.28457,   0.56755,   0.44745,  -0.69277,   0.62392,  -0.41027,  -0.49327
   0.13522,   0.34391,   0.15958,  -0.74221,  -0.29084,   0.87025,  -0.07943,   0.01248,   0.08348,  -0.11274
  -0.93750,  -0.93750,   0.47480,   0.67708,  -0.56740,  -0.60466,  -0.64656,   0.93750,  -0.93750,  -0.81843
   0.82954,   0.23461,  -0.93750,  -0.56681,  -0.93750,   0.74741,  -0.17801,  -0.23428,   0.08395,  -0.19609
  -0.13384,  -0.19707,  -0.56750,   0.92641,   0.16047,   0.81400,  -0.03227,  -0.29709,   0.15024,  -0.10999
  -0.13286,  -0.40576,  -0.62519,  -0.48489,   0.93750,  -0.74470,  -0.06971,  -0.88426,  -0.12383,  -0.37645
   0.93750,   0.70062,  -0.93750,  -0.29582,  -0.86748,  -0.38985,   0.32740,  -0.58991,   0.81489,   0.93750
   0.87751,  -0.28199,  -0.93750,   0.29177,   0.93750,  -0.81191,   0.93750,  -0.64564,  -0.92041,  -0.62195
   0.93750,   0.76493,  -0.40845,   0.74795,   0.35088,  -0.59047,   0.60384,   0.87060,  -0.70313,  -0.56493
  -0.03818,  -0.43087,  -0.68881,  -0.81028,   0.87188,   0.66642,  -0.21291,   0.85436,  -0.26813,  -0.41173
   0.93750,   0.38744,  -0.06714,  -0.30927,   0.88234,  -0.77718,   0.93750,  -0.76758,  -0.86908,  -0.53272
  -0.34647,   0.59968,  -0.16062,   0.66101,   0.21370,  -0.32884,   0.81152,   0.32711,   0.21347,   0.83390
  -0.80401,  -0.89986,   0.74454,  -0.93750,  -0.18002,   0.80348,  -0.72527,   0.93750,  -0.66661,   0.08100
   0.71821,   0.05783,  -0.27234,   0.85413,  -0.15079,  -0.43183,  -0.44794,   0.14982,   0.01102,   0.00431
   0.04265,   0.16936,   0.15797,   0.37421,   0.12418,  -0.07743,  -0.80487,   0.18402,  -0.07230,   0.24975
  -0.27750,   0.69724,  -0.36831,  -0.25844,   0.05518,   0.04147,   0.12983,   0.87205,  -0.06960,  -0.61213
   0.26092,   0.52988,  -0.93750,   0.48003,   0.37443,   0.82698,   0.80113,   0.53579,  -0.68860,  -0.65914
   0.55270,   0.16402,   0.08470,   0.93750,   0.44618,   0.92729,   0.80778,   0.86947,   0.63392,   0.35939
  -0.87970,  -0.93750,   0.93750,  -0.93750,  -0.66323,  -0.00562,   0.93750,   0.93750,   0.89278,  -0.48843
   0.84771,  -0.68435,  -0.91456,   0.14863,  -0.56002,   0.75769,   0.23281,   0.93750,  -0.36087,  -0.33942
   0.68248,  -0.35890,   0.36104,   0.57562,  -0.36275,  -0.62861,   0.93750,   0.42243,   0.93750,  -0.70190
   0.22150,   0.63978,  -0.83532,  -0.93254,  -0.26317,   0.93750,   0.16558,   0.93750,   0.26187,  -0.23354
  -0.30357,   0.73268,   0.72713,   0.70059,   0.39139,  -0.62417,  -0.79656,   0.70443,  -0.06587,   0.86673
   0.39926,   0.93750,  -0.08282,  -0.76411,   0.18728,  -0.12759,   0.61953,  -0.62318,  -0.08512,  -0.68782
   0.39304,   0.53865,   0.08686,   0.81661,   0.67974,  -0.46390,  -0.14836,  -0.73920,   0.20050,  -0.27303
   0.50302,  -0.12585,   0.87773,   0.87227,  -0.93750,  -0.52796,   0.93750,   0.93750,  -0.62607,  -0.93750
   0.07176,  -0.64158,   0.02809,  -0.06591,   0.02399,   0.07092,   0.93750,   0.48553,   0.10468,   0.01832
   0.07285,   0.11241,  -0.18437,   0.88083,  -0.71815,   0.32013,  -0.02692,  -0.86198,   0.82147,  -0.69718
  -0.93750,  -0.89181,  -0.90002,   0.71072,  -0.85237,  -0.18822,  -0.74085,   0.34884,   0.93750,   0.80813
  -0.38083,   0.60606,  -0.57996,   0.93621,  -0.93750,  -0.93750,  -0.73615,  -0.76282,   0.92135,   0.93750
   0.23580,   0.00374,  -0.24758,  -0.41875,  -0.00426,   0.75384,  -0.03462,  -0.48048,  -0.06155,   0.40376
  -0.36368,  -0.57798,  -0.23280,   0.22291,   0.92570,  -0.42453,   0.52938,  -0.10513,   0.77078,  -0.37035
  -0.43349,  -0.27705,   0.00343,  -0.65499,   0.20566,   0.81456,  -0.59349,  -0.22360,   0.24307,  -0.60104
  -0.76607,  -0.19650,   0.43615,  -0.46013,   0.42796,   0.93750,  -0.31429,  -0.32301,   0.68952,  -0.93750
  -0.79440,   0.67843,   0.93750,  -0.83299,  -0.44237,   0.93750,  -0.56992,  -0.49737,   0.54368,  -0.30536
   0.26728,   0.43092,  -0.85005,  -0.26886,   0.47873,  -0.44089,   0.24458,   0.93750,   0.00649,   0.02597
  -0.25911,   0.32439,   0.04748,  -0.69065,   0.40875,  -0.88199,  -0.69422,   0.93750,  -0.80347,   0.76031
  -0.74847,   0.22468,   0.82595,  -0.73397,   0.87412,  -0.84842,   0.93750,  -0.93750,  -0.79457,  -0.44786
  -0.06503,  -0.82857,   0.31794,   0.93750,  -0.15995,  -0.75955,  -0.61305,   0.56964,  -0.21663,   0.00397
   0.17437,   0.83381,  -0.87904,  -0.87255,   0.87009,   0.87994,  -0.74190,   0.86544,   0.87325,  -0.12992
   0.60918,   0.10403,   0.76706,   0.40341,  -0.11574,  -0.15596,  -0.61944,   0.05841,  -0.36768,   0.01296
   0.68580,   0.86970,  -0.72989,   0.93750,  -0.80255,   0.93750,  -0.77965,   0.32081,  -0.93750,   0.93750
   0.70021,   0.02495,   0.02874,  -0.07146,   0.47922,   0.31259,   0.38160,   0.13229,   0.45665,  -0.18899
  -0.93750,   0.78406,   0.93665,   0.93750,  -0.56189,   0.93750,   0.93750,  -0.93750,   0.91502,  -0.18580
   0.70401,  -0.22703,   0.82684,   0.20727,   0.80592,  -0.78673,   0.62087,  -0.52841,  -0.17682,  -0.08432
  -0.34420,  -0.16936,   0.74327,   0.76480,  -0.93750,   0.01881,   0.93750,  -0.86361,   0.49664,  -0.25109
  -0.02579,   0.03383,  -0.05507,  -0.60145,  -0.73454,   0.88407,   0.21742,   0.41906,  -0.20578,  -0.11114
   0.37051,  -0.21385,   0.31760,  -0.37396,   0.86411,  -0.26490,  -0.43689,   0.16949,   0.26892,   0.49808
  -0.55228,  -0.87378,   0.80826,  -0.44633,   0.93750,   0.93681,  -0.12024,   0.87173,   0.56295,   0.13009
  -0.72316,   0.41948,  -0.39814,   0.10154,   0.93750,  -0.93671,   0.93750,   0.93750,  -0.51394,   0.36330
   0.93420,   0.93750,  -0.41004,   0.93750,   0.41265,  -0.86985,   0.42580,   0.55495,  -0.76142,  -0.93750
  -0.16665,   0.93750,  -0.08026,   0.08555,   0.16239,   0.63489,   0.58001,  -0.58777,  -0.57318,  -0.89059
   0.59889,   0.93750,   0.92825,   0.88780,   0.70628,   0.44306,   0.44927,   0.14468,  -0.93750,   0.22337
   0.48875,  -0.61190,   0.93750,   0.33669,  -0.70306,  -0.93750,   0.81814,  -0.87199,  -0.30537,  -0.67756
  -0.68185,   0.51377,  -0.29670,   0.87805,  -0.79329,   0.87339,  -0.93750,  -0.65270,  -0.88132,  -0.77186
  -0.57079,   0.80408,   0.21411,   0.71349,  -0.82047,   0.30220,   0.93750,  -0.88996,  -0.22850,  -0.76539
  -0.09961,   0.17312,   0.30000,  -0.77179,  -0.37192,   0.91246,  -0.38152,   0.37061,   0.08925,   0.04651
   0.46317,  -0.42721,   0.48915,   0.11272,  -0.15594,  -0.68724,  -0.08185,  -0.51106,  -0.28265,  -0.52389
  -0.36666,   0.37564,  -0.81683,  -0.93043,   0.67736,  -0.09435,   0.86825,   0.56155,  -0.89335,  -0.68066
   0.76434,  -0.21864,   0.17859,  -0.85954,   0.93750,   0.75409,   0.02138,  -0.82580,   0.14508,   0.41002
   0.12098,   0.04420,  -0.04941,  -0.21437,  -0.50401,   0.74035,   0.00108,  -0.59660,   0.39414,  -0.00736
  -0.03492,   0.56951,  -0.63774,   0.58298,   0.57479,   0.93750,  -0.57158,  -0.93750,  -0.87866,   0.91798
   0.33912,   0.36989,   0.55094,  -0.61946,   0.80933,  -0.04591,   0.50953,  -0.54458,   0.15187,  -0.21489
   0.85888,  -0.13045,   0.08047,  -0.28068,  -0.48703,   0.79833,  -0.29585,   0.24076,  -0.13539,  -0.34100
  -0.46860,  -0.12886,  -0.65361,   0.73816,   0.62986,   0.93750,  -0.63880,  -0.00280,  -0.61261,  -0.69523
   0.61666,  -0.22418,   0.09888,  -0.80834,   0.23698,  -0.35712,   0.93750,  -0.81755,  -0.93750,  -0.81120
  -0.45185,   0.83760,   0.83228,   0.93750,   0.34679,  -0.93750,   0.61138,  -0.83245,   0.93750,   0.93750
  -0.68451,  -0.41506,  -0.87532,   0.93750,   0.68992,  -0.78282,  -0.53645,  -0.04168,  -0.24843,  -0.43957
  -0.73867,  -0.26976,   0.86996,   0.63374,  -0.45050,   0.58416,  -0.64944,  -0.93750,  -0.19325,   0.93750
   0.66754,   0.23396,   0.69385,  -0.54158,   0.42790,   0.03622,   0.84379,   0.29841,   0.05142,   0.06459
   0.70376,   0.10170,  -0.27904,   0.93495,  -0.19588,  -0.11191,   0.80185,   0.08424,  -0.36659,   0.73276
   0.14878,  -0.76415,   0.45768,  -0.03550,  -0.52243,   0.93510,  -0.79943,   0.31044,   0.93750,  -0.43375
  -0.87914,   0.10899,   0.93750,  -0.86940,  -0.23679,   0.93750,   0.88707,   0.61391,  -0.29165,   0.87366
   0.12154,   0.59786,  -0.93750,  -0.81289,   0.83768,  -0.81685,   0.00972,   0.79581,   0.31995,   0.41316
  -0.82159,   0.76772,  -0.93750,   0.24618,   0.66450,  -0.93750,   0.47826,   0.64818,  -0.70282,  -0.69698
   0.11076,   0.26213,  -0.48153,  -0.87169,   0.35372,   0.93750,  -0.06745,  -0.31399,   0.15340,  -0.02296
   0.92707,  -0.27011,  -0.60299,  -0.54853,   0.16912,  -0.18859,   0.08040,  -0.13592,  -0.70269,   0.58747
  -0.63822,   0.49903,   0.14039,   0.33594,  -0.38618,  -0.27600,  -0.85455,   0.68434,   0.03049,  -0.13780
  -0.11653,   0.22737,   0.66395,  -0.29495,   0.59845,   0.43048,   0.49120,  -0.73662,   0.03929,   0.56078
   0.34297,   0.44950,  -0.26749,  -0.80448,   0.17224,   0.87372,   0.35715,  -0.10728,  -0.88051,   0.76575
  -0.77189,   0.93750,   0.86880,  -0.19227,   0.14436,  -0.37689,  -0.05922,  -0.29429,  -0.93750,  -0.30768
  -0.40386,   0.26018,   0.10035,  -0.12672,   0.29131,   0.32783,  -0.19010,   0.87694,   0.93540,   0.93750
  -0.33809,  -0.57701,  -0.77221,  -0.33687,  -0.72083,   0.87460,   0.86258,  -0.82314,   0.65726,  -0.00960
  -0.87205,   0.80675,   0.93507,  -0.63603,  -0.67530,   0.55662,  -0.93750,  -0.73781,   0.79786,  -0.56421
  -0.50466,  -0.54107,  -0.86963,   0.93750,   0.93750,  -0.93750,  -0.87713,  -0.81789,   0.93750,   0.46655
   0.27163,  -0.73634,  -0.27765,   0.54173,  -0.18635,   0.80664,  -0.86472,  -0.16701,   0.81596,  -0.56224
  -0.00104,  -0.02793,   0.37718,  -0.23376,  -0.64751,  -0.72901,   0.37213,   0.93750,   0.00763,   0.08227
  -0.93750,   0.93750,  -0.13591,   0.93750,   0.47282,  -0.93750,  -0.93750,  -0.84881,   0.71396,  -0.93750
   0.45882,  -0.26216,   0.62233,   0.15829,  -0.00722,  -0.49282,  -0.74620,   0.00933,  -0.36767,  -0.50040
   0.03392,   0.10538,   0.63681,   0.75713,   0.80392,   0.81413,   0.26923,   0.03101,   0.83420,  -0.89059
   0.67256,   0.65240,  -0.86974,  -0.81128,  -0.91987,   0.38585,   0.79950,   0.86476,   0.41404,   0.93750
   0.06349,  -0.19334,   0.93750,   0.93750,  -0.40200,  -0.87664,  -0.83121,  -0.81075,  -0.89731,  -0.28249
   0.74224,  -0.12918,   0.86845,  -0.86479,  -0.55606,  -0.74448,   0.30793,  -0.05109,   0.87892,  -0.42613
  -0.30409,  -0.76724,  -0.49645,  -0.10394,  -0.73408,  -0.93650,  -0.46242,   0.93750,   0.63683,   0.62784
  -0.14957,   0.03771,  -0.50918,  -0.69250,  -0.19279,   0.92493,  -0.10021,  -0.13591,  -0.21833,   0.27733
   0.80043,  -0.67369,  -0.64306,  -0.79386,  -0.86624,   0.46577,  -0.22100,  -0.69276,   0.73743,  -0.93750
  -0.53696,  -0.93750,   0.40697,  -0.48588,  -0.93750,   0.10996,  -0.81780,   0.71913,   0.01444,  -0.87013
   0.93750,  -0.55469,   0.88128,   0.93750,   0.88353,   0.06903,  -0.86574,  -0.74115,  -0.67883,  -0.79989
  -0.24982,  -0.41241,  -0.91156,  -0.87927,  -0.09307,   0.93750,  -0.83425,   0.28305,   0.57221,   0.06212
  -0.54353,   0.09224,  -0.81957,   0.93487,  -0.81432,   0.93750,  -0.70784,  -0.82909,   0.29517,   0.27127
  -0.67502,  -0.02353,  -0.49857,   0.14201,  -0.76207,  -0.82499,  -0.11490,   0.93750,  -0.52353,  -0.35933
   0.65069,  -0.80848,   0.41127,  -0.53051,   0.63481,   0.68484,   0.17467,   0.06778,   0.04972,   0.93750
  -0.24548,   0.58814,  -0.81536,  -0.73382,   0.19606,   0.69778,   0.81834,  -0.29656,  -0.02273,  -0.23388
   0.86869,   0.87685,  -0.62103,  -0.28612,  -0.63838,   0.47252,   0.46429,   0.16574,   0.31728,   0.76242
  -0.84037,   0.32808,  -0.82365,   0.06504,  -0.86466,  -0.65040,  -0.06008,   0.93750,   0.93750,   0.92275
   0.87140,  -0.74108,  -0.07806,   0.78111,   0.71662,  -0.93750,  -0.64663,   0.33018,  -0.51358,   0.32691
  -0.28514,  -0.33334,   0.07474,   0.02693,   0.61983,  -0.18381,   0.40913,  -0.05994,   0.81499,  -0.16043
  -0.93750,  -0.88366,   0.02354,   0.79953,   0.57068,   0.65086,  -0.51031,  -0.37885,   0.63004,  -0.74869
  -0.80732,  -0.77626,   0.42698,  -0.62118,   0.81328,   0.42139,   0.80252,  -0.52909,  -0.11440,  -0.61503
  -0.72514,  -0.52211,  -0.87692,   0.62644,   0.93750,  -0.87971,   0.93750,   0.15545,   0.36075,   0.12360
  -0.31119,   0.54349,  -0.33977,  -0.19437,   0.93750,  -0.93154,   0.93750,   0.81145,   0.76273,   0.72857
   0.15340,   0.80786,  -0.41940,  -0.20191,   0.46695,  -0.56189,  -0.93750,   0.73565,  -0.60501,   0.74653
   0.53138,  -0.32748,   0.07739,  -0.04137,   0.60184,  -0.03188,   0.58996,   0.04794,  -0.16155,   0.40813
  -0.17633,   0.93750,   0.42411,   0.57476,  -0.61475,  -0.88255,   0.80306,   0.80486,   0.93750,  -0.83958
  -0.61221,   0.93750,  -0.79929,   0.93750,   0.33179,   0.81892,   0.34564,   0.93750,   0.46044,  -0.80295
  -0.60905,   0.89573,   0.01503,  -0.25787,  -0.30902,  -0.06514,  -0.19451,  -0.28548,  -0.86861,  -0.79796
  -0.45035,   0.05672,  -0.51221,   0.86511,  -0.31766,  -0.03565,   0.81923,   0.68039,   0.00071,   0.50332
  -0.92766,  -0.44019,   0.93750,   0.64308,  -0.68478,   0.38834,  -0.11880,   0.31443,   0.50513,  -0.19631
  -0.93750,  -0.92034,  -0.62999,   0.43627,   0.44204,   0.00201,  -0.46043,  -0.24905,   0.21198,   0.93750
  -0.93750,   0.09035,   0.74852,   0.18815,  -0.93750,  -0.88459,   0.22736,  -0.44755,  -0.21793,  -0.93750
  -0.03438,  -0.76453,   0.15892,   0.93750,   0.93750,  -0.87283,   0.93750,   0.58192,   0.93750,   0.31962
  -0.49364,   0.26700,   0.19551,   0.82729,   0.52840,  -0.61618,  -0.20199,  -0.20241,   0.15062,  -0.20978
   0.75631,   0.93750,  -0.23400,  -0.55834,  -0.64237,   0.20390,   0.62821,   0.71898,  -0.14789,   0.87665
  -0.02613,   0.93750,   0.10479,  -0.10323,  -0.01543,  -0.37507,   0.09756,   0.56059,  -0.93750,  -0.65846
   0.93750,  -0.87287,  -0.37275,  -0.93750,   0.04935,  -0.92047,  -0.93750,  -0.70783,   0.55823,   0.93750
  -0.14381,  -0.74200,   0.08270,   0.23928,   0.86134,   0.38522,  -0.20532,   0.87808,   0.73527,   0.14618
  -0.91473,   0.93750,  -0.43303,  -0.77511,   0.23495,  -0.63563,   0.92496,  -0.01475,  -0.75522,   0.86040
   0.76425,  -0.34702,  -0.46385,  -0.62567,   0.93750,   0.88573,  -0.45478,   0.14902,  -0.51936,  -0.81284
   0.67080,  -0.47128,   0.39446,   0.35575,  -0.40379,  -0.17763,  -0.43766,   0.14149,  -0.65477,   0.72771
   0.43834,   0.00212,   0.93750,  -0.29012,   0.93750,  -0.44452,  -0.75955,  -0.93750,   0.14357,  -0.01033
   0.81082,   0.33213,  -0.48484,  -0.90364,  -0.01805,   0.42996,   0.65646,  -0.46559,  -0.06463,  -0.09055
  -0.91535,   0.46578,   0.79651,   0.73275,  -0.14198,  -0.75838,  -0.67657,   0.45083,   0.87361,   0.02094
   0.54773,   0.88077,  -0.87476,  -0.24341,   0.76763,   0.86957,  -0.10945,  -0.01732,  -0.86903,  -0.80422
  -0.87501,  -0.11209,   0.81675,   0.12014,   0.46415,  -0.10118,   0.48208,  -0.57525,   0.93750,  -0.05747
  -0.83931,   0.34080,  -0.13725,  -0.84699,  -0.02891,  -0.27847,  -0.93750,  -0.64955,   0.93750,   0.41453
  -0.86253,   0.00643,   0.75435,  -0.61959,   0.80809,   0.49817,  -0.28406,   0.22958,  -0.16376,   0.14093
   0.93750,  -0.34634,   0.89181,  -0.16189,   0.93750,   0.93750,  -0.58065,  -0.93750,   0.93564,  -0.93750
  -0.35403,  -0.87918,   0.81875,   0.93750,   0.06381,  -0.87351,   0.35485,   0.93750,   0.37637,  -0.93750
   0.02407,  -0.23732,  -0.38132,   0.93185,  -0.21488,  -0.41440,  -0.61247,  -0.26189,  -0.71332,   0.04217
  -0.25014,  -0.22592,  -0.93750,  -0.27050,   0.93750,  -0.93750,   0.73362,  -0.86895,   0.71088,  -0.00772
  -0.69129,  -0.28546,   0.83744,  -0.93750,   0.93750,   0.28989,  -0.74711,  -0.07509,  -0.79274,  -0.80022
   0.60053,   0.05729,  -0.05802,   0.54866,   0.55315,   0.27314,   0.04349,  -0.51861,  -0.09374,  -0.54471
  -0.01348,  -0.24598,   0.74660,   0.31348,   0.80512,   0.03107,  -0.02708,  -0.09995,  -0.23830,   0.31894
   0.93750,  -0.06997,  -0.47907,  -0.67758,   0.87145,   0.80120,  -0.63309,   0.38144,  -0.81506,  -0.28447
   0.93750,  -0.21652,  -0.88156,   0.93750,  -0.75171,   0.80621,   0.13651,  -0.87482,  -0.21687,   0.36764
  -0.47422,   0.04663,   0.93750,   0.93750,   0.76162,   0.89280,  -0.88033,   0.38447,   0.14223,  -0.50542
  -0.85885,  -0.19035,   0.17802,   0.04867,   0.93750,   0.93750,  -0.12205,   0.03719,   0.93750,  -0.45354
   0.59227,  -0.69783,  -0.72066,   0.86733,  -0.76427,   0.86673,  -0.41173,  -0.93750,  -0.46001,  -0.26138
  -0.75456,  -0.64669,  -0.75697,   0.93750,  -0.93750,   0.80820,  -0.93463,   0.81582,  -0.08804,  -0.60187
  -0.87512,  -0.67130,  -0.54490,   0.37002,  -0.31460,   0.11478,  -0.40545,   0.17118,   0.22711,   0.93750
   0.37105,   0.24768,   0.16315,  -0.93382,  -0.65051,   0.93750,  -0.24861,   0.01208,   0.01462,  -0.18351
  -0.41684,  -0.93750,   0.93750,   0.18189,   0.48478,  -0.78793,  -0.78601,   0.21446,   0.45246,   0.93750
  -0.58833,   0.37386,  -0.18258,   0.43566,  -0.73564,  -0.27884,   0.88144,   0.25602,   0.21072,  -0.11974
   0.40265,  -0.56587,   0.43290,  -0.52171,   0.60293,  -0.03400,   0.11326,   0.35905,  -0.20654,   0.80534
   0.31463,   0.93057,   0.26328,  -0.93750,   0.93750,  -0.75490,  -0.37779,   0.40259,   0.61558,  -0.93750
  -0.93750,   0.93750,   0.24038,  -0.62142,  -0.93750,  -0.58018,  -0.70717,  -0.61541,   0.93750,  -0.87771
   0.86986,   0.31831,  -0.57109,   0.87689,   0.44157,  -0.79216,  -0.05901,   0.86667,  -0.72205,  -0.51422
  -0.93583,   0.14006,   0.01412,  -0.86649,   0.93750,  -0.93750,   0.93750,  -0.93750,  -0.67383,   0.89656
   0.71345,   0.93750,  -0.20435,  -0.10113,  -0.84378,  -0.93750,   0.24854,  -0.58569,   0.82054,   0.20668
  -0.65448,   0.54819,  -0.80466,   0.44200,   0.93750,  -0.93573,  -0.74622,   0.93750,  -0.48481,   0.24409
   0.85257,  -0.43408,   0.14038,   0.53623,  -0.93750,   0.88153,   0.76406,   0.93750,  -0.93750,   0.66709
  -0.70729,   0.78392,  -0.70819,  -0.74881,   0.93750,   0.83181,   0.17990,   0.07160,  -0.29488,  -0.32170
   0.91802,  -0.26644,  -0.93750,   0.07098,   0.26515,   0.93750,  -0.87618,   0.37329,  -0.61585,  -0.93750
  -0.50018,  -0.35077,   0.85582,  -0.83903,   0.66208,   0.81089,   0.59631,  -0.42034,   0.15172,   0.54435
  -0.29848,  -0.19462,  -0.56542,  -0.41171,   0.45133,   0.93750,  -0.57052,  -0.64693,  -0.40071,   0.36217
  -0.63973,  -0.10095,  -0.37454,   0.80603,  -0.06913,  -0.70737,  -0.61553,  -0.10136,  -0.71504,  -0.64238
  -0.51806,  -0.81055,  -0.21097,  -0.88053,  -0.92547,  -0.37011,   0.30112,   0.93750,  -0.35978,   0.50032
  -0.30145,   0.24171,   0.08731,   0.93750,   0.93750,  -0.36596,  -0.63419,   0.27044,   0.04653,  -0.14991
  -0.39871,   0.31402,  -0.58006,   0.74956,  -0.00257,  -0.68058,  -0.86581,   0.53619,  -0.24783,  -0.80369
   0.25982,  -0.79295,  -0.80717,  -0.15714,   0.21520,   0.93750,   0.87407,   0.15781,   0.09991,   0.19462
   0.44805,  -0.93750,   0.87209,  -0.81613,  -0.93750,   0.93750,   0.43114,   0.64329,   0.16673,   0.02772
  -0.58816,   0.55369,  -0.72939,   0.87762,  -0.52745,   0.57751,  -0.93750,  -0.27264,  -0.06825,  -0.93750
   0.02472,   0.41187,  -0.25964,   0.79510,   0.47182,  -0.51356,  -0.42441,  -0.69610,  -0.81726,   0.49956
   0.61776,  -0.73129,  -0.43685,   0.77397,  -0.73570,  -0.79020,   0.84556,   0.90809,   0.40302,  -0.75062
   0.40978,  -0.93750,   0.57674,   0.87450,  -0.67294,  -0.88352,   0.87470,   0.28881,  -0.77561,   0.46225
   0.93750,   0.46923,   0.41638,  -0.67576,   0.13954,   0.23675,   0.93750,   0.60967,  -0.93750,  -0.10162
   0.04903,  -0.80412,   0.63622,  -0.49543,   0.35470,   0.83096,  -0.23940,   0.49800,  -0.03272,   0.93750
   0.29407,   0.93750,  -0.62337,   0.48738,   0.20805,   0.40981,  -0.51744,  -0.40725,  -0.31525,  -0.86437
   0.42063,  -0.77042,  -0.63498,   0.56809,   0.67438,   0.40115,   0.80997,   0.18611,   0.18291,   0.40884
   0.76851,   0.51395,   0.46181,  -0.72870,   0.13602,   0.19540,  -0.73721,  -0.24711,  -0.63506,   0.34575
  -0.11871,  -0.41575,  -0.91380,   0.50011,  -0.93134,  -0.32860,   0.25168,   0.93750,  -0.21330,   0.21045
  -0.46888,   0.08582,  -0.27517,   0.86818,   0.93750,  -0.70860,  -0.37523,  -0.56921,   0.23854,  -0.75616
   0.24161,   0.57361,   0.64865,  -0.68589,  -0.55884,  -0.17469,   0.93750,  -0.00685,   0.12544,   0.56222
   0.87212,   0.15546,   0.68202,   0.90451,  -0.78312,   0.64610,  -0.93744,   0.72950,   0.71987,   0.77672
  -0.72244,  -0.81145,   0.90979,   0.60029,   0.06841,  -0.27134,   0.91193,  -0.41020,   0.71438,  -0.62911
  -0.52217,  -0.10941,   0.92792,   0.23169,  -0.30843,   0.01861,  -0.85133,  -0.05221,  -0.41941,  -0.08422
  -0.74693,  -0.03174,   0.93750,  -0.79026,   0.14162,  -0.23522,   0.93750,   0.33650,  -0.80395,  -0.29958
   0.00349,   0.04984,  -0.79350,   0.71377,   0.43405,  -0.60183,   0.85164,   0.80453,   0.80169,   0.76708
   0.07311,   0.20166,  -0.29109,   0.93750,  -0.25722,  -0.89571,  -0.33582,  -0.84057,  -0.13943,   0.18642
   0.18699,   0.24170,  -0.92488,  -0.93750,  -0.76703,  -0.28382,   0.25973,   0.93750,   0.41422,  -0.76794
  -0.08282,   0.81247,  -0.14875,   0.62757,  -0.52241,  -0.57098,   0.44522,   0.40766,  -0.63048,   0.11745
  -0.70339,   0.93750,  -0.73705,   0.48408,   0.80696,  -0.59973,  -0.93750,   0.93750,   0.51612,  -0.03098
  -0.66451,   0.43091,  -0.40038,  -0.56437,  -0.46800,   0.71348,   0.49647,   0.53635,   0.46797,   0.57854
  -0.93750,  -0.84409,   0.79610,  -0.93750,   0.62819,   0.64806,   0.93750,   0.93750,   0.93750,   0.93750
   0.68048,  -0.38674,   0.42489,  -0.52221,  -0.54673,   0.81515,   0.46314,   0.25167,  -0.13201,   0.44749
  -0.21485,   0.70058,  -0.33440,   0.85850,  -0.48597,  -0.74805,  -0.09760,   0.65923,   0.39432,   0.50067
   0.00336,  -0.10412,   0.16956,  -0.60576,   0.69420,   0.28105,  -0.00624,   0.28717,   0.11545,   0.23658
  -0.65704,   0.05785,   0.85906,  -0.93355,  -0.93553,   0.93750,  -0.75797,   0.93750,   0.86437,   0.25934
  -0.93750,   0.21185,  -0.25948,  -0.46551,  -0.93750,   0.93750,  -0.23753,   0.30157,   0.51454,  -0.93750
   0.39787,   0.93750,  -0.01703,  -0.93750,  -0.46378,  -0.50091,   0.34497,  -0.93750,   0.93750,   0.93750
   0.18301,   0.64178,  -0.09710,  -0.01498,   0.25527,  -0.93750,  -0.73729,   0.93750,  -0.93750,  -0.73962
   0.64680,   0.25116,   0.06823,  -0.69243,   0.23592,   0.44220,   0.93750,  -0.14664,   0.18420,   0.15416
  -0.89967,   0.93204,  -0.68722,  -0.53504,   0.14721,   0.21342,  -0.68082,  -0.85274,  -0.93750,   0.93750
  -0.23473,   0.93748,   0.22680,  -0.29573,   0.02773,   0.16085,  -0.48099,   0.01867,  -0.43798,  -0.87754
   0.18070,   0.00980,   0.85413,  -0.32642,   0.37027,   0.93750,   0.04784,   0.43126,  -0.47083,  -0.13851
   0.65433,   0.32085,  -0.76027,   0.82490,   0.73582,  -0.61543,  -0.87916,  -0.28869,   0.87412,  -0.41398
   0.63505,  -0.05766,  -0.36586,  -0.93750,  -0.45765,   0.93721,  -0.88309,  -0.69343,  -0.57730,  -0.41556
  -0.93750,   0.88726,  -0.65578,   0.93750,  -0.88739,   0.12233,   0.88752,   0.64024,   0.46127,  -0.50380
   0.77716,   0.35256,  -0.44252,   0.77758,  -0.77580,   0.59082,   0.04619,   0.12337,   0.13171,   0.34869
  -0.07635,   0.29243,   0.03264,  -0.18376,  -0.68534,   0.72814,  -0.24461,   0.93750,  -0.47137,  -0.06593
   0.92276,   0.53753,   0.49898,   0.93750,   0.87341,  -0.93462,  -0.09468,  -0.12325,  -0.79066,   0.17043
   0.62853,  -0.06969,  -0.53349,   0.93750,   0.84758,  -0.88339,   0.06673,  -0.04867,  -0.88931,   0.63599
   0.79500,   0.93750,   0.04624,   0.06599,   0.54557,  -0.71340,  -0.56170,  -0.25969,   0.93457,  -0.22969
  -0.33677,  -0.49623,   0.54366,   0.18511,   0.49306,   0.32734,   0.93750,  -0.13238,  -0.28838,   0.42667
   0.93750,   0.24755,   0.90682,  -0.79035,   0.79951,   0.46467,   0.31575,  -0.10414,  -0.68472,  -0.09128
   0.53969,   0.35126,   0.00339,  -0.55952,   0.47661,  -0.57391,   0.27827,   0.32186,   0.40174,   0.47238
  -0.41470,   0.85714,  -0.67574,  -0.74967,   0.57384,  -0.72544,   0.41960,   0.57994,   0.32051,   0.48194
  -0.61649,   0.04037,  -0.02425,   0.85315,  -0.80139,   0.55812,   0.49793,   0.12366,   0.93750,   0.93750
  -0.92848,   0.93750,   0.51753,  -0.40884,   0.49570,   0.93750,  -0.76401,   0.56865,   0.93750,  -0.93750
   0.28141,  -0.21886,  -0.58374,  -0.35810,   0.75329,  -0.64241,   0.31167,  -0.20242,   0.37625,   0.32202
   0.93002,  -0.03091,   0.05286,  -0.26665,   0.93750,   0.87951,  -0.93750,   0.49462,   0.25534,   0.93750
  -0.78486,   0.08699,  -0.91402,   0.93750,  -0.15068,  -0.81310,   0.93750,  -0.87769,  -0.83750,  -0.93750
  -0.22950,  -0.59722,   0.11555,   0.30190,  -0.93750,  -0.74008,   0.40255,   0.93750,  -0.07674,  -0.36424
   0.93155,  -0.61168,   0.42622,  -0.01284,  -0.20834,  -0.66742,   0.73547,   0.12867,   0.93750,   0.93484
   0.17056,   0.87142,  -0.00094,  -0.41868,  -0.10536,  -0.18591,  -0.39170,   0.46307,   0.39678,  -0.68864
  -0.93750,   0.93750,  -0.74214,   0.34372,  -0.93750,   0.93750,  -0.87355,  -0.64550,   0.84455,  -0.67794
  -0.27376,   0.25783,  -0.73394,  -0.45517,   0.87333,   0.20152,  -0.67511,  -0.15445,   0.09952,   0.23274
  -0.61361,   0.42437,   0.93750,  -0.27405,   0.93750,  -0.67275,  -0.02571,   0.39372,  -0.02867,   0.49544
   0.72961,  -0.79657,  -0.43755,   0.61791,  -0.51281,   0.93750,  -0.93750,  -0.18851,  -0.88033,   0.15747
  -0.67842,   0.93750,   0.44749,  -0.86110,   0.44762,   0.06447,   0.75189,  -0.81594,  -0.93750,   0.93750
   0.90109,   0.06310,  -0.80736,   0.35870,  -0.56514,  -0.92219,   0.79204,  -0.81688,   0.67656,  -0.08322
  -0.86888,   0.02273,   0.74896,   0.48486,  -0.93750,   0.86961,  -0.20569,  -0.87226,   0.05642,  -0.07641
  -0.10239,  -0.28511,  -0.26811,  -0.49941,  -0.31208,   0.44008,  -0.16352,   0.71429,  -0.21087,   0.18186
   0.81246,   0.93750,  -0.93750,  -0.92223,  -0.77546,   0.63037,  -0.93750,  -0.32540,  -0.93750,   0.04413
  -0.93750,   0.47272,  -0.47456,  -0.92429,  -0.85577,  -0.21391,  -0.51798,   0.72681,   0.93750,   0.93750
  -0.80480,  -0.34274,   0.17573,  -0.87446,  -0.11816,   0.30367,  -0.02320,  -0.00603,   0.93750,  -0.17361
   0.93750,  -0.50713,   0.65068,  -0.49453,  -0.84875,  -0.68972,  -0.10232,  -0.24197,  -0.87940,  -0.05429
  -0.87401,   0.54591,  -0.88230,  -0.91974,  -0.34542,  -0.15370,  -0.69481,   0.93750,  -0.87364,   0.93750
   0.78465,   0.53989,   0.74656,   0.62843,  -0.25490,   0.78773,   0.45478,  -0.44730,   0.05770,  -0.59874
  -0.86994,   0.93750,   0.77566,  -0.35808,  -0.60587,   0.87234,   0.30323,  -0.53590,  -0.42911,  -0.93750
   0.33546,  -0.92781,  -0.06780,  -0.86631,  -0.25332,  -0.07766,   0.36200,  -0.02828,  -0.67740,   0.92721
   0.14400,  -0.16634,   0.13958,  -0.32523,   0.91861,   0.87417,  -0.31267,  -0.52004,   0.33468,  -0.30720
   0.28523,   0.14231,   0.65669,  -0.52463,   0.83197,  -0.82290,   0.40032,   0.93695,  -0.22885,  -0.07348
   0.11874,   0.75546,   0.55390,   0.48066,   0.10873,  -0.24024,  -0.24936,   0.21693,  -0.19452,  -0.75519
   0.06017,   0.26821,   0.68219,  -0.22457,  -0.26744,   0.78086,  -0.10632,   0.88156,   0.37356,   0.02190
   0.59178,  -0.08835,   0.42543,  -0.69947,   0.52225,  -0.06409,  -0.23444,  -0.52644,   0.39302,   0.53079
   0.69593,   0.66208,   0.93750,  -0.66768,  -0.51926,  -0.45174,   0.93750,  -0.93750,  -0.42340,  -0.40173
  -0.76105,  -0.73859,  -0.01848,  -0.47316,  -0.12579,  -0.14832,  -0.35842,   0.16610,   0.93750,   0.15424
   0.47277,  -0.68384,   0.87436,  -0.79980,   0.93750,  -0.86833,  -0.29144,   0.47143,  -0.46832,   0.93750
   0.93750,   0.37389,  -0.30349,   0.86177,   0.19261,   0.68986,  -0.25060,   0.26675,  -0.55269,  -0.81190
   0.14504,   0.93750,   0.93750,  -0.32652,   0.85248,  -0.81607,  -0.93750,  -0.28983,  -0.93750,   0.01427
   0.37172,   0.13135,  -0.55359,  -0.93643,   0.93750,   0.81821,  -0.14489,   0.58743,   0.72378,  -0.40741
   0.93750,  -0.87626,   0.14131,  -0.69962,  -0.93750,  -0.49668,  -0.12888,  -0.47875,  -0.87523,   0.61616
   0.75640,  -0.93750,   0.93356,   0.93750,   0.93750,  -0.93750,  -0.66242,   0.93750,   0.80258,   0.93750
  -0.59581,   0.70000,   0.88451,   0.01900,   0.29411,   0.93750,  -0.75885,  -0.80920,   0.40088,  -0.86981
   0.93017,   0.81138,  -0.31186,   0.15601,  -0.90241,  -0.51418,   0.93750,   0.74367,  -0.72494,  -0.62439
   0.26512,  -0.41516,  -0.56952,   0.30457,   0.06815,  -0.75900,   0.93750,   0.30991,  -0.31203,  -0.17253
   0.26513,   0.85923,  -0.38283,  -0.70197,  -0.37691,  -0.21697,   0.76728,   0.73698,  -0.33464,  -0.21641
   0.93750,  -0.88020,   0.83473,   0.46161,   0.93750,   0.82729,  -0.93750,  -0.51099,   0.33050,  -0.39203
   0.34014,  -0.50464,  -0.61606,   0.87745,   0.24504,   0.81920,   0.67668,  -0.82074,  -0.74435,   0.05669
  -0.40895,   0.33705,   0.08347,  -0.81244,  -0.44987,   0.54022,   0.87800,   0.53837,  -0.46741,  -0.07306
   0.64649,   0.69688,  -0.11796,  -0.48993,  -0.71659,   0.73716,   0.65275,   0.88141,  -0.93750,   0.19189
   0.42719,   0.93750,  -0.58126,   0.56623,   0.93750,  -0.86761,  -0.87781,  -0.49010,   0.40597,   0.93750
   0.35480,  -0.82154,   0.00128,   0.20058,  -0.93750,   0.73450,   0.12579,   0.72744,   0.60669,   0.25643
  -0.25324,  -0.15792,  -0.93750,   0.93750,   0.93750,   0.93750,  -0.83527,   0.09058,   0.24997,  -0.13433
   0.31401,   0.28371,   0.93750,  -0.10026,  -0.80108,  -0.22928,   0.12221,  -0.32697,  -0.08227,  -0.75096
   0.70096,  -0.93750,   0.33326,   0.28896,   0.90356,  -0.74150,  -0.74928,  -0.58329,  -0.15070,   0.25193
  -0.57236,  -0.00465,   0.43794,  -0.68889,  -0.87906,  -0.63039,   0.87049,  -0.63085,  -0.37278,  -0.74018
   0.93750,  -0.86577,  -0.41387,  -0.86422,   0.93750,  -0.75236,   0.87333,   0.87712,  -0.80726,  -0.71004
  -0.11260,   0.13964,   0.93527,  -0.51960,  -0.13919,   0.57307,   0.68099,  -0.52236,  -0.32718,  -0.16557
  -0.32937,   0.93750,  -0.27043,   0.70225,  -0.58536,  -0.80296,   0.93750,  -0.71742,  -0.74089,  -0.16038
   0.74404,   0.87752,  -0.41858,  -0.71818,   0.88127,   0.16815,   0.35414,   0.55890,  -0.45760,  -0.68955
  -0.93750,  -0.93750,   0.16831,   0.58546,  -0.87112,   0.66662,  -0.88117,   0.93750,  -0.25764,  -0.93750
   0.87686,  -0.78565,  -0.75856,   0.06185,   0.50417,  -0.56024,  -0.28745,   0.80201,   0.24127,   0.44897
   0.16429,   0.40389,  -0.85546,  -0.88781,  -0.29227,   0.26924,   0.93750,  -0.33820,  -0.06641,  -0.05342
   0.38412,   0.93750,   0.05180,  -0.79522,   0.93750,  -0.17793,  -0.87926,   0.93750,   0.42544,   0.63517
  -0.63924,   0.70347,  -0.46898,   0.41333,   0.67628,   0.63450,  -0.04566,   0.30907,   0.35108,  -0.13662
   0.70067,  -0.37458,   0.93750,  -0.26416,   0.31202,   0.40634,  -0.66876,  -0.87696,   0.30552,  -0.81192
  -0.18248,  -0.04421,   0.93750,   0.34791,  -0.93426,   0.23716,   0.10114,  -0.85568,  -0.72776,   0.11701
  -0.51933,  -0.87413,  -0.04376,  -0.37943,   0.93750,   0.86280,   0.93750,   0.93750,   0.35785,   0.87496
   0.81414,   0.08980,   0.66250,  -0.53008,  -0.70368,   0.51411,  -0.53138,   0.29591,   0.52361,  -0.68512
   0.43267,   0.73284,   0.70810,  -0.31805,   0.51929,   0.51340,   0.61378,  -0.93750,   0.88160,  -0.66657
   0.74989,   0.93683,   0.28120,  -0.45698,   0.01377,  -0.93750,  -0.25304,   0.19947,  -0.81725,  -0.29115
   0.01761,  -0.75897,  -0.46253,   0.93750,   0.22204,  -0.93295,   0.81293,  -0.32286,   0.21749,   0.14587
   0.50445,   0.79970,  -0.50455,  -0.35006,  -0.73631,   0.88591,  -0.14291,  -0.64110,   0.54213,  -0.25037
  -0.71716,   0.93750,   0.45292,  -0.60993,  -0.17287,  -0.57454,   0.61006,  -0.75599,   0.22721,  -0.74590
   0.86894,  -0.29370,  -0.88492,   0.43765,   0.41906,  -0.93750,  -0.21504,  -0.93750,   0.13777,  -0.93750
   0.85948,  -0.48037,  -0.66257,   0.15833,  -0.56540,  -0.36843,   0.73707,   0.75903,  -0.10143,  -0.08953
   0.08485,  -0.25469,  -0.04694,  -0.27439,   0.14568,   0.08599,   0.02654,   0.51562,   0.10127,  -0.13196
   0.71916,  -0.55275,  -0.80302,  -0.29082,  -0.12859,  -0.80202,   0.74801,  -0.93750,   0.70202,   0.13781
   0.93750,  -0.93750,   0.07058,  -0.93750,   0.24512,   0.93750,  -0.37465,  -0.87719,  -0.93750,  -0.64307
  -0.02708,  -0.29510,   0.93750,  -0.69170,  -0.54274,  -0.92758,  -0.81925,  -0.30153,   0.15544,  -0.16136
   0.28262,   0.93750,  -0.00347,  -0.81155,   0.40078,   0.24335,   0.25298,   0.67700,  -0.38305,  -0.74600
  -0.09192,  -0.58574,  -0.67797,   0.55992,   0.31696,   0.33702,   0.90994,   0.23617,   0.23735,  -0.12922
   0.86799,  -0.53114,  -0.87590,  -0.18035,   0.88763,   0.37381,   0.02953,   0.13398,  -0.71441,   0.15798
  -0.87848,  -0.23537,  -0.23080,  -0.67317,  -0.15179,   0.65076,   0.86441,  -0.44091,   0.93367,   0.64425
  -0.09351,   0.65315,   0.84577,  -0.60105,  -0.50263,  -0.55038,   0.15513,  -0.33724,   0.93750,  -0.31014
   0.93750,  -0.33124,  -0.74159,   0.47576,   0.01459,   0.73443,   0.93750,  -0.55310,  -0.25237,  -0.75287
   0.93750,   0.00951,  -0.92889,   0.93750,  -0.85952,  -0.93750,   0.40109,   0.93750,  -0.17408,  -0.18532
   0.09160,   0.66146,  -0.57157,  -0.52030,  -0.15145,   0.67920,   0.93750,   0.32735,   0.29685,  -0.05021
   0.51969,   0.42258,  -0.68636,   0.70453,   0.32645,  -0.87582,   0.08585,   0.36585,   0.82031,  -0.49846
  -0.72828,  -0.29169,  -0.82006,  -0.34525,   0.93750,  -0.54222,   0.73936,   0.54151,  -0.86360,   0.80744
   0.09786,  -0.87208,   0.04095,   0.54217,  -0.93750,   0.93750,  -0.87858,  -0.93750,  -0.93750,  -0.93750
  -0.31462,   0.80694,   0.24643,  -0.73321,   0.60908,   0.08058,   0.38004,  -0.68474,  -0.14632,  -0.62871
  -0.75187,   0.03257,  -0.88220,  -0.01449,  -0.16707,   0.75654,   0.34972,  -0.75250,   0.80919,   0.23707
  -0.38124,   0.28682,  -0.75438,  -0.33240,   0.93592,  -0.74979,  -0.27685,   0.87994,   0.11463,   0.23317
   0.10088,   0.36250,  -0.93652,   0.30051,   0.93750,  -0.53724,   0.50561,  -0.93557,   0.59321,   0.04074
   0.69672,   0.05832,  -0.53292,   0.93422,  -0.61542,   0.18537,   0.93750,  -0.48281,   0.46263,   0.40335
   0.10914,   0.33860,  -0.15391,   0.75280,   0.10519,  -0.32320,  -0.86386,  -0.36894,  -0.31298,  -0.03757
  -0.51818,   0.81144,  -0.79916,   0.75552,   0.74356,  -0.56152,   0.36815,   0.01263,  -0.14503,  -0.35254
  -0.00899,   0.88382,   0.66000,  -0.17750,   0.58270,  -0.88212,  -0.93750,  -0.62025,   0.82214,   0.87379
  -0.93750,  -0.78718,   0.15070,   0.55634,   0.01968,   0.77156,   0.93750,   0.87276,  -0.72632,  -0.79436
  -0.37486,  -0.17138,   0.10535,  -0.72112,  -0.93750,   0.80473,   0.43251,   0.93750,   0.09991,  -0.53032
   0.93750,   0.56908,  -0.93750,   0.93750,   0.93750,   0.12545,  -0.93750,  -0.86215,  -0.80885,   0.93750
  -0.63410,  -0.74491,   0.80928,   0.93750,  -0.93750,  -0.52286,  -0.93750,   0.51055,   0.77077,  -0.02802
   0.46236,   0.29397,  -0.80844,  -0.71711,  -0.93750,   0.93750,  -0.41376,  -0.60279,  -0.04561,   0.17298
  -0.93750,  -0.93750,  -0.02435,  -0.08046,   0.93750,  -0.93750,  -0.74200,   0.08483,  -0.84119,  -0.93750
   0.93750,  -0.68963,   0.81847,   0.92560,  -0.93612,   0.76116,   0.93750,  -0.86061,   0.72712,   0.33149
   0.67862,  -0.44872,   0.12032,   0.43065,  -0.37458,   0.51437,  -0.53126,   0.56191,  -0.34248,  -0.26075
   0.31874,   0.30576,   0.34601,  -0.71937,  -0.51120,   0.20700,   0.34579,   0.07287,   0.03904,   0.32084
  -0.53959,   0.67207,   0.93750,  -0.75707,   0.86582,   0.81992,  -0.38174,  -0.05010,  -0.16363,   0.27907
  -0.78932,  -0.68648,  -0.54878,   0.87321,   0.86500,  -0.42232,  -0.61919,  -0.76732,   0.22433,   0.85129
  -0.24832,   0.37344,  -0.79932,  -0.93750,   0.93750,   0.93750,  -0.09652,  -0.74611,   0.23947,   0.10355
   0.81711,   0.77295,   0.93750,  -0.83394,   0.79479,   0.43409,   0.62695,  -0.03108,  -0.87425,  -0.93750
   0.93750,   0.23932,   0.74250,  -0.92337,   0.93750,   0.47303,   0.93750,   0.24809,   0.60475,   0.93750
  -0.23780,   0.81776,   0.93750,  -0.20052,   0.50187,  -0.67191,  -0.59429,  -0.19808,  -0.61889,  -0.53070
  -0.54873,   0.18076,  -0.07289,   0.06643,   0.88478,  -0.18898,  -0.16629,   0.32898,   0.60558,   0.20089
   0.30583,   0.75815,   0.90367,  -0.81097,  -0.72293,   0.93750,  -0.48910,   0.85178,  -0.07945,   0.21674
  -0.24605,   0.00158,   0.88251,  -0.93750,  -0.93750,   0.38339,  -0.87984,  -0.93750,   0.93750,   0.93750
   0.86368,  -0.41195,  -0.22368,   0.93750,  -0.48950,  -0.93750,  -0.19856,   0.81914,   0.49080,  -0.19533
  -0.07009,   0.93750,  -0.56829,  -0.27471,   0.87955,  -0.93750,  -0.86264,  -0.93750,  -0.83700,   0.93750
   0.02263,  -0.63207,  -0.67133,   0.62755,   0.85066,   0.93306,  -0.89740,   0.65844,   0.53498,  -0.30445
   0.04342,   0.81847,  -0.22242,   0.63959,   0.26034,   0.51936,   0.47142,  -0.39921,   0.63359,  -0.49066
   0.93750,  -0.80464,   0.93750,   0.19837,  -0.87765,  -0.34528,  -0.81040,  -0.00375,  -0.93750,  -0.93750
  -0.81466,  -0.87128,  -0.32438,   0.34742,  -0.52396,  -0.46593,  -0.08303,   0.87938,   0.70729,  -0.11512
  -0.50890,  -0.36765,  -0.54917,  -0.60962,   0.04673,   0.73003,  -0.54672,  -0.20213,  -0.19782,   0.01936
  -0.93750,  -0.42506,  -0.37625,   0.87799,  -0.61944,  -0.87667,  -0.49109,   0.25087,   0.28888,  -0.48029
   0.03338,  -0.93750,   0.93750,  -0.93057,  -0.93750,  -0.47893,   0.93750,  -0.93750,  -0.90034,   0.64039
  -0.86895,  -0.64385,   0.93750,  -0.86938,  -0.89206,   0.39517,   0.18869,   0.93750,  -0.65368,   0.93750
  -0.82627,   0.13181,  -0.04351,  -0.75718,   0.86605,  -0.78217,  -0.29854,   0.93750,   0.04732,   0.47044
   0.19050,   0.86962,  -0.67764,  -0.87962,   0.70841,   0.93750,  -0.20737,  -0.05828,  -0.20615,  -0.54275
   0.37025,   0.72454,   0.32874,   0.93750,   0.05312,  -0.02052,   0.93750,  -0.18843,   0.81232,  -0.26910
  -0.06383,   0.05668,  -0.57253,  -0.56961,  -0.30030,   0.39384,   0.77741,   0.41292,   0.38013,   0.04958
  -0.48241,  -0.62266,  -0.88058,  -0.11630,   0.93750,   0.56443,  -0.87830,  -0.44118,   0.31197,  -0.31814
  -0.12300,  -0.26129,   0.02089,  -0.35335,   0.20396,   0.87828,   0.92456,  -0.35027,   0.17692,  -0.15352
  -0.93750,  -0.26506,   0.10012,  -0.69692,   0.93750,  -0.87910,   0.09824,  -0.93750,  -0.05820,   0.79610
   0.88656,   0.30927,  -0.15584,  -0.24433,  -0.27236,  -0.17442,  -0.21358,   0.47579,   0.55029,   0.05323
  -0.11234,   0.47377,   0.14457,  -0.75397,   0.23931,   0.59052,  -0.37848,   0.18820,   0.39853,   0.11984
  -0.40301,  -0.93750,  -0.93750,  -0.86214,  -0.93750,   0.93750,   0.74323,  -0.93750,   0.24702,  -0.93750
  -0.74894,  -0.57424,   0.41856,   0.71522,  -0.80872,   0.93750,  -0.74194,  -0.35670,  -0.37020,   0.49513
   0.93750,  -0.15138,  -0.93750,  -0.49114,   0.51554,   0.24502,  -0.87559,   0.81026,   0.86716,   0.87110
  -0.51117,  -0.31218,  -0.46810,  -0.75743,  -0.50683,   0.88507,  -0.56785,   0.68379,   0.08369,   0.67214
   0.26815,  -0.90325,   0.93750,  -0.53973,  -0.04978,  -0.69528,  -0.07483,   0.86636,  -0.10013,   0.43637
   0.23338,  -0.88575,  -0.87510,  -0.32590,   0.93750,   0.15817,  -0.25645,  -0.47302,  -0.35656,   0.92180
  -0.91142,   0.93750,  -0.75434,  -0.93750,  -0.49916,  -0.90568,  -0.49680,  -0.14699,  -0.93750,   0.93750
   0.77306,   0.26207,  -0.75423,   0.48352,  -0.69128,   0.20864,  -0.80767,   0.20859,  -0.15387,   0.00309
  -0.50776,   0.29320,   0.06071,   0.74799,   0.00044,  -0.53019,  -0.29580,  -0.35662,  -0.07221,  -0.03961
  -0.72591,   0.80373,   0.78777,   0.47567,  -0.47365,   0.61099,   0.30017,   0.93562,  -0.42611,   0.56425
   0.24170,  -0.08062,  -0.61705,   0.86774,   0.20141,  -0.49123,   0.19603,   0.59766,   0.60713,  -0.38101
  -0.69385,   0.14703,   0.15336,  -0.93750,  -0.51599,   0.93750,  -0.18182,   0.19480,  -0.48594,  -0.62368
  -0.36795,   0.08320,  -0.74334,   0.81713,  -0.27358,  -0.75387,  -0.93526,   0.11075,   0.79554,  -0.13567
  -0.11847,  -0.63349,   0.66026,   0.09047,   0.93750,  -0.48826,   0.75793,  -0.29591,  -0.79958,   0.93750
   0.21575,   0.05731,  -0.93750,  -0.75317,   0.10075,   0.44390,  -0.86196,   0.53179,  -0.56173,   0.45465
   0.76905,   0.93750,  -0.83758,   0.15693,   0.85618,   0.23516,  -0.36196,  -0.23969,   0.76553,  -0.87261
   0.66426,   0.21881,  -0.21821,  -0.78225,   0.33432,   0.36270,   0.69078,   0.28888,  -0.05125,  -0.19573
  -0.23601,  -0.36220,   0.05452,   0.93750,   0.74530,  -0.38578,   0.19387,  -0.02965,  -0.13861,   0.08324
   0.87526,  -0.29522,  -0.20524,   0.93750,  -0.93750,  -0.86946,   0.72242,  -0.76291,  -0.33661,  -0.15575
  -0.09741,   0.53007,  -0.67540,  -0.82635,  -0.22078,   0.93750,   0.19912,  -0.49279,   0.80885,   0.50845
  -0.73770,  -0.81927,  -0.64180,   0.91824,  -0.84106,   0.85681,  -0.74507,  -0.70046,   0.38659,  -0.62346
  -0.62873,   0.75609,  -0.93750,   0.50936,   0.00997,  -0.74227,  -0.25349,   0.29370,   0.62559,   0.68176
   0.31881,  -0.93750,  -0.88028,   0.93750,   0.36704,   0.93750,  -0.93750,  -0.43069,  -0.68393,   0.55812
   0.44595,  -0.87588,   0.93750,  -0.53213,   0.10867,  -0.57016,   0.42479,   0.63339,   0.67841,  -0.81529
   0.21973,  -0.14580,  -0.12099,  -0.92882,  -0.74280,   0.93750,   0.31421,  -0.93750,  -0.51157,   0.43164
   0.00052,  -0.38711,   0.34557,  -0.21724,  -0.10346,  -0.40660,   0.08577,   0.03038,  -0.24558,   0.93750
  -0.33510,  -0.82774,   0.65885,   0.93750,  -0.87928,  -0.40645,  -0.62205,   0.93750,   0.07973,  -0.86921
  -0.42911,   0.18819,  -0.77698,  -0.41693,   0.81734,  -0.82536,   0.81176,   0.32465,   0.27394,   0.54795
   0.08947,  -0.09059,  -0.38939,  -0.29642,   0.52928,  -0.75573,   0.93750,   0.13208,   0.86940,   0.43704
  -0.93750,  -0.17481,   0.58792,   0.43105,   0.37204,   0.55390,   0.06631,  -0.44287,   0.93750,   0.00227
  -0.31584,  -0.09203,   0.87677,  -0.43874,   0.41515,   0.20090,  -0.72036,   0.47384,   0.15071,  -0.01583
  -0.87687,  -0.46615,   0.08887,   0.93750,   0.18811,  -0.86236,   0.93125,   0.64946,  -0.19944,  -0.34740
   0.93750,  -0.76761,  -0.93750,  -0.44834,  -0.56667,  -0.81524,  -0.20909,   0.01648,   0.88466,  -0.79808
  -0.28055,   0.05220,  -0.38654,  -0.60522,   0.11416,   0.76885,   0.10427,  -0.81425,   0.16134,  -0.03153
  -0.44132,   0.42027,   0.62646,   0.74783,  -0.18987,  -0.78825,  -0.12355,  -0.12222,  -0.17128,  -0.54447
  -0.07063,   0.90936,  -0.93750,  -0.87585,   0.52872,   0.23949,   0.93750,  -0.93750,  -0.68698,   0.66659
   0.27977,  -0.92651,  -0.23343,  -0.42508,   0.87317,   0.93750,   0.10942,  -0.39890,   0.52920,   0.67816
  -0.70409,  -0.08993,  -0.31711,  -0.27153,   0.81687,   0.47371,   0.17992,   0.07462,   0.93750,   0.01108
   0.93750,  -0.59684,   0.93750,  -0.87095,  -0.27506,  -0.56829,  -0.63058,  -0.64320,  -0.86244,   0.87505
  -0.22480,   0.08110,  -0.52735,   0.10874,   0.86612,   0.54684,  -0.32956,  -0.66578,  -0.15178,   0.43009
   0.93750,   0.71390,  -0.55354,   0.93750,  -0.93750,   0.31913,  -0.88218,  -0.28921,  -0.82167,  -0.07001
   0.62157,  -0.93750,  -0.74788,   0.88093,  -0.11936,  -0.83334,   0.00886,   0.93750,   0.03774,   0.67404
   0.79158,   0.62667,   0.87204,   0.71361,   0.67943,   0.86401,  -0.93750,   0.38919,  -0.19446,   0.64953
  -0.93750,   0.86221,   0.93750,   0.93750,   0.58012,   0.22423,  -0.60396,  -0.71004,   0.93750,  -0.31187
   0.51565,  -0.92413,   0.93625,  -0.68636,   0.87164,  -0.31068,   0.34337,   0.72346,   0.24646,  -0.11717
  -0.18329,  -0.02275,   0.87606,  -0.80465,   0.88437,  -0.64159,  -0.57408,   0.45359,  -0.43841,   0.46871
  -0.72361,   0.93750,  -0.93750,   0.73766,   0.93750,  -0.93750,  -0.79819,   0.48179,  -0.87277,   0.87007
   0.54130,   0.11114,  -0.50285,  -0.26108,  -0.35431,  -0.24721,  -0.27015,   0.93750,   0.27969,   0.32839
   0.93750,   0.83690,  -0.93750,  -0.82957,  -0.70319,  -0.63098,  -0.36918,  -0.25075,  -0.85473,   0.23946
  -0.93750,   0.48300,  -0.67384,   0.00927,   0.93750,   0.77800,  -0.47824,  -0.86752,  -0.74405,   0.86837
  -0.47767,   0.18505,  -0.14129,   0.17406,   0.02914,   0.24984,   0.41130,   0.32590,  -0.48367,   0.74223
  -0.25929,  -0.51998,   0.93750,  -0.00271,   0.88815,  -0.87805,  -0.38364,  -0.06668,  -0.04466,  -0.01196
   0.09093,   0.11529,   0.22688,   0.91087,  -0.91026,   0.49633,   0.50771,  -0.58142,  -0.13076,  -0.77153
  -0.09221,  -0.67974,   0.47742,   0.41684,   0.07167,  -0.39773,   0.13973,  -0.93750,   0.38685,  -0.88366
  -0.36286,  -0.04489,  -0.49716,  -0.27671,  -0.10792,   0.88027,  -0.30458,   0.03014,  -0.27318,   0.58209
  -0.57589,  -0.46126,  -0.92488,  -0.87997,  -0.81850,   0.93741,  -0.82270,   0.93750,  -0.25013,   0.15594
   0.93750,  -0.50802,  -0.85202,  -0.93750,   0.30272,   0.07459,  -0.36998,   0.37270,  -0.52129,   0.11883
  -0.87637,  -0.93750,   0.06984,   0.07716,   0.76779,  -0.84939,  -0.87222,   0.67326,   0.04962,   0.50154
  -0.88278,  -0.08604,   0.12170,  -0.87850,   0.60071,  -0.82208,  -0.51071,  -0.71093,   0.10305,   0.82732
   0.84412,   0.15341,  -0.00168,  -0.49592,   0.11789,   0.28324,   0.50408,  -0.55797,  -0.32991,   0.39233
  -0.93750,   0.93750,   0.33281,  -0.24969,   0.59145,  -0.93750,  -0.83865,  -0.93750,  -0.93750,  -0.72645
   0.25268,   0.39136,   0.81942,   0.68411,  -0.82277,  -0.87274,  -0.52341,   0.16666,  -0.20472,  -0.20127
   0.04565,   0.12734,  -0.15480,  -0.34643,  -0.05572,   0.48405,  -0.11990,   0.15792,   0.18701,  -0.22839
  -0.30338,   0.13733,  -0.74151,  -0.23902,  -0.20465,  -0.45876,  -0.16234,  -0.08041,   0.18685,   0.93750
  -0.93750,   0.28336,  -0.93750,  -0.67935,  -0.74708,   0.87937,   0.36268,   0.10398,   0.82373,  -0.30777
  -0.03968,   0.58144,   0.80833,  -0.71203,  -0.91618,   0.93750,   0.51770,  -0.84623,  -0.73985,   0.49307
   0.89351,  -0.00092,  -0.38103,   0.75793,   0.83252,  -0.93750,  -0.93750,   0.11836,   0.87051,   0.05974
  -0.02675,   0.54322,   0.87051,  -0.41208,  -0.11668,   0.87643,   0.10542,   0.05019,  -0.26620,  -0.70233
   0.81343,   0.23610,   0.93750,  -0.92627,  -0.93007,   0.23965,   0.19598,  -0.26346,  -0.93750,  -0.25299
