  -0.24941,  -0.71642,   0.68480,  -0.63268,   0.92355,   0.61963,  -0.44406,   0.10083,  -0.76355,  -0.59036,  -0.07039,  -0.14106,  -0.53347,  -0.38143,   0.50419,  -0.11433,   0.80786,   0.48739,  -0.03210,  -0.63433,   0.83608,   0.57800,   0.20282,  -0.40771,  -0.05510,  -0.59181,   0.04606,  -0.47648,  -0.17623,  -0.04355,   0.74732,  -0.44546,  -0.74503,   0.43662,  -0.48819,   0.21751,   0.75617,   0.36830,  -0.42617,  -0.33768,   0.66564,   0.60257,  -0.67200,  -0.51871,  -0.79457,   0.92396,   0.92317,   0.57949,  -0.00933,  -0.60855,   0.71743,   0.03995,   0.23071,   0.29228,  -0.21388,   0.66301,  -0.82119,   0.54817,  -0.27083,  -0.60407,   0.83303,   0.45369,  -0.38331,   0.78181,  -0.46058,   0.42356,   0.93750,   0.79849,  -0.59937,   0.28440,   0.35158,   0.20235,  -0.76201,   0.14170,   0.00916,   0.45290,   0.35982,  -0.62658,  -0.23990,   0.05899,  -0.37737,   0.73543,  -0.53339,  -0.44057,  -0.49392,  -0.41295,   0.21312,  -0.03337,   0.81966,  -0.28465,   0.02185,  -0.44371,  -0.52184,   0.08545,  -0.80767,   0.57950,   0.43207,   0.07360,  -0.12098,   0.87368,  -0.13144,   0.76263,  -0.66639,  -0.20626,   0.49443,  -0.53311,  -0.53557,  -0.35574,   0.25804,  -0.83987,  -0.38158,  -0.82397,  -0.48351,  -0.61950,  -0.52124,  -0.51878,   0.88340,   0.37908,  -0.48847,  -0.26491,   0.41369,   0.82167,  -0.71349,  -0.11978,  -0.61451,   0.15727,   0.90615,   0.78964
  -0.10165,  -0.47299,  -0.67850,  -0.42959,  -0.41849,   0.23129,  -0.26447,  -0.72563,   0.45272,  -0.57950,  -0.20473,  -0.50685,   0.25487,  -0.62833,  -0.38046,  -0.26829,   0.57098,  -0.29665,  -0.43294,   0.93750,  -0.25823,   0.48486,  -0.24306,  -0.70914,  -0.58687,   0.42963,   0.21834,  -0.09101,  -0.66820,   0.56797,  -0.26699,   0.57449,   0.62042,  -0.03868,  -0.04857,   0.70141,   0.32484,  -0.34122,  -0.05764,  -0.17180,   0.70614,   0.25038,   0.72822,   0.54912,  -0.64201,  -0.61248,   0.86486,  -0.20458,   0.39141,   0.93750,   0.67730,  -0.51235,   0.08934,  -0.03512,  -0.49697,   0.30866,   0.93750,  -0.48110,   0.38064,  -0.18969,   0.79638,  -0.14747,  -0.48131,   0.37393,  -0.52082,   0.43245,   0.69313,   0.07323,  -0.59237,  -0.22759,  -0.13249,  -0.60646,   0.53069,  -0.55583,  -0.14653,   0.83028,  -0.22259,  -0.45006,  -0.42764,   0.01570,  -0.54148,  -0.02384,   0.28184,  -0.37454,   0.13134,  -0.17590,  -0.50491,   0.46018,  -0.43427,   0.08395,   0.87672,   0.82791,  -0.02463,   0.59317,  -0.58082,  -0.32862,  -0.38041,   0.44429,  -0.45156,  -0.36408,   0.45517,  -0.00286,  -0.40003,  -0.56239,   0.33559,   0.33648,   0.23130,   0.15226,   0.93685,  -0.18347,   0.66836,  -0.88566,   0.62458,   0.34697,  -0.04874,  -0.53012,  -0.14441,  -0.59081,  -0.24645,   0.85281,   0.38163,  -0.72035,  -0.21677,   0.06319,   0.44478,   0.16946,   0.92237,   0.17259
   0.02053,  -0.68551,   0.63519,   0.72412,   0.02641,  -0.34347,  -0.41382,   0.01345,  -0.39690,  -0.27722,  -0.31481,   0.87406,   0.68556,  -0.51223,   0.45236,   0.35447,   0.74542,   0.34421,   0.86982,  -0.79957,   0.38814,  -0.18765,  -0.40950,  -0.08024,   0.83880,   0.81137,  -0.07792,   0.75127,  -0.58867,  -0.03576,   0.78694,  -0.28324,   0.61443,  -0.60878,   0.42630,   0.11976,  -0.51232,   0.74146,  -0.50127,  -0.09337,  -0.40744,   0.40351,  -0.51086,   0.34827,   0.58258,  -0.24013,   0.10994,  -0.33440,   0.56337,   0.53891,   0.03519,   0.35809,  -0.11670,   0.54688,  -0.52443,   0.81175,   0.33341,  -0.15367,   0.87836,  -0.43102,  -0.08390,   0.06522,   0.03365,  -0.28695,  -0.51114,  -0.54652,  -0.55756,  -0.05459,  -0.50026,   0.20174,   0.91564,  -0.51084,   0.48063,  -0.71070,   0.55691,  -0.29216,  -0.59157,  -0.08885,   0.66657,  -0.62497,   0.18973,  -0.01107,   0.66141,  -0.26210,   0.13077,  -0.40468,  -0.61948,   0.87309,  -0.30343,   0.42173,   0.50981,  -0.72127,  -0.59623,   0.37307,  -0.29684,   0.70438,   0.24527,   0.40171,  -0.84155,   0.75199,   0.21394,   0.89961,   0.40277,  -0.52443,  -0.16345,  -0.44173,  -0.11677,   0.65578,   0.30525,  -0.80522,  -0.45232,   0.22972,  -0.74724,  -0.74954,   0.07767,  -0.58502,   0.73264,   0.86057,   0.66051,   0.69996,  -0.83818,  -0.76345,   0.24032,   0.60661,  -0.51297,   0.81631,  -0.06829,  -0.29503
  -0.19043,  -0.34626,  -0.05010,   0.40685,  -0.68784,  -0.48144,   0.69239,  -0.57135,  -0.12582,   0.04968,  -0.48846,   0.43653,   0.71601,   0.13189,  -0.63492,   0.45417,  -0.58966,   0.33306,  -0.41996,  -0.71237,  -0.35968,  -0.75176,  -0.39146,  -0.53128,  -0.66255,  -0.45186,  -0.19099,   0.87222,  -0.39797,  -0.17511,   0.72741,  -0.73904,   0.20644,   0.16670,  -0.66448,   0.45675,   0.74099,  -0.45105,  -0.63897,   0.34299,  -0.16324,  -0.02353,  -0.63059,  -0.46361,  -0.33136,   0.10224,   0.86403,   0.65017,  -0.50339,  -0.50039,  -0.77789,  -0.60028,   0.75393,   0.14124,   0.18808,  -0.75420,  -0.36816,   0.52637,  -0.60090,   0.16615,   0.81529,   0.55249,  -0.18573,   0.49786,   0.44433,   0.20150,   0.08195,  -0.65609,  -0.40010,   0.37865,   0.37382,   0.32648,   0.87762,  -0.80260,   0.18437,   0.74048,   0.61450,   0.56488,   0.17732,  -0.17494,  -0.06615,   0.07892,  -0.52447,  -0.53045,   0.87245,  -0.38239,   0.61634,   0.16594,  -0.16529,  -0.04446,  -0.49357,  -0.71821,  -0.66747,  -0.66397,   0.73757,  -0.40457,  -0.43024,   0.87299,  -0.64904,   0.19464,   0.64371,  -0.58408,   0.53714,  -0.57680,   0.12512,  -0.04307,  -0.44471,  -0.36037,  -0.87041,  -0.79842,   0.69001,   0.63004,  -0.26372,  -0.28229,   0.57259,   0.71618,   0.22596,   0.47083,  -0.62619,   0.51674,   0.45625,   0.79669,   0.43629,   0.16532,   0.77451,  -0.30231,   0.52997,   0.10999
  -0.73021,  -0.41481,   0.65189,   0.32078,   0.09996,  -0.63986,  -0.19835,   0.78549,  -0.37514,   0.08019,   0.21891,   0.78844,  -0.40221,  -0.09239,  -0.52165,  -0.30103,  -0.48830,  -0.22450,   0.50917,  -0.51009,  -0.73328,   0.14125,  -0.44231,   0.11420,   0.79493,   0.46754,  -0.58075,  -0.57644,  -0.47046,  -0.25908,   0.72948,   0.55929,   0.62276,  -0.04952,   0.31819,  -0.34663,  -0.19263,  -0.60660,   0.06304,  -0.70938,   0.69643,   0.08462,  -0.66228,  -0.50013,  -0.51778,   0.80985,   0.82721,  -0.57868,  -0.06775,   0.51944,  -0.48962,   0.93750,  -0.42833,   0.52276,  -0.10592,  -0.47275,  -0.55331,  -0.11993,  -0.59361,  -0.45506,  -0.61646,   0.31267,  -0.60655,   0.38362,  -0.47857,  -0.15874,   0.81848,  -0.49771,  -0.72291,  -0.48120,  -0.40723,   0.20586,  -0.07542,  -0.40543,   0.52412,  -0.08186,   0.80202,  -0.54175,   0.62407,  -0.02766,  -0.57829,   0.19348,  -0.63126,  -0.39919,  -0.63516,   0.73465,   0.65506,   0.42659,  -0.55354,   0.44446,  -0.59614,   0.90244,   0.86570,  -0.54024,  -0.36457,  -0.77512,   0.40443,   0.87274,  -0.50593,  -0.52880,   0.84652,   0.34712,   0.34307,  -0.37039,  -0.30158,  -0.26297,   0.26688,  -0.26648,  -0.27466,   0.35993,  -0.73316,   0.48859,   0.44411,  -0.61371,  -0.18626,   0.40604,   0.07591,  -0.18050,   0.76554,   0.58985,  -0.80529,  -0.43197,   0.05008,  -0.20210,   0.27950,   0.03104,   0.15828,  -0.41734
   0.03025,   0.40565,  -0.89643,  -0.21125,  -0.61590,  -0.25403,   0.27511,  -0.50388,   0.51346,  -0.21853,  -0.39985,   0.57826,  -0.46431,  -0.50614,  -0.25598,  -0.38892,  -0.03516,   0.17846,  -0.19161,   0.77416,   0.71752,  -0.70193,  -0.02517,  -0.63496,   0.44782,   0.75222,  -0.01787,   0.10766,  -0.36601,  -0.10060,   0.14856,  -0.62519,  -0.55769,   0.38846,  -0.30638,  -0.33660,   0.74631,   0.82581,  -0.57272,  -0.16078,   0.30304,   0.07233,   0.29978,   0.75304,   0.47034,   0.93750,  -0.37329,  -0.50958,   0.26701,  -0.72533,   0.27459,   0.24372,  -0.58572,   0.19801,  -0.11150,  -0.63702,  -0.30358,  -0.15411,   0.22779,  -0.28109,  -0.66498,   0.84844,   0.27278,   0.84985,  -0.54013,  -0.07683,   0.88385,   0.85639,  -0.37388,   0.38913,   0.52554,  -0.25409,   0.45059,  -0.57413,  -0.59803,  -0.42216,  -0.54159,  -0.34070,   0.45682,  -0.47949,  -0.13057,  -0.09424,   0.92618,  -0.14639,  -0.36263,   0.12393,  -0.60630,   0.82274,  -0.54676,   0.30630,   0.39887,   0.72984,   0.63502,  -0.21992,  -0.12371,   0.34752,  -0.24969,  -0.59718,   0.78443,   0.71573,  -0.43297,  -0.37626,  -0.31961,   0.74043,  -0.31029,  -0.40806,  -0.38901,  -0.34148,   0.32385,   0.67217,  -0.66218,   0.75679,   0.21361,   0.38164,  -0.35855,  -0.21907,  -0.53929,  -0.52010,  -0.75360,   0.87847,   0.07466,  -0.41969,   0.80959,   0.20077,  -0.32905,   0.75984,   0.08278,  -0.14516
  -0.48036,  -0.72755,  -0.71211,   0.50926,  -0.47000,  -0.51023,   0.86035,  -0.45540,  -0.73803,  -0.47664,  -0.12676,  -0.02665,   0.72958,  -0.49930,  -0.26498,  -0.30498,   0.41773,  -0.36902,  -0.35221,   0.46365,  -0.66982,  -0.62165,  -0.12225,  -0.00973,  -0.62672,   0.22111,   0.66787,   0.03226,  -0.51844,   0.19619,   0.83571,  -0.64333,  -0.50651,   0.43915,   0.69507,   0.77248,   0.69229,  -0.36071,  -0.07935,   0.85406,  -0.22044,   0.39904,   0.07607,   0.68426,   0.19083,   0.39764,  -0.34062,   0.45428,  -0.46868,  -0.81199,  -0.58788,  -0.58287,   0.47553,   0.65992,   0.23128,  -0.62216,   0.46424,   0.19420,   0.70228,   0.01063,  -0.37355,   0.86607,  -0.61597,   0.54168,  -0.42035,   0.81083,   0.23585,   0.39184,   0.74410,  -0.85069,  -0.50657,  -0.34271,  -0.80195,  -0.66940,   0.11854,  -0.02663,  -0.65224,   0.47952,   0.58212,  -0.38949,   0.74687,  -0.47776,  -0.39275,  -0.49343,   0.20258,  -0.46560,  -0.34750,   0.32467,  -0.27491,   0.30775,  -0.54062,  -0.77293,   0.69854,   0.45266,  -0.82862,  -0.51887,  -0.48001,   0.84019,   0.88377,   0.61293,   0.93627,  -0.78861,  -0.68343,  -0.83015,   0.84447,  -0.43703,   0.15112,   0.17488,   0.04203,   0.56937,  -0.66336,   0.45492,   0.61214,  -0.27779,  -0.65103,  -0.33431,  -0.58684,  -0.18136,  -0.23499,   0.68908,  -0.14533,  -0.23922,  -0.62643,   0.14942,  -0.30036,  -0.28936,  -0.11248,  -0.21007
   0.29787,  -0.80095,  -0.52112,   0.19894,  -0.30030,  -0.43908,   0.91093,   0.93750,   0.42925,   0.49111,  -0.44723,  -0.38436,  -0.21246,  -0.76617,   0.45035,   0.01794,   0.19763,  -0.47757,   0.61008,   0.80247,   0.55699,  -0.70725,  -0.46154,   0.40466,   0.87517,  -0.49024,  -0.20311,   0.35717,  -0.10491,  -0.19273,  -0.29469,  -0.02030,   0.07378,  -0.13791,  -0.25869,   0.86903,  -0.51511,   0.07706,  -0.46230,  -0.71730,   0.56778,  -0.36098,  -0.33552,  -0.23853,   0.02946,  -0.52454,  -0.60188,  -0.34473,   0.59491,   0.86354,  -0.81830,   0.12117,   0.43207,  -0.44393,  -0.03814,   0.60493,  -0.63474,   0.15287,   0.73663,  -0.28842,  -0.09701,  -0.13234,   0.49617,  -0.40359,  -0.41771,   0.45204,   0.61550,   0.68928,   0.69861,  -0.35248,   0.20065,   0.20674,   0.53516,  -0.63748,  -0.49117,  -0.66581,   0.24221,  -0.44699,  -0.60372,  -0.40026,   0.87149,  -0.61443,  -0.38834,  -0.41298,  -0.66387,  -0.23534,   0.29509,   0.54901,  -0.43424,   0.05947,  -0.24174,  -0.40859,   0.87981,   0.46293,   0.71438,  -0.26733,  -0.61081,  -0.54491,  -0.33233,   0.79510,  -0.56349,  -0.44290,   0.39590,  -0.42919,  -0.57616,  -0.60766,  -0.07381,  -0.03692,  -0.32778,   0.70535,  -0.20360,   0.93412,   0.26592,  -0.25768,  -0.47330,   0.06496,  -0.59107,   0.69727,  -0.30533,   0.62967,  -0.43116,   0.58026,   0.12592,  -0.11225,   0.00380,  -0.24177,  -0.41680,  -0.19607
  -0.51804,  -0.56009,  -0.67524,   0.69807,  -0.65500,  -0.60361,   0.92261,   0.82042,  -0.19178,   0.34386,  -0.04876,   0.61162,  -0.46596,   0.58343,  -0.10987,   0.25235,   0.21991,  -0.03471,   0.29227,  -0.10167,   0.08951,  -0.75945,  -0.36034,   0.78025,  -0.64301,  -0.41499,  -0.80814,   0.76922,  -0.49372,  -0.31894,  -0.24552,  -0.62922,  -0.59903,   0.01123,  -0.28119,   0.81607,  -0.67035,   0.11906,  -0.49535,  -0.68405,  -0.45705,   0.02881,  -0.65439,   0.40456,  -0.66760,  -0.32522,  -0.15880,   0.54990,   0.25428,  -0.82151,   0.71349,  -0.61846,  -0.54306,   0.81673,   0.02141,   0.00994,   0.71086,  -0.03291,   0.64253,  -0.24882,  -0.60395,   0.70626,   0.55076,   0.34445,   0.11287,   0.77208,  -0.49655,   0.15211,   0.89477,  -0.17027,  -0.20924,  -0.68584,   0.54335,   0.19447,  -0.32508,  -0.56439,  -0.03467,   0.76928,  -0.19563,   0.12932,   0.92885,  -0.73510,   0.13116,  -0.61402,   0.86870,   0.00847,   0.33782,   0.67270,  -0.49439,   0.51162,   0.17324,  -0.01419,   0.59647,   0.50908,  -0.27622,  -0.51654,   0.08572,  -0.47950,  -0.28444,   0.89721,  -0.11605,  -0.43006,   0.53098,  -0.24508,   0.17765,  -0.59684,   0.61318,   0.63192,   0.57003,  -0.29233,  -0.34924,  -0.77705,   0.14568,  -0.49707,  -0.44458,  -0.46130,   0.31950,  -0.09304,  -0.07604,  -0.02694,  -0.43884,  -0.50560,   0.62287,  -0.03704,   0.19389,   0.35318,   0.34029,  -0.35501
   0.75676,   0.29642,  -0.66858,  -0.26309,   0.10604,  -0.20277,   0.40758,  -0.54115,   0.73507,   0.30554,  -0.77861,  -0.21301,  -0.54557,   0.54429,  -0.21509,   0.56027,   0.57895,  -0.02941,  -0.52083,   0.70839,  -0.07759,   0.57185,  -0.11038,  -0.44831,  -0.13550,  -0.05182,   0.14550,  -0.51936,  -0.19553,  -0.21285,  -0.72881,   0.60153,  -0.49980,   0.70352,   0.14954,  -0.29530,   0.61833,  -0.60653,   0.76241,  -0.17654,   0.77418,   0.65472,   0.68385,   0.47070,  -0.59596,   0.03315,  -0.63413,   0.84616,   0.40436,   0.61518,   0.87019,   0.53823,  -0.47176,  -0.16828,   0.69629,   0.73545,  -0.59597,   0.89765,  -0.68843,  -0.69614,  -0.72998,  -0.22274,   0.71568,  -0.30236,   0.06146,  -0.52882,   0.40900,  -0.64104,   0.26096,   0.86681,  -0.32471,   0.40176,   0.35307,  -0.13303,   0.16510,   0.01068,   0.86283,  -0.63230,  -0.71417,   0.04537,  -0.20593,   0.80820,   0.59827,   0.70966,  -0.68268,  -0.46162,  -0.41022,   0.92861,   0.82057,  -0.41957,   0.23305,   0.46492,  -0.33196,   0.32147,  -0.10255,   0.33083,  -0.25530,  -0.55281,   0.02523,  -0.26745,  -0.49715,   0.58370,   0.76021,  -0.09570,  -0.37597,   0.57575,   0.33558,  -0.01749,   0.14114,  -0.81200,   0.16260,  -0.92959,   0.62233,  -0.47214,  -0.59038,   0.34864,   0.93750,  -0.42449,  -0.66192,  -0.80165,  -0.77949,   0.84233,   0.03487,  -0.09431,  -0.50208,   0.55855,  -0.27232,   0.50618
   0.87228,   0.45467,  -0.03592,   0.55588,   0.39228,  -0.18277,   0.81789,   0.37058,   0.77541,  -0.38406,  -0.09094,   0.47178,  -0.35844,  -0.49227,  -0.50490,   0.58438,  -0.31338,  -0.33539,  -0.71323,   0.48603,   0.87001,   0.88023,  -0.23339,  -0.37459,   0.74852,  -0.30821,   0.11278,  -0.46933,  -0.68010,   0.59686,  -0.74979,   0.87477,  -0.32712,   0.19418,   0.55835,  -0.32832,   0.29443,  -0.49388,  -0.15431,  -0.61688,   0.86058,   0.58474,   0.61505,   0.93158,  -0.38616,  -0.30324,  -0.57104,  -0.13292,   0.01688,  -0.63810,  -0.08349,   0.33820,   0.59106,  -0.09087,   0.58621,   0.78708,   0.12076,   0.50386,  -0.61877,  -0.41312,  -0.47289,   0.15096,   0.46170,  -0.79093,  -0.58034,  -0.16393,  -0.43455,   0.80835,  -0.63790,   0.09967,  -0.25673,  -0.46127,  -0.66715,   0.27581,  -0.52597,   0.00850,  -0.50818,  -0.79087,   0.25896,  -0.42543,  -0.73184,  -0.37310,  -0.47526,  -0.19339,   0.89132,  -0.07474,  -0.43034,   0.86063,   0.03815,   0.07433,   0.64094,   0.80799,  -0.56909,   0.72504,   0.34302,   0.65448,  -0.38683,  -0.18111,  -0.58592,   0.87876,  -0.46493,  -0.60085,  -0.30293,  -0.03062,   0.19628,  -0.27430,  -0.72120,   0.62593,  -0.78005,   0.13472,   0.93750,  -0.80220,   0.91537,   0.41697,   0.07338,  -0.69146,   0.85907,   0.76817,  -0.41554,   0.26497,  -0.60974,  -0.13631,  -0.68803,   0.00548,  -0.73816,  -0.65366,  -0.68223,   0.50176
   0.90163,  -0.43843,   0.81950,  -0.63307,  -0.29771,   0.07718,  -0.42345,  -0.41580,  -0.16007,  -0.10810,  -0.45821,  -0.51572,   0.45299,  -0.58553,   0.69635,  -0.24716,  -0.23256,  -0.35841,  -0.18076,   0.14415,  -0.39048,   0.77067,   0.28305,  -0.61208,   0.33606,   0.82218,   0.37842,  -0.23195,  -0.15916,  -0.14836,   0.33561,   0.05833,   0.10692,  -0.14861,  -0.06541,  -0.23786,   0.02607,   0.68449,   0.59256,   0.86776,   0.18737,  -0.22194,   0.60826,  -0.27569,  -0.63172,  -0.58625,  -0.00310,  -0.33816,   0.25381,  -0.79739,   0.52812,   0.78028,  -0.44553,  -0.76291,   0.64838,  -0.48786,   0.21208,  -0.24680,   0.77506,  -0.43769,  -0.66006,   0.65298,  -0.09749,  -0.48675,   0.11171,   0.35806,  -0.67581,  -0.48178,  -0.44733,   0.88169,  -0.39712,   0.62746,   0.52789,   0.51718,   0.88324,  -0.15278,   0.46799,  -0.70784,   0.73726,  -0.14652,   0.65362,  -0.00691,  -0.45709,  -0.39315,  -0.67774,   0.37967,  -0.29518,   0.62483,   0.58195,   0.89367,   0.66864,   0.58141,  -0.09402,   0.87389,  -0.03818,  -0.06386,   0.24032,  -0.66126,  -0.65815,   0.49592,  -0.40798,  -0.49071,   0.10329,   0.32563,  -0.16969,  -0.34569,  -0.84238,  -0.41955,  -0.81063,  -0.77568,   0.92888,   0.87317,   0.75023,  -0.57980,   0.38055,  -0.46974,  -0.42124,   0.72825,   0.56291,  -0.79743,  -0.66922,   0.87091,   0.30053,   0.34220,   0.69130,  -0.03322,  -0.39595,  -0.29528
   0.56812,   0.55883,  -0.63360,  -0.19877,  -0.29830,   0.04417,  -0.52807,   0.90650,  -0.04788,  -0.62922,  -0.31381,   0.33940,  -0.68937,  -0.15604,   0.30087,  -0.47438,  -0.44932,   0.10264,  -0.62461,  -0.82487,  -0.39789,   0.65437,  -0.31978,  -0.51823,   0.30058,   0.10041,   0.61542,   0.43795,   0.47891,   0.04537,  -0.12884,  -0.22845,   0.93440,   0.45257,   0.81391,  -0.71440,   0.09550,  -0.57096,   0.38471,   0.16395,   0.05087,   0.74469,  -0.50098,   0.18275,  -0.11513,  -0.21345,   0.79361,   0.63006,   0.41595,   0.60301,  -0.64081,   0.53467,   0.60107,  -0.93206,  -0.38998,  -0.70644,   0.93750,   0.40906,  -0.72788,  -0.14876,   0.25899,  -0.69037,   0.53062,  -0.65888,   0.60914,  -0.62296,  -0.83315,  -0.69501,  -0.42670,  -0.05029,  -0.49810,   0.01917,   0.73680,   0.81796,  -0.73385,   0.50546,  -0.31920,  -0.47656,  -0.24603,  -0.44615,   0.33558,  -0.24632,   0.86772,   0.45843,   0.88280,   0.10336,  -0.42886,   0.93750,   0.41624,  -0.81330,   0.21679,  -0.33057,  -0.24356,  -0.29745,   0.38726,  -0.45781,   0.22532,   0.27434,  -0.10968,   0.73751,   0.76688,  -0.80909,   0.39405,   0.71610,  -0.51452,  -0.45091,  -0.35696,   0.33611,   0.11464,   0.63197,  -0.14466,  -0.66667,   0.31405,  -0.10480,   0.03352,  -0.13794,  -0.18229,   0.67337,  -0.11916,   0.39269,  -0.17140,   0.50205,  -0.67652,   0.64316,   0.59126,  -0.50652,   0.16576,   0.86548
  -0.66561,   0.21673,   0.76850,  -0.66208,  -0.16984,  -0.33543,  -0.54103,   0.03701,   0.53206,  -0.33134,  -0.57247,  -0.47268,   0.83271,  -0.24345,   0.10167,   0.22378,  -0.37376,  -0.39414,  -0.37812,  -0.76263,  -0.37101,   0.48499,   0.69725,  -0.52228,   0.71400,  -0.06597,   0.24320,  -0.55481,  -0.06942,   0.11379,  -0.28239,  -0.33872,  -0.71667,   0.58732,  -0.11989,  -0.50913,  -0.23338,  -0.54032,  -0.06396,  -0.29399,  -0.08778,   0.63017,  -0.65629,  -0.15439,  -0.66571,  -0.60738,  -0.52920,  -0.36937,   0.45733,  -0.83963,  -0.73254,   0.68188,  -0.05864,  -0.42684,   0.52527,   0.51806,   0.80932,   0.25412,  -0.12106,  -0.38304,   0.67334,  -0.71765,   0.79072,  -0.70297,  -0.04903,  -0.69571,  -0.39762,   0.66950,  -0.81732,   0.38974,  -0.41416,  -0.64984,  -0.64150,   0.09426,  -0.17671,  -0.51979,   0.91511,   0.05223,   0.67195,  -0.58943,  -0.40192,   0.00518,   0.63880,   0.02943,  -0.36944,   0.45892,  -0.36924,   0.88220,   0.74362,  -0.47847,   0.22811,  -0.21859,  -0.44344,  -0.29374,   0.59900,  -0.03323,   0.03817,  -0.46361,  -0.64904,   0.49410,  -0.68678,   0.45065,   0.89521,   0.39440,   0.01622,  -0.03520,  -0.57158,  -0.43228,   0.29502,   0.05097,   0.65959,  -0.60861,   0.20277,  -0.16654,  -0.22972,  -0.59122,  -0.36396,   0.46980,  -0.46331,  -0.15315,  -0.72432,   0.55640,  -0.18320,   0.66356,  -0.91623,  -0.48226,  -0.21362,   0.00371
  -0.71061,   0.00466,   0.29246,  -0.63166,  -0.33213,   0.40224,  -0.57325,  -0.10527,   0.16840,  -0.10975,  -0.70399,  -0.61091,  -0.54112,  -0.40684,  -0.55799,   0.51604,  -0.53402,   0.24222,  -0.19474,   0.72843,  -0.43887,  -0.53742,   0.09270,  -0.52561,   0.02500,  -0.42019,   0.20798,  -0.33782,  -0.54803,  -0.77524,  -0.65492,  -0.41601,  -0.00005,  -0.14417,   0.54506,  -0.35508,  -0.45990,   0.74470,   0.50938,  -0.74654,  -0.46670,  -0.10749,  -0.69471,  -0.41605,   0.28103,   0.42780,   0.08011,  -0.24863,  -0.47287,   0.87001,  -0.75654,  -0.31093,  -0.59146,   0.11871,   0.09521,  -0.13582,   0.77149,  -0.10505,   0.55320,  -0.39114,  -0.34566,  -0.38842,   0.33240,  -0.87861,   0.32795,  -0.52640,   0.09487,  -0.91042,  -0.25754,   0.81085,   0.78741,   0.04171,  -0.09628,  -0.63657,  -0.25778,  -0.36516,  -0.22497,   0.57953,  -0.57379,   0.25286,  -0.22386,  -0.10743,   0.15320,  -0.30871,   0.72542,  -0.22362,   0.00147,  -0.13899,  -0.53411,   0.10394,  -0.67767,   0.87831,   0.58908,  -0.40026,  -0.04065,  -0.18231,   0.24713,  -0.19275,   0.50344,   0.30392,  -0.38370,   0.50566,   0.92994,  -0.49906,   0.39541,   0.18969,   0.69748,  -0.39348,   0.74330,  -0.30741,   0.54211,   0.10252,  -0.09240,   0.24078,   0.07250,   0.29579,  -0.38294,   0.52419,  -0.51838,  -0.40921,   0.20536,  -0.26716,  -0.01927,   0.27834,   0.73080,   0.50158,  -0.25851,   0.40977
  -0.55781,  -0.12630,  -0.51454,   0.47872,  -0.33805,  -0.76942,  -0.25782,   0.03967,   0.56759,   0.07670,   0.36760,  -0.56033,  -0.66240,  -0.08840,  -0.45092,   0.66965,  -0.57022,   0.51671,   0.47485,   0.26301,  -0.40162,  -0.69068,  -0.73497,   0.30164,   0.21122,   0.63386,   0.39445,  -0.44092,  -0.07992,   0.59637,  -0.45984,  -0.51694,   0.88153,   0.80478,  -0.66477,  -0.60302,   0.40327,   0.01945,  -0.35882,  -0.19175,   0.72855,   0.06636,   0.62119,  -0.64483,  -0.57943,  -0.41703,  -0.42406,   0.75195,  -0.80369,  -0.75195,  -0.21673,  -0.28563,   0.70137,  -0.61299,   0.86628,   0.64008,  -0.29409,   0.28727,   0.40677,   0.35173,  -0.73556,  -0.57288,  -0.18219,  -0.27505,  -0.45913,  -0.37193,  -0.09426,   0.79863,   0.93750,  -0.62826,  -0.34340,  -0.24399,   0.70715,   0.10435,   0.47393,   0.82775,  -0.52212,  -0.38983,  -0.74812,   0.11341,   0.56016,  -0.36604,  -0.62707,  -0.31230,  -0.44918,  -0.41324,  -0.40251,   0.67918,   0.93750,   0.34681,  -0.22466,  -0.02811,   0.30544,  -0.37792,  -0.33556,   0.06352,   0.03405,  -0.28361,  -0.12657,   0.79180,   0.22860,  -0.69690,   0.55993,  -0.51357,  -0.63166,   0.43189,   0.52372,  -0.56136,   0.35222,   0.75664,  -0.58113,   0.93750,  -0.19987,   0.37346,   0.62764,   0.50222,   0.10151,   0.58845,  -0.56638,  -0.06255,   0.81180,   0.60390,  -0.69504,   0.55028,   0.22314,  -0.60427,  -0.21366,   0.49329
   0.36524,  -0.00920,   0.42477,   0.14561,  -0.34679,  -0.50510,  -0.06559,  -0.21982,  -0.44809,  -0.31945,  -0.48962,   0.49197,   0.00661,  -0.54923,  -0.23507,  -0.54832,   0.01885,  -0.65886,  -0.37422,   0.24867,  -0.44478,   0.26049,  -0.17239,  -0.09911,  -0.67689,  -0.06024,   0.47675,  -0.71771,  -0.45157,   0.80385,  -0.06672,  -0.51519,   0.68168,   0.15566,   0.59211,   0.80686,  -0.11366,   0.27623,  -0.32639,  -0.26768,   0.37074,  -0.19461,   0.23389,  -0.44931,  -0.02114,  -0.65118,  -0.68287,   0.81407,  -0.88484,  -0.45732,  -0.49848,   0.24107,   0.67939,   0.78794,   0.62437,  -0.30800,  -0.75264,   0.41072,  -0.46323,   0.64764,  -0.60022,  -0.73746,   0.28386,   0.89469,  -0.22407,  -0.53800,  -0.49875,   0.21295,  -0.06943,   0.11621,  -0.54583,  -0.01906,  -0.66272,  -0.40108,  -0.44005,   0.21090,   0.03843,   0.72012,   0.22000,  -0.58505,  -0.50023,  -0.45474,  -0.20157,  -0.03053,   0.51560,   0.18740,  -0.33863,   0.50203,  -0.37840,  -0.58609,  -0.25334,  -0.33991,  -0.49763,  -0.50506,   0.31610,  -0.64446,   0.73332,  -0.40810,   0.68789,  -0.81163,  -0.78254,   0.20612,   0.87767,   0.76523,  -0.25615,  -0.39271,  -0.34413,  -0.00850,   0.40495,  -0.26402,  -0.25291,  -0.12514,   0.35909,   0.22826,   0.75703,  -0.14759,  -0.49271,  -0.45517,  -0.58344,   0.75609,   0.61583,   0.72320,  -0.71015,   0.42372,   0.50426,  -0.34512,  -0.21274,   0.51253
  -0.65350,  -0.47794,   0.54604,  -0.50986,   0.73833,  -0.25704,  -0.34608,   0.89576,   0.29480,   0.48936,   0.37624,  -0.47412,  -0.56597,   0.63831,  -0.33002,   0.17612,  -0.58271,   0.01892,  -0.33847,  -0.08782,  -0.30452,  -0.01187,   0.74523,   0.73103,  -0.42207,  -0.48186,   0.26017,   0.02218,  -0.04545,  -0.74218,  -0.17947,   0.85754,   0.91947,   0.21841,   0.28462,  -0.43914,   0.84989,   0.81727,  -0.35570,   0.32772,   0.45123,  -0.13500,   0.83783,   0.72026,  -0.69327,   0.39334,  -0.62346,  -0.24589,  -0.59652,   0.67761,  -0.48705,  -0.23220,  -0.58301,  -0.25447,   0.35911,  -0.76289,  -0.60686,   0.41550,   0.62489,   0.06207,   0.86956,  -0.70997,   0.81177,  -0.59895,  -0.09620,   0.81955,   0.18273,  -0.08794,  -0.61322,   0.43345,  -0.30979,  -0.47058,   0.20638,   0.88081,  -0.45646,  -0.60338,   0.91978,   0.74210,  -0.01314,  -0.18534,  -0.21349,  -0.45298,   0.74220,  -0.30979,   0.81482,  -0.19253,  -0.59352,  -0.78894,  -0.76075,   0.74016,  -0.78120,  -0.48749,  -0.33420,  -0.75789,  -0.32354,  -0.59373,  -0.51001,   0.24389,  -0.23189,  -0.14386,   0.52887,  -0.57073,  -0.51023,   0.74750,   0.76902,   0.42983,   0.24735,  -0.26296,  -0.77536,   0.79561,  -0.68506,  -0.56584,   0.05320,   0.15473,  -0.24102,   0.83498,  -0.50523,  -0.52416,  -0.13302,  -0.63238,   0.24718,  -0.18567,   0.56519,  -0.11435,  -0.44835,  -0.50564,   0.25113,   0.10826
  -0.28461,   0.28460,   0.72961,   0.47894,   0.26483,   0.75331,  -0.21177,   0.46926,  -0.08140,   0.34907,   0.86577,  -0.39530,  -0.50645,  -0.32895,   0.82275,   0.74995,   0.33628,   0.41674,  -0.16094,  -0.36213,   0.70204,   0.69534,   0.01821,  -0.08186,  -0.71161,   0.73432,  -0.69531,   0.57651,   0.47425,  -0.51816,  -0.43757,   0.52013,  -0.80340,  -0.19533,   0.63740,   0.15821,  -0.10420,  -0.51655,   0.91847,   0.77329,  -0.03144,  -0.55406,  -0.36703,   0.88027,   0.33913,   0.31712,  -0.43310,   0.26979,   0.08073,  -0.43415,   0.70519,  -0.27637,   0.44005,   0.47423,  -0.26312,  -0.32412,   0.11331,  -0.23422,   0.67869,   0.02189,  -0.23241,   0.85781,  -0.18934,   0.49044,  -0.35567,   0.63634,  -0.21096,  -0.69243,  -0.32617,  -0.56740,  -0.53153,  -0.81756,   0.22189,  -0.61514,   0.75434,   0.30340,  -0.16917,   0.48945,  -0.54080,   0.71873,  -0.51034,   0.62597,  -0.52232,   0.07029,  -0.16193,   0.93750,  -0.22201,   0.93750,   0.30944,  -0.09440,   0.50338,   0.93735,  -0.56730,   0.54422,  -0.52309,   0.90425,   0.06346,  -0.28166,  -0.56488,   0.52219,  -0.30800,   0.06809,  -0.33019,   0.62216,   0.68801,   0.07346,  -0.38734,  -0.34453,  -0.01584,  -0.76690,   0.73202,   0.37920,  -0.20230,  -0.27399,   0.58031,  -0.22263,   0.64345,  -0.16206,   0.92737,  -0.55839,  -0.42692,  -0.19419,  -0.06447,  -0.44318,  -0.85507,   0.80129,  -0.42566,  -0.36569
  -0.40566,  -0.23622,   0.14433,  -0.54854,   0.02420,   0.49921,   0.54998,  -0.38387,   0.76070,   0.61897,   0.04363,  -0.15457,   0.79877,   0.65270,   0.07865,   0.79245,   0.16993,   0.69826,  -0.23311,  -0.11380,   0.87491,   0.66880,   0.37926,   0.64803,   0.72980,   0.88673,  -0.51828,   0.47370,   0.60302,  -0.35031,   0.21676,   0.76778,   0.27824,  -0.35511,   0.71015,   0.32952,  -0.52850,  -0.44737,   0.67735,   0.40069,  -0.26186,  -0.46792,  -0.14437,  -0.73312,  -0.26087,   0.84365,  -0.32917,  -0.29171,  -0.20567,  -0.03332,   0.74408,  -0.70210,  -0.54523,  -0.53800,  -0.43592,   0.05294,  -0.56044,  -0.14269,  -0.40925,   0.17574,   0.85980,   0.30800,   0.15218,   0.05913,  -0.28218,  -0.37029,   0.21346,   0.64914,   0.36103,   0.35860,  -0.31176,  -0.32457,  -0.32626,   0.60554,  -0.04624,   0.63824,  -0.25597,  -0.52011,   0.59350,  -0.37186,  -0.63976,   0.60713,  -0.11392,   0.19815,  -0.57179,  -0.04461,  -0.08702,  -0.28625,  -0.66402,  -0.40761,   0.42543,  -0.68239,  -0.03305,   0.23182,  -0.73782,   0.52670,   0.23098,   0.38493,   0.85678,  -0.66457,  -0.07065,   0.27942,  -0.62560,   0.50791,   0.92973,  -0.14900,   0.46729,   0.13352,  -0.27977,  -0.40049,  -0.05820,  -0.67940,   0.37424,  -0.66997,   0.80681,   0.89215,  -0.14106,   0.81437,   0.90679,  -0.51698,  -0.07708,  -0.68021,  -0.04087,  -0.39327,   0.54768,  -0.62827,  -0.19492,  -0.32795
   0.28924,   0.92818,   0.48735,   0.48437,   0.74457,   0.12520,  -0.68051,  -0.70785,  -0.71551,   0.31343,   0.18390,  -0.53344,  -0.05611,  -0.43162,  -0.10416,  -0.29056,   0.19755,   0.67289,   0.49433,   0.35655,   0.41646,   0.53458,   0.39837,   0.34822,  -0.08067,  -0.29057,  -0.21231,  -0.65373,   0.25977,  -0.16262,  -0.28808,   0.82508,  -0.24050,  -0.27418,   0.67188,   0.56220,  -0.27867,   0.60067,   0.60811,   0.86423,  -0.66311,  -0.43969,   0.30131,  -0.00205,   0.61102,  -0.16686,   0.11168,  -0.40987,   0.67539,   0.74249,   0.80656,  -0.31011,  -0.42412,  -0.22681,  -0.20409,   0.44058,   0.02748,  -0.22649,   0.05042,   0.83382,   0.46234,   0.21733,  -0.41263,  -0.39152,   0.88035,   0.28681,  -0.56790,   0.27620,  -0.23368,  -0.64182,   0.86204,  -0.13859,   0.93750,   0.42707,  -0.60130,  -0.53784,  -0.64385,   0.52449,  -0.20098,   0.31238,   0.78488,  -0.00188,   0.19475,   0.74649,  -0.85898,   0.16942,   0.34159,   0.47053,   0.63578,  -0.29968,   0.63368,   0.33693,   0.73971,  -0.03351,  -0.54978,   0.43056,   0.61885,  -0.19469,   0.66851,  -0.81184,  -0.29421,  -0.21185,   0.70726,   0.83292,   0.12194,   0.21781,   0.86384,   0.58942,  -0.51947,  -0.25293,   0.86753,   0.73568,  -0.33769,  -0.47790,   0.68819,   0.31756,   0.32339,   0.69592,   0.41615,  -0.15467,  -0.66077,   0.44102,   0.78131,  -0.42793,   0.69494,  -0.17691,  -0.38640,  -0.38460
   0.66809,   0.50716,   0.74187,  -0.07230,   0.65182,   0.23433,  -0.41444,  -0.05297,  -0.07808,   0.75180,  -0.08398,   0.55772,   0.20781,  -0.07507,   0.87564,   0.39157,  -0.33497,  -0.03098,  -0.36344,   0.55817,  -0.52259,  -0.27891,   0.45087,  -0.42040,   0.34728,  -0.37881,   0.10376,  -0.52093,   0.30372,   0.74704,   0.62428,  -0.55505,  -0.59224,  -0.40964,   0.67822,  -0.57330,  -0.71958,  -0.28169,  -0.60807,  -0.65751,  -0.66961,  -0.13111,   0.65245,   0.55062,   0.38109,   0.82075,  -0.02581,   0.74548,   0.29857,  -0.88716,  -0.52316,  -0.40742,   0.68025,   0.60371,  -0.12611,   0.53238,   0.93750,  -0.30480,   0.67135,   0.01314,  -0.61118,  -0.54555,  -0.30170,   0.30258,   0.39086,   0.44953,  -0.53779,  -0.52978,   0.84124,  -0.57069,  -0.49328,   0.15814,   0.22546,  -0.15913,   0.93750,   0.03121,  -0.74263,   0.72107,  -0.67800,   0.74408,   0.68075,   0.74284,   0.06730,   0.53062,  -0.18047,   0.88917,  -0.34556,   0.72636,  -0.75542,  -0.74754,  -0.40674,  -0.74239,   0.35958,  -0.30721,   0.79425,  -0.17067,   0.37128,  -0.15841,   0.32976,   0.70257,   0.16561,   0.86244,  -0.45209,   0.60012,   0.72773,   0.21581,   0.89565,   0.77485,   0.77910,  -0.20892,   0.73235,   0.72031,  -0.52177,   0.75618,  -0.02382,   0.52814,   0.39364,  -0.73660,   0.09382,   0.15199,  -0.41950,   0.42360,  -0.37102,  -0.62038,   0.76006,   0.12144,   0.06294,  -0.20382
   0.53758,   0.52016,  -0.23468,   0.55180,  -0.44712,   0.22501,  -0.50981,  -0.14677,   0.08934,   0.11447,   0.33410,  -0.39428,   0.30297,  -0.44388,  -0.01711,   0.37390,  -0.56117,   0.64417,  -0.65280,  -0.75204,  -0.27645,  -0.45001,  -0.04321,   0.61467,  -0.20019,  -0.68251,  -0.24362,   0.69930,   0.64032,   0.04445,   0.03319,  -0.47408,  -0.62746,  -0.40381,   0.63093,  -0.51594,   0.18817,  -0.44251,   0.53096,   0.75049,  -0.62152,  -0.29642,   0.51769,   0.77215,   0.10702,   0.08780,   0.52605,  -0.67499,   0.18398,   0.14519,  -0.24470,   0.27596,  -0.67311,  -0.20441,  -0.30577,   0.12698,   0.48027,  -0.35060,   0.64192,   0.56617,   0.59569,  -0.38253,  -0.51292,  -0.03465,   0.80908,   0.37088,  -0.50836,   0.27966,  -0.35787,   0.19965,  -0.61978,  -0.15902,   0.93103,   0.81368,  -0.10886,   0.11786,   0.50271,  -0.30339,   0.55411,   0.39362,   0.05786,   0.01232,  -0.68048,   0.81117,  -0.72521,   0.20136,  -0.54463,   0.87043,   0.83219,   0.47695,  -0.14646,  -0.63741,   0.74266,  -0.36460,  -0.31491,   0.68128,   0.14186,  -0.27760,  -0.30791,  -0.17834,   0.60090,   0.69348,  -0.54501,  -0.31595,  -0.04496,   0.54408,   0.59149,   0.77168,   0.57771,  -0.14990,  -0.55805,  -0.26548,  -0.31735,   0.53808,   0.08639,   0.70685,  -0.74169,   0.87437,  -0.32248,   0.05020,  -0.52085,  -0.46386,   0.71512,  -0.45524,   0.83368,  -0.16758,  -0.25720,  -0.25746
  -0.21715,  -0.01602,  -0.67562,   0.69325,  -0.14673,   0.84153,   0.77604,  -0.14711,  -0.65670,  -0.09916,  -0.59270,   0.59361,   0.70334,   0.02637,  -0.00451,  -0.14954,  -0.28350,   0.23306,  -0.26746,   0.81169,  -0.55462,  -0.48875,  -0.15127,  -0.57639,   0.69383,  -0.25140,  -0.68054,   0.61834,   0.25987,  -0.27427,  -0.67046,  -0.14357,   0.17234,  -0.40396,  -0.37751,   0.69670,  -0.40979,  -0.05920,   0.11552,  -0.00679,  -0.63718,  -0.40668,  -0.30550,  -0.05533,  -0.26725,   0.00701,   0.05858,  -0.54200,  -0.76585,   0.93750,  -0.64300,  -0.63749,  -0.73876,   0.47409,  -0.40667,  -0.26106,  -0.48578,  -0.27095,  -0.44905,   0.37517,   0.36956,  -0.20266,  -0.57858,   0.10388,   0.00308,  -0.33444,   0.51119,  -0.63724,  -0.05409,  -0.67548,   0.37768,   0.00383,   0.02767,   0.79288,   0.46681,  -0.21079,   0.14972,  -0.11495,  -0.65046,   0.45111,  -0.49258,   0.86449,   0.21217,   0.57852,   0.26016,   0.47301,   0.84096,  -0.34533,  -0.73446,  -0.14159,  -0.41300,  -0.39372,  -0.28991,  -0.28562,  -0.46009,  -0.13653,   0.28216,   0.45055,  -0.28320,   0.66915,  -0.65080,   0.42114,  -0.74203,  -0.26535,   0.47779,   0.65689,   0.53469,   0.28584,  -0.76793,   0.53975,  -0.40762,   0.34762,  -0.60811,   0.54162,  -0.30929,   0.20393,   0.39524,   0.56362,   0.72706,  -0.65836,  -0.31033,  -0.52623,   0.09143,  -0.43402,  -0.23895,   0.15128,  -0.05004,  -0.47331
  -0.59622,   0.51712,  -0.42049,   0.63287,   0.29447,   0.68533,   0.19876,   0.00403,  -0.21972,   0.73889,   0.84912,   0.66760,   0.69100,   0.28959,   0.34353,   0.45307,  -0.10506,   0.07711,   0.82586,  -0.65273,   0.74223,  -0.74057,   0.54237,   0.85735,   0.72238,   0.10405,  -0.09456,  -0.09187,   0.28605,   0.55968,  -0.19395,  -0.28948,   0.75356,  -0.35463,  -0.47659,  -0.64365,  -0.33384,  -0.54794,  -0.35300,   0.75979,  -0.51683,  -0.62419,  -0.10194,  -0.77168,   0.85544,   0.61388,  -0.01539,  -0.50683,   0.89453,  -0.02262,   0.15143,  -0.38526,   0.32585,  -0.50468,  -0.60177,  -0.13664,  -0.78486,  -0.41844,  -0.57588,   0.60217,   0.05878,   0.06802,  -0.53339,  -0.39123,   0.40041,  -0.24253,  -0.45592,  -0.69773,   0.89205,   0.34394,   0.78589,   0.02030,   0.80459,   0.75729,  -0.71869,   0.38354,  -0.58795,  -0.36458,  -0.20208,   0.48232,  -0.27152,  -0.38724,   0.26415,  -0.00115,   0.11677,  -0.41352,   0.76135,   0.93750,   0.80585,  -0.42781,  -0.42942,  -0.27293,  -0.13544,  -0.02247,  -0.06749,  -0.59761,   0.85231,  -0.07201,   0.88590,   0.87411,  -0.25134,  -0.63510,  -0.66216,  -0.38123,  -0.14546,   0.31109,  -0.22617,   0.68539,   0.93750,   0.11900,  -0.48112,   0.92253,  -0.46107,  -0.34468,   0.12247,   0.19283,  -0.47655,  -0.75295,  -0.41154,  -0.26289,   0.66737,  -0.67049,  -0.68077,  -0.31536,  -0.67061,  -0.14655,  -0.28606,  -0.21598
  -0.13735,   0.79981,  -0.84526,   0.75087,   0.34680,  -0.23947,  -0.30652,  -0.62832,  -0.11651,   0.57135,   0.55212,  -0.09624,   0.77470,   0.11738,  -0.30254,   0.69629,  -0.09575,   0.54976,  -0.21187,   0.70150,  -0.39026,   0.53169,   0.21819,   0.00670,   0.24010,  -0.42742,  -0.55911,  -0.45219,   0.55664,  -0.27458,   0.05306,   0.19100,  -0.44891,  -0.40896,   0.82979,  -0.52833,  -0.16367,   0.54142,   0.43071,  -0.26272,   0.35195,  -0.46867,  -0.05373,   0.86892,   0.34345,   0.55833,   0.67634,  -0.49476,   0.44718,   0.87711,   0.64540,  -0.23629,  -0.31660,  -0.71567,  -0.36809,  -0.12190,  -0.49732,  -0.29196,  -0.50722,   0.48433,   0.17570,  -0.45658,  -0.22804,  -0.46296,  -0.02841,  -0.34934,   0.65917,   0.58260,   0.77137,  -0.70582,   0.76669,   0.00024,  -0.58929,   0.27475,  -0.03294,   0.19316,   0.11559,   0.32239,   0.77960,   0.07442,  -0.24012,  -0.56265,  -0.57502,  -0.25257,   0.51359,   0.62575,   0.18745,  -0.37572,  -0.57067,  -0.49711,   0.26465,  -0.10925,  -0.23313,  -0.15719,  -0.36920,  -0.22155,   0.06354,  -0.28749,   0.84487,  -0.07215,  -0.10060,   0.34872,  -0.61926,   0.84939,  -0.12030,  -0.26071,   0.12889,   0.66724,   0.80751,  -0.50203,  -0.54174,  -0.54546,  -0.53155,   0.82358,  -0.29235,   0.61068,  -0.71986,  -0.20159,   0.43592,  -0.55153,  -0.56058,  -0.49254,   0.39461,  -0.29983,  -0.85869,  -0.34408,  -0.06356,  -0.17404
   0.35350,   0.06821,   0.42165,   0.38958,   0.79348,   0.07367,   0.06308,  -0.27913,   0.41489,   0.29841,  -0.35756,   0.07905,   0.93640,   0.28620,  -0.64603,   0.72828,   0.43844,   0.02514,   0.74329,  -0.88286,  -0.50644,  -0.42839,  -0.13444,   0.82168,   0.80288,   0.10923,  -0.55359,  -0.67507,   0.38208,   0.03804,   0.28847,   0.57525,   0.18848,  -0.13047,   0.31519,  -0.10316,  -0.27115,   0.36640,  -0.18500,  -0.38231,  -0.71137,  -0.51627,   0.80305,  -0.30412,   0.00206,   0.37143,  -0.52698,  -0.42275,   0.49142,  -0.81116,   0.56897,   0.30223,   0.61321,  -0.30242,  -0.19928,  -0.75914,   0.10841,  -0.36235,  -0.39481,   0.42693,   0.73028,  -0.08965,  -0.45403,  -0.10250,   0.41494,   0.03454,  -0.75958,   0.14023,  -0.46875,  -0.06161,  -0.08340,  -0.16255,  -0.89451,  -0.63338,  -0.07968,  -0.56576,   0.18700,  -0.09991,  -0.23595,   0.57279,   0.36108,  -0.29528,  -0.60890,   0.30342,  -0.26239,   0.85040,   0.00170,   0.68073,  -0.62731,  -0.00385,  -0.04108,   0.21462,  -0.15535,  -0.18343,  -0.56750,  -0.31682,   0.75559,  -0.20518,   0.10437,   0.07416,   0.77061,   0.05805,  -0.19446,  -0.34958,   0.39878,   0.76209,   0.83910,   0.28076,  -0.63511,   0.85999,   0.29076,  -0.63789,  -0.45406,   0.46303,   0.09389,   0.61161,   0.68319,   0.02198,   0.87406,  -0.55586,   0.62757,  -0.50206,   0.26802,  -0.42582,  -0.04399,   0.67613,  -0.44739,  -0.29297
