1_mean,2_mean,3_mean,4_mean,5_mean,6_mean,7_mean,8_mean,1_std,2_std,3_std,4_std,5_std,6_std,7_std,8_std
0.002528,-0.014490,0.006155,0.001826,-0.001302,-0.013502,-0.044675,-0.024247,0.494696,0.645062,0.655540,0.644965,0.656509,0.660282,0.702304,0.652271
1_mean,2_mean,3_mean,4_mean,5_mean,6_mean,7_mean,8_mean,1_std,2_std,3_std,4_std,5_std,6_std,7_std,8_std
0.002528,-0.014490,0.006155,0.001826,-0.001302,-0.013502,-0.044675,-0.024247,0.494696,0.645062,0.655540,0.644965,0.656509,0.660282,0.702304,0.652271
-0.003698,-0.021716,0.017794,-0.011263,-0.000863,-0.022167,-0.047935,-0.024605,0.452217,0.592578,0.602037,0.608767,0.621857,0.629254,0.696134,0.651797
-0.014328,-0.024580,0.012921,-0.021531,-0.002639,-0.027597,-0.049160,-0.023568,0.449789,0.565767,0.573502,0.591437,0.592503,0.608965,0.692517,0.651904
-0.011874,-0.025995,0.011388,-0.042514,-0.003793,-0.031133,-0.050492,-0.024629,0.454953,0.548536,0.551665,0.586602,0.575405,0.591774,0.690378,0.651614
-0.012624,-0.029244,0.006476,-0.044864,-0.005760,-0.032226,-0.052828,-0.023896,0.468812,0.538657,0.539609,0.580970,0.560353,0.578037,0.688661,0.650606
-0.021416,-0.032580,0.000998,-0.044111,-0.006064,-0.037243,-0.054671,-0.023441,0.474313,0.533077,0.531052,0.573742,0.550892,0.567550,0.688631,0.648370
-0.018673,-0.035407,-0.001075,-0.052824,-0.006941,-0.039469,-0.056673,-0.021602,0.475117,0.527301,0.525659,0.570595,0.543624,0.559177,0.688143,0.645210
-0.010006,-0.041319,-0.006159,-0.058079,-0.010257,-0.040490,-0.057472,-0.020336,0.474392,0.528679,0.523197,0.567634,0.538172,0.552602,0.687951,0.640788
-0.015887,-0.034749,-0.004873,-0.055692,-0.010563,-0.045215,-0.060776,-0.020213,0.477062,0.525077,0.521984,0.569786,0.534974,0.548381,0.688631,0.639219
-0.011642,-0.038446,-0.007457,-0.060228,-0.012103,-0.046123,-0.063492,-0.017377,0.479981,0.524989,0.520767,0.567853,0.533807,0.545173,0.691216,0.636396
-0.012046,-0.043469,-0.011747,-0.061579,-0.015659,-0.048811,-0.065392,-0.016342,0.474571,0.525067,0.520692,0.566885,0.532747,0.542235,0.690235,0.632604
-0.028423,-0.039520,-0.009681,-0.060014,-0.016366,-0.050980,-0.067002,-0.018006,0.483178,0.525596,0.519836,0.563476,0.532779,0.541364,0.691607,0.630871
-0.015405,-0.041756,-0.011837,-0.063671,-0.015950,-0.053469,-0.067302,-0.017167,0.487550,0.529452,0.519540,0.568096,0.533169,0.539791,0.690100,0.629477
-0.010477,-0.044474,-0.014139,-0.069978,-0.018144,-0.057704,-0.068605,-0.015017,0.492203,0.531727,0.520160,0.570276,0.535029,0.540716,0.691559,0.628017
-0.017428,-0.045517,-0.016187,-0.073572,-0.019421,-0.055899,-0.069656,-0.014425,0.493998,0.533086,0.519206,0.571167,0.536472,0.539754,0.689861,0.626013
-0.014749,-0.044878,-0.021666,-0.078159,-0.021371,-0.056565,-0.070990,-0.013464,0.491439,0.532015,0.520061,0.579041,0.537730,0.540762,0.691363,0.623005
-0.013173,-0.038175,-0.018303,-0.079605,-0.020419,-0.058108,-0.072868,-0.013895,0.494314,0.532245,0.518299,0.579130,0.538650,0.541233,0.691520,0.623285
-0.029817,-0.044778,-0.020220,-0.082043,-0.020907,-0.061528,-0.073447,-0.013114,0.493991,0.532842,0.518417,0.584335,0.537713,0.542742,0.690963,0.621704
-0.020206,-0.047511,-0.020470,-0.075985,-0.024812,-0.063482,-0.073930,-0.012660,0.498235,0.536747,0.517656,0.582273,0.538313,0.544311,0.689829,0.620655
-0.015960,-0.044991,-0.021012,-0.083295,-0.024911,-0.063240,-0.075188,-0.011512,0.500238,0.537874,0.516774,0.585818,0.539966,0.546250,0.691716,0.619170
-0.011292,-0.044336,-0.025902,-0.081033,-0.025883,-0.064461,-0.075432,-0.011919,0.490051,0.541586,0.517202,0.585500,0.540521,0.547212,0.689620,0.618841
-0.019041,-0.042465,-0.022096,-0.081728,-0.025380,-0.063347,-0.076512,-0.011415,0.490885,0.539409,0.516677,0.585292,0.540062,0.548415,0.691030,0.617084
-0.015163,-0.045654,-0.023280,-0.084117,-0.024296,-0.066071,-0.077467,-0.010492,0.492398,0.538462,0.515457,0.588830,0.539809,0.549722,0.691000,0.615378
-0.016981,-0.048171,-0.022951,-0.084707,-0.025954,-0.064360,-0.078368,-0.009434,0.493898,0.540826,0.515337,0.584202,0.540300,0.550260,0.690627,0.614521
-0.019705,-0.045813,-0.024504,-0.086275,-0.027970,-0.066859,-0.078021,-0.008443,0.493629,0.538954,0.515342,0.582808,0.540068,0.550128,0.689289,0.613124
-0.020240,-0.046811,-0.022201,-0.082703,-0.027854,-0.066156,-0.078783,-0.008834,0.493006,0.539951,0.514516,0.582312,0.540126,0.550433,0.690317,0.613853
-0.010062,-0.045522,-0.020427,-0.080985,-0.025460,-0.066004,-0.079904,-0.008067,0.488701,0.543149,0.514672,0.578422,0.541098,0.552724,0.688306,0.613099
-0.021074,-0.052048,-0.022213,-0.082670,-0.026331,-0.065748,-0.080977,-0.006902,0.495510,0.540091,0.516162,0.575371,0.540794,0.554331,0.689568,0.612466
-0.019874,-0.048391,-0.023999,-0.081567,-0.027527,-0.066766,-0.082403,-0.006449,0.505091,0.540857,0.515733,0.573955,0.540633,0.555571,0.690852,0.613175
-0.018491,-0.048506,-0.023140,-0.082635,-0.029276,-0.064375,-0.082220,-0.005418,0.499099,0.544000,0.515185,0.572559,0.542910,0.555205,0.690877,0.612614
-0.018920,-0.049486,-0.022902,-0.082520,-0.028648,-0.064147,-0.082489,-0.005041,0.490982,0.547603,0.516017,0.572876,0.542561,0.555706,0.690727,0.611713
-0.011316,-0.042858,-0.023976,-0.082912,-0.028052,-0.065544,-0.083583,-0.005087,0.493665,0.544927,0.515559,0.576196,0.541220,0.557380,0.690613,0.612506
-0.024636,-0.048787,-0.022558,-0.081232,-0.027114,-0.065964,-0.082657,-0.005487,0.494174,0.548735,0.514645,0.570735,0.541043,0.558490,0.689109,0.612120
-0.011572,-0.043826,-0.021336,-0.083134,-0.028017,-0.066641,-0.082695,-0.004714,0.496160,0.548095,0.512226,0.569105,0.542389,0.558766,0.689484,0.610694
-0.015929,-0.043795,-0.025227,-0.083755,-0.025616,-0.065227,-0.084417,-0.005259,0.490971,0.546616,0.514022,0.573107,0.541914,0.559307,0.689766,0.612094
-0.014787,-0.045420,-0.022767,-0.082134,-0.026359,-0.067384,-0.085989,-0.005117,0.493054,0.547708,0.513860,0.569093,0.543674,0.558734,0.690010,0.611125
-0.018791,-0.040604,-0.021470,-0.085867,-0.026929,-0.063447,-0.086094,-0.002674,0.489245,0.547129,0.512594,0.568699,0.543219,0.558859,0.691213,0.609729
-0.010144,-0.045467,-0.022352,-0.080143,-0.029989,-0.067962,-0.085250,-0.003225,0.493567,0.545304,0.512117,0.568942,0.543746,0.559817,0.690814,0.608433
-0.008672,-0.047230,-0.023657,-0.080917,-0.027720,-0.068166,-0.087378,-0.003317,0.491283,0.547355,0.512667,0.572075,0.543993,0.562366,0.690555,0.609447
-0.009002,-0.046956,-0.025061,-0.080907,-0.027944,-0.066674,-0.085422,-0.004163,0.500800,0.548227,0.513581,0.568181,0.544322,0.560524,0.691680,0.609906
-0.015015,-0.049058,-0.024075,-0.080001,-0.028281,-0.066349,-0.088830,-0.004514,0.496838,0.548110,0.513070,0.569698,0.545029,0.561982,0.691516,0.609250
-0.019008,-0.044880,-0.026683,-0.083270,-0.029986,-0.066526,-0.088385,-0.002386,0.494978,0.548594,0.514172,0.571571,0.544940,0.561503,0.689768,0.608515
-0.012818,-0.041645,-0.024795,-0.082796,-0.029868,-0.067985,-0.088377,-0.002023,0.488205,0.548657,0.513316,0.571325,0.544872,0.561864,0.690167,0.608149
-0.013317,-0.045247,-0.023004,-0.083845,-0.030007,-0.065669,-0.090270,-0.002535,0.496511,0.550002,0.512974,0.569478,0.545663,0.563032,0.688919,0.609238
-0.012769,-0.045323,-0.020610,-0.088046,-0.029820,-0.065741,-0.090364,-0.001480,0.496139,0.550366,0.512660,0.569023,0.548167,0.561990,0.691099,0.608401
-0.020497,-0.046860,-0.026563,-0.087642,-0.031540,-0.066074,-0.088967,-0.001952,0.498709,0.552048,0.512831,0.570560,0.551566,0.560910,0.689422,0.609276
-0.020686,-0.047308,-0.027044,-0.084155,-0.029146,-0.064917,-0.091347,-0.001571,0.493543,0.548588,0.513475,0.570406,0.549590,0.561217,0.690800,0.608534
-0.013845,-0.046734,-0.024312,-0.083439,-0.029882,-0.063688,-0.091333,-0.001963,0.494432,0.548479,0.511653,0.569430,0.551154,0.562542,0.689900,0.607822
-0.021016,-0.045913,-0.022894,-0.088377,-0.030377,-0.061856,-0.091408,-0.001582,0.498290,0.549919,0.512447,0.568970,0.551817,0.560049,0.692024,0.607791
-0.013016,-0.040310,-0.023417,-0.081512,-0.030636,-0.066336,-0.092041,-0.001043,0.499201,0.550691,0.512545,0.569112,0.553653,0.561272,0.690360,0.607920
-0.012447,-0.048408,-0.024389,-0.086929,-0.030197,-0.067002,-0.092997,-0.002557,0.497485,0.545898,0.512749,0.570206,0.551711,0.561402,0.691698,0.607780
-0.014273,-0.042791,-0.026863,-0.087386,-0.032456,-0.066835,-0.093253,0.000441,0.491042,0.550220,0.512043,0.568557,0.555937,0.563496,0.691619,0.605129
-0.017458,-0.046586,-0.027715,-0.083294,-0.030671,-0.064506,-0.092767,-0.002120,0.495210,0.548649,0.513111,0.566925,0.554645,0.561332,0.691763,0.607137
-0.015144,-0.047163,-0.024415,-0.083629,-0.033117,-0.063995,-0.092872,-0.000409,0.499382,0.549498,0.511845,0.567885,0.555732,0.560578,0.688302,0.605896
-0.017625,-0.044462,-0.023373,-0.082653,-0.031667,-0.062303,-0.092626,-0.000583,0.495791,0.547261,0.512152,0.567450,0.554358,0.559985,0.690150,0.605338
-0.015636,-0.047585,-0.026732,-0.088619,-0.030041,-0.061483,-0.094392,-0.000667,0.497905,0.548515,0.514497,0.566371,0.552987,0.562542,0.691804,0.605618
-0.009759,-0.044823,-0.022285,-0.084926,-0.032716,-0.064264,-0.094182,-0.000898,0.491910,0.551066,0.512624,0.567992,0.555526,0.565417,0.691040,0.605948
-0.020456,-0.046301,-0.024520,-0.086234,-0.031455,-0.062701,-0.095101,0.001697,0.492793,0.550509,0.512363,0.569277,0.558288,0.563709,0.690883,0.606294
-0.022914,-0.048779,-0.021880,-0.084050,-0.032995,-0.060834,-0.094733,0.000811,0.492025,0.549395,0.513099,0.570262,0.558854,0.562505,0.689844,0.606299
-0.014562,-0.044539,-0.023531,-0.087785,-0.033019,-0.063574,-0.095327,0.000214,0.495548,0.550773,0.512502,0.569916,0.559612,0.561997,0.691164,0.606943
-0.016219,-0.043464,-0.022733,-0.086154,-0.032561,-0.063809,-0.094208,-0.000218,0.488796,0.549869,0.512330,0.570616,0.559823,0.562789,0.690085,0.606353
-0.013627,-0.044729,-0.023863,-0.087801,-0.031305,-0.063574,-0.095138,-0.000508,0.496736,0.550139,0.512868,0.569480,0.559912,0.565195,0.689678,0.605416
-0.020771,-0.048890,-0.022914,-0.089840,-0.033358,-0.062347,-0.095008,0.000583,0.492795,0.551138,0.513834,0.571956,0.562577,0.562871,0.690324,0.605205
-0.013784,-0.041349,-0.023380,-0.087393,-0.032737,-0.060282,-0.095770,0.000049,0.492380,0.549141,0.512557,0.573746,0.560065,0.561661,0.690106,0.605014
-0.011880,-0.046678,-0.024807,-0.085323,-0.033023,-0.059615,-0.095979,0.000661,0.495959,0.551171,0.512117,0.570849,0.560423,0.562419,0.689978,0.604268
-0.008835,-0.038447,-0.025915,-0.091372,-0.030946,-0.062504,-0.095511,-0.000638,0.493165,0.550915,0.512801,0.576429,0.561813,0.561871,0.691071,0.604604
-0.021669,-0.040687,-0.024809,-0.088206,-0.032760,-0.062662,-0.096036,0.000481,0.495832,0.554349,0.513196,0.573058,0.558753,0.561634,0.690669,0.605078
-0.020362,-0.046995,-0.023879,-0.091670,-0.034961,-0.059949,-0.096441,0.000700,0.495700,0.553423,0.512628,0.574182,0.561912,0.562109,0.691337,0.605601
-0.016335,-0.049030,-0.024943,-0.088882,-0.032954,-0.062757,-0.096179,0.000615,0.495631,0.551322,0.514228,0.571787,0.561142,0.561470,0.691311,0.603954
-0.012798,-0.044474,-0.025761,-0.091723,-0.033248,-0.061696,-0.096366,0.001193,0.497340,0.548246,0.514811,0.574173,0.560392,0.561440,0.689906,0.603734
-0.015920,-0.046958,-0.021721,-0.086684,-0.035712,-0.063465,-0.098381,0.000917,0.498876,0.548416,0.514334,0.571921,0.565053,0.564338,0.690000,0.605218
-0.018361,-0.044700,-0.026315,-0.092266,-0.032514,-0.062357,-0.097753,0.000029,0.494416,0.550134,0.517448,0.579262,0.562766,0.563744,0.688965,0.604770
-0.014328,-0.042953,-0.028367,-0.089031,-0.033473,-0.063496,-0.097955,0.001066,0.498814,0.550730,0.515416,0.578380,0.562469,0.562674,0.690794,0.603851
-0.015819,-0.041982,-0.028131,-0.091663,-0.030742,-0.062158,-0.098743,0.001213,0.494338,0.552358,0.515017,0.580099,0.562827,0.563468,0.691788,0.602745
-0.013223,-0.048848,-0.025796,-0.089778,-0.032208,-0.063768,-0.099340,0.000437,0.500085,0.553400,0.515342,0.581781,0.562430,0.561026,0.691566,0.602421
-0.014276,-0.040688,-0.024020,-0.091577,-0.033699,-0.063419,-0.098043,0.002153,0.490563,0.549915,0.515148,0.578138,0.564927,0.560891,0.691453,0.603637
-0.010658,-0.040658,-0.026009,-0.089574,-0.035339,-0.061889,-0.099457,0.002018,0.493884,0.547332,0.516020,0.577856,0.563581,0.560520,0.693221,0.602810
-0.014194,-0.044726,-0.022741,-0.090073,-0.035042,-0.062494,-0.098945,0.001287,0.499237,0.546176,0.513819,0.579408,0.566483,0.560271,0.691595,0.602532
-0.016586,-0.041274,-0.028287,-0.094594,-0.034581,-0.062293,-0.100079,0.000599,0.500635,0.548252,0.514806,0.575246,0.569542,0.560753,0.690599,0.603406
-0.013569,-0.044473,-0.026788,-0.093486,-0.036162,-0.061261,-0.100216,0.001682,0.494648,0.547800,0.514168,0.577641,0.568672,0.560343,0.692135,0.602679
-0.012469,-0.051225,-0.023541,-0.091172,-0.034245,-0.062571,-0.100009,0.001763,0.491042,0.550592,0.514196,0.584458,0.568811,0.561434,0.690025,0.603285
-0.020687,-0.048269,-0.025340,-0.091645,-0.036437,-0.059412,-0.100931,0.001903,0.493805,0.549752,0.515718,0.583178,0.570658,0.560980,0.690437,0.601895
-0.012556,-0.045252,-0.025635,-0.093042,-0.036505,-0.061071,-0.100325,0.001705,0.487768,0.549977,0.514980,0.581786,0.570360,0.563625,0.688884,0.603583
-0.020691,-0.043119,-0.025417,-0.097018,-0.037182,-0.062856,-0.099486,0.001008,0.490183,0.550966,0.514240,0.583622,0.570566,0.563552,0.690587,0.603201
-0.015750,-0.047546,-0.025193,-0.093132,-0.035957,-0.062144,-0.100156,0.002595,0.498846,0.551446,0.514454,0.584637,0.570550,0.562877,0.690274,0.603078
-0.019804,-0.046493,-0.025971,-0.097009,-0.034126,-0.060198,-0.101453,0.002545,0.494188,0.549875,0.514617,0.585341,0.566612,0.563337,0.689633,0.602441
-0.016452,-0.045093,-0.024277,-0.093302,-0.035391,-0.060733,-0.102124,0.003459,0.496919,0.546612,0.515260,0.583246,0.568791,0.564538,0.690584,0.604098
-0.022078,-0.045995,-0.026334,-0.095343,-0.035793,-0.060313,-0.100760,0.003631,0.496343,0.548520,0.515132,0.583770,0.568932,0.562769,0.689838,0.601858
-0.017667,-0.044840,-0.025818,-0.094854,-0.035555,-0.063129,-0.102019,0.003487,0.492182,0.551525,0.515118,0.589049,0.567026,0.564160,0.691391,0.601793
-0.021261,-0.043413,-0.023550,-0.096352,-0.037725,-0.062474,-0.100792,0.003278,0.501087,0.551993,0.513247,0.586817,0.576407,0.563142,0.692063,0.601938
-0.018895,-0.042883,-0.025526,-0.098236,-0.034828,-0.063755,-0.101113,0.001879,0.493502,0.549884,0.515078,0.587959,0.569877,0.563626,0.690240,0.603285
-0.006561,-0.045647,-0.026257,-0.099701,-0.035820,-0.062556,-0.102165,0.002995,0.481796,0.550434,0.515981,0.588963,0.568255,0.562593,0.689834,0.602342
-0.012041,-0.045497,-0.024638,-0.099227,-0.033085,-0.060690,-0.102644,0.002101,0.492512,0.551587,0.513592,0.584627,0.566553,0.561976,0.690561,0.602893
-0.016123,-0.042351,-0.025318,-0.093512,-0.036788,-0.063164,-0.101723,0.003931,0.495331,0.548760,0.512963,0.582470,0.567398,0.563365,0.691200,0.601644
-0.011652,-0.042901,-0.024249,-0.096735,-0.033088,-0.059937,-0.102561,0.002727,0.495474,0.551309,0.513691,0.582263,0.566848,0.562471,0.691435,0.601029
-0.011919,-0.041004,-0.026648,-0.094704,-0.035470,-0.060839,-0.102461,0.002885,0.489278,0.551788,0.515128,0.581912,0.569327,0.561912,0.690978,0.601019
-0.013308,-0.045514,-0.025854,-0.094140,-0.034804,-0.062184,-0.102281,0.003107,0.494427,0.555236,0.513376,0.583374,0.568054,0.561565,0.690015,0.600840
-0.017609,-0.043378,-0.025032,-0.098042,-0.035783,-0.061471,-0.102216,0.002890,0.492540,0.553942,0.514721,0.583349,0.572717,0.561930,0.690882,0.602725
-0.020476,-0.045676,-0.025022,-0.090760,-0.036017,-0.063413,-0.102077,0.003202,0.489685,0.549147,0.514527,0.581516,0.571655,0.562065,0.689361,0.601357
-0.008491,-0.038421,-0.025108,-0.094799,-0.034968,-0.059946,-0.103491,0.004276,0.487902,0.548444,0.515568,0.587833,0.571369,0.562779,0.691497,0.600489
-0.012882,-0.042146,-0.026975,-0.099212,-0.033936,-0.064066,-0.104838,0.005689,0.493226,0.551624,0.515933,0.590367,0.573289,0.564053,0.691838,0.598886
-0.019059,-0.039871,-0.026890,-0.098381,-0.038574,-0.061961,-0.103865,0.005274,0.500712,0.548484,0.515184,0.591136,0.573485,0.564343,0.690331,0.600805
-0.023615,-0.045314,-0.025957,-0.098518,-0.035865,-0.061968,-0.103492,0.004693,0.498538,0.551336,0.513310,0.591028,0.570673,0.563899,0.691096,0.600612
-0.010625,-0.045944,-0.023884,-0.100492,-0.035558,-0.060395,-0.102912,0.004659,0.487016,0.549705,0.514343,0.590497,0.569981,0.564394,0.688166,0.599781
-0.021578,-0.042348,-0.027885,-0.101550,-0.034619,-0.061307,-0.103238,0.003902,0.502985,0.549898,0.515608,0.592025,0.570047,0.564338,0.689188,0.601001
-0.018755,-0.047795,-0.029494,-0.099248,-0.032358,-0.061826,-0.104379,0.005163,0.495242,0.548191,0.515970,0.587373,0.567311,0.564258,0.689170,0.600158
-0.020884,-0.043336,-0.025598,-0.098072,-0.035552,-0.060578,-0.105272,0.004291,0.492866,0.550844,0.515162,0.588181,0.571297,0.563632,0.690318,0.599900
-0.022719,-0.049840,-0.029028,-0.099312,-0.036954,-0.059238,-0.104353,0.005400,0.494736,0.553397,0.514094,0.588661,0.571068,0.562634,0.691067,0.599213
-0.013358,-0.045222,-0.028506,-0.103059,-0.037228,-0.059712,-0.103740,0.005756,0.490049,0.552727,0.515638,0.593016,0.572643,0.563189,0.689966,0.597797
-0.011931,-0.041707,-0.026179,-0.102721,-0.034491,-0.059609,-0.105001,0.006265,0.495840,0.552595,0.514943,0.589240,0.572402,0.562480,0.690471,0.598488
-0.010737,-0.044889,-0.025665,-0.100630,-0.034520,-0.062381,-0.105540,0.005161,0.487057,0.552631,0.516005,0.594100,0.571514,0.564143,0.689249,0.599276
-0.008373,-0.053398,-0.024816,-0.099165,-0.038383,-0.061402,-0.105420,0.006130,0.491637,0.551409,0.514709,0.588631,0.570093,0.564459,0.690983,0.598244
-0.017235,-0.036315,-0.025826,-0.103018,-0.037429,-0.062733,-0.104589,0.006806,0.496618,0.549744,0.516309,0.592122,0.570076,0.566269,0.690727,0.599657
-0.019428,-0.048718,-0.032360,-0.101495,-0.037090,-0.063079,-0.105408,0.005923,0.497899,0.553356,0.518454,0.593004,0.572488,0.567394,0.691075,0.598198
-0.011347,-0.043394,-0.029050,-0.100152,-0.038100,-0.064493,-0.104731,0.005720,0.490015,0.549955,0.517813,0.592246,0.571159,0.567406,0.690924,0.600515
-0.014817,-0.049913,-0.030078,-0.103177,-0.035774,-0.059712,-0.106679,0.006798,0.488734,0.553750,0.516290,0.592659,0.571288,0.565074,0.689770,0.599967
-0.018908,-0.045807,-0.027075,-0.102254,-0.036845,-0.061806,-0.106263,0.005867,0.505273,0.552402,0.515007,0.591533,0.575522,0.564546,0.690345,0.599175
-0.012361,-0.044397,-0.027673,-0.103226,-0.035947,-0.065244,-0.105669,0.006442,0.495787,0.551456,0.517062,0.594112,0.572403,0.566087,0.689772,0.599236
-0.008948,-0.043582,-0.025717,-0.098825,-0.036834,-0.063317,-0.105705,0.005566,0.494165,0.554181,0.516353,0.589581,0.573140,0.564395,0.689678,0.600442
-0.025659,-0.045857,-0.026541,-0.101280,-0.039446,-0.061692,-0.106782,0.005631,0.496289,0.552571,0.515399,0.588891,0.573259,0.565299,0.689057,0.599442
-0.016360,-0.046731,-0.035784,-0.105283,-0.035326,-0.063566,-0.106413,0.005897,0.493213,0.553644,0.519352,0.592494,0.572859,0.565868,0.689977,0.599201
-0.014499,-0.051623,-0.028292,-0.101504,-0.037468,-0.063099,-0.106899,0.005895,0.492236,0.552840,0.518718,0.591041,0.576831,0.564587,0.691390,0.598638
-0.020547,-0.048869,-0.023765,-0.097279,-0.038287,-0.063246,-0.106610,0.004386,0.494546,0.551679,0.517352,0.593076,0.574543,0.566726,0.688319,0.598916
-0.006223,-0.043999,-0.030809,-0.102477,-0.036277,-0.059515,-0.107520,0.004823,0.489142,0.553445,0.518703,0.595222,0.574675,0.565020,0.689884,0.599390
-0.008265,-0.046316,-0.029570,-0.098661,-0.035615,-0.060395,-0.106766,0.004964,0.494047,0.554496,0.515373,0.595375,0.573189,0.564017,0.689490,0.599210
-0.018925,-0.043585,-0.025429,-0.097073,-0.036316,-0.061544,-0.107296,0.005942,0.494387,0.553391,0.515091,0.588877,0.573557,0.566029,0.690102,0.598783
-0.016609,-0.040903,-0.028480,-0.098921,-0.035089,-0.061459,-0.107705,0.006145,0.496334,0.549171,0.515055,0.588284,0.573162,0.566601,0.689907,0.597457
-0.016353,-0.046449,-0.028388,-0.100221,-0.033873,-0.060757,-0.106919,0.006807,0.506376,0.551893,0.516142,0.593527,0.569258,0.567116,0.689306,0.598628
-0.022170,-0.042277,-0.025923,-0.102985,-0.035282,-0.060785,-0.108351,0.006764,0.500917,0.550751,0.517010,0.594709,0.569183,0.566725,0.689747,0.597706
-0.020959,-0.045351,-0.029584,-0.098926,-0.035585,-0.062910,-0.107274,0.007758,0.498173,0.548368,0.516470,0.590189,0.571599,0.566274,0.690677,0.598495
-0.018283,-0.043814,-0.028150,-0.101548,-0.034611,-0.059016,-0.109043,0.007956,0.493088,0.549707,0.517136,0.593776,0.571527,0.565283,0.688776,0.598715
-0.011959,-0.045798,-0.029047,-0.101293,-0.036419,-0.061281,-0.109361,0.007299,0.494539,0.549675,0.518445,0.590618,0.572803,0.565520,0.689205,0.599058
-0.006305,-0.045876,-0.027508,-0.103031,-0.037122,-0.061196,-0.109840,0.006733,0.497021,0.553132,0.517420,0.592300,0.573648,0.566240,0.689625,0.599624
-0.010570,-0.044744,-0.026825,-0.102018,-0.036396,-0.061300,-0.109083,0.007577,0.493540,0.550784,0.516869,0.593323,0.570992,0.565672,0.690346,0.599200
-0.011732,-0.042479,-0.029115,-0.101708,-0.035863,-0.061517,-0.109272,0.005343,0.496224,0.548748,0.517408,0.594499,0.571186,0.567332,0.689367,0.599987
-0.018642,-0.047875,-0.026552,-0.098072,-0.037201,-0.064267,-0.109332,0.007571,0.502302,0.550831,0.518459,0.597280,0.571029,0.568526,0.689325,0.598820
-0.010808,-0.049293,-0.028470,-0.099538,-0.034935,-0.063403,-0.109713,0.007484,0.497205,0.552854,0.518406,0.591372,0.572546,0.566333,0.691177,0.597645
-0.015384,-0.050269,-0.029092,-0.102618,-0.036083,-0.063136,-0.110194,0.007592,0.498062,0.552932,0.518888,0.593422,0.570987,0.566674,0.689994,0.599014
-0.016108,-0.045622,-0.029969,-0.100760,-0.037468,-0.063607,-0.109948,0.007777,0.499572,0.551305,0.518161,0.593386,0.572594,0.568013,0.690181,0.598139
-0.014489,-0.044834,-0.029216,-0.101238,-0.037922,-0.063350,-0.109730,0.007905,0.489644,0.545042,0.518545,0.592450,0.574748,0.566993,0.688915,0.598945
-0.024791,-0.040816,-0.028372,-0.101226,-0.037323,-0.061064,-0.110379,0.008444,0.501682,0.548635,0.519344,0.591394,0.571853,0.566895,0.690158,0.597245
-0.015764,-0.042874,-0.027157,-0.102422,-0.040294,-0.062920,-0.109819,0.007601,0.498256,0.554485,0.517885,0.590763,0.572461,0.568295,0.689789,0.597803
-0.008454,-0.044388,-0.027811,-0.100832,-0.036829,-0.062271,-0.109846,0.007226,0.485342,0.550785,0.517966,0.590922,0.569752,0.569285,0.690071,0.598478
-0.011132,-0.048970,-0.028311,-0.105911,-0.038131,-0.062740,-0.110626,0.006875,0.497833,0.551327,0.518130,0.598960,0.568596,0.570474,0.691309,0.597844
-0.017666,-0.046051,-0.027283,-0.101756,-0.036887,-0.061978,-0.109857,0.007622,0.495877,0.549344,0.518208,0.594267,0.565691,0.570007,0.689646,0.598455
-0.012188,-0.049089,-0.027199,-0.099703,-0.036982,-0.061313,-0.110539,0.008577,0.500316,0.552023,0.518923,0.590725,0.567004,0.568655,0.690287,0.598522
-0.019501,-0.048882,-0.026009,-0.099352,-0.036501,-0.063450,-0.110468,0.007246,0.498038,0.549991,0.518658,0.590067,0.569102,0.568094,0.690090,0.599504
-0.011638,-0.045156,-0.024616,-0.096670,-0.035660,-0.063548,-0.108528,0.006953,0.497871,0.547403,0.517344,0.589856,0.569869,0.567545,0.690324,0.597753
-0.019361,-0.043053,-0.028940,-0.102039,-0.035837,-0.064486,-0.110247,0.006980,0.499795,0.545751,0.519925,0.594619,0.571229,0.569066,0.690673,0.597069
-0.015816,-0.046396,-0.025404,-0.101366,-0.035359,-0.060204,-0.109433,0.006878,0.494171,0.551718,0.517891,0.594707,0.573962,0.566588,0.688900,0.597319
-0.023612,-0.040969,-0.028025,-0.099503,-0.034918,-0.062437,-0.109796,0.007283,0.495461,0.553195,0.518020,0.596050,0.569700,0.567642,0.689480,0.596423
-0.015989,-0.047828,-0.028320,-0.105836,-0.037859,-0.064402,-0.109234,0.007730,0.497018,0.552516,0.515917,0.596273,0.570499,0.568884,0.688748,0.596938
-0.008914,-0.045532,-0.030677,-0.099741,-0.035465,-0.063794,-0.109871,0.006099,0.499588,0.549631,0.516162,0.592841,0.569061,0.568538,0.689511,0.597695
-0.018025,-0.044638,-0.026437,-0.098361,-0.035761,-0.062943,-0.109635,0.006739,0.493855,0.549587,0.518320,0.596002,0.567864,0.570539,0.689304,0.597878
-0.011874,-0.044127,-0.031440,-0.102728,-0.036519,-0.062177,-0.111158,0.006230,0.498421,0.551203,0.519367,0.601075,0.572268,0.569017,0.689298,0.597109
-0.019273,-0.050998,-0.029137,-0.104165,-0.038901,-0.065312,-0.110322,0.008109,0.493438,0.553124,0.519657,0.596039,0.572933,0.569869,0.689123,0.596763
-0.018354,-0.044061,-0.028768,-0.103060,-0.037491,-0.061371,-0.110739,0.007010,0.492897,0.552369,0.521414,0.598805,0.569491,0.567929,0.689262,0.598124
-0.013828,-0.045057,-0.027335,-0.102149,-0.037836,-0.063857,-0.111149,0.007694,0.489107,0.552709,0.519399,0.595330,0.569781,0.568962,0.689773,0.596468
-0.014027,-0.043806,-0.029882,-0.100708,-0.036561,-0.059932,-0.111696,0.007671,0.495378,0.549859,0.520488,0.594958,0.569983,0.566392,0.688775,0.596432
-0.015756,-0.048826,-0.032033,-0.100139,-0.037783,-0.060863,-0.112402,0.007964,0.487840,0.548908,0.523214,0.595138,0.572319,0.568052,0.689204,0.594595
-0.017528,-0.044894,-0.026806,-0.101891,-0.036916,-0.063017,-0.110938,0.008368,0.487117,0.548233,0.519915,0.594672,0.572227,0.567647,0.689343,0.596287
-0.013108,-0.045737,-0.030220,-0.104015,-0.036158,-0.062576,-0.111913,0.008228,0.494264,0.552709,0.521235,0.591823,0.570922,0.569239,0.690038,0.597246
-0.018463,-0.044445,-0.028412,-0.103654,-0.036954,-0.061372,-0.110580,0.007316,0.502356,0.550212,0.518955,0.598055,0.569911,0.568475,0.690041,0.598158
-0.018012,-0.044477,-0.029220,-0.103377,-0.035437,-0.064276,-0.110109,0.006809,0.496601,0.549856,0.519703,0.597892,0.569377,0.571286,0.690449,0.597450
-0.006560,-0.045902,-0.025617,-0.103538,-0.035244,-0.065539,-0.112062,0.007968,0.496907,0.551045,0.520468,0.597192,0.567479,0.571060,0.690827,0.596355
-0.006269,-0.046971,-0.029802,-0.099840,-0.034472,-0.062398,-0.111462,0.007266,0.494980,0.549265,0.520598,0.599171,0.565977,0.572817,0.690232,0.597062
-0.017171,-0.040753,-0.031658,-0.112841,-0.033142,-0.062726,-0.111987,0.008276,0.499843,0.545849,0.521729,0.602787,0.567463,0.572273,0.690437,0.596007
-0.011674,-0.047124,-0.027513,-0.102278,-0.036780,-0.065077,-0.112045,0.007708,0.495816,0.547675,0.520202,0.600524,0.568472,0.571442,0.690078,0.595613
-0.009147,-0.043539,-0.028036,-0.105745,-0.035711,-0.063762,-0.111785,0.006569,0.497653,0.549062,0.519882,0.599856,0.573662,0.570190,0.689628,0.597101
-0.014896,-0.043401,-0.026910,-0.106414,-0.036470,-0.064933,-0.111829,0.006703,0.496663,0.550433,0.522043,0.601012,0.571591,0.571285,0.689326,0.596922
-0.013163,-0.047362,-0.029782,-0.105850,-0.037902,-0.063937,-0.111720,0.007038,0.494824,0.547138,0.521449,0.599349,0.570385,0.571626,0.689397,0.596624
-0.016934,-0.042565,-0.029689,-0.098685,-0.038783,-0.061607,-0.113134,0.008049,0.491813,0.548478,0.521832,0.593599,0.568704,0.568720,0.689296,0.596364
-0.019969,-0.042744,-0.026642,-0.108002,-0.038402,-0.063412,-0.111571,0.007714,0.495806,0.551108,0.519248,0.595848,0.572104,0.570280,0.690297,0.596710
-0.015382,-0.043336,-0.027475,-0.105869,-0.035392,-0.063221,-0.111833,0.007207,0.498466,0.552520,0.521448,0.594027,0.569574,0.569880,0.690319,0.596172
-0.012224,-0.046922,-0.029980,-0.107296,-0.038652,-0.062110,-0.112941,0.007798,0.489714,0.550652,0.520769,0.597190,0.569761,0.569729,0.688827,0.597296
-0.014532,-0.046391,-0.029716,-0.102340,-0.036606,-0.065483,-0.112457,0.007399,0.492070,0.550843,0.520498,0.594624,0.568436,0.572221,0.690092,0.598136
-0.014842,-0.042573,-0.027107,-0.106387,-0.036465,-0.064144,-0.112406,0.007813,0.493628,0.551042,0.519843,0.595527,0.567625,0.573211,0.688546,0.597420
-0.006487,-0.044368,-0.027596,-0.105161,-0.038280,-0.063746,-0.113124,0.006947,0.494887,0.552076,0.521580,0.594724,0.568239,0.574479,0.689192,0.598226
-0.011391,-0.043961,-0.030297,-0.101662,-0.038218,-0.065417,-0.112710,0.008075,0.494181,0.551419,0.521579,0.600209,0.567326,0.573546,0.688076,0.596976
-0.016128,-0.047403,-0.027441,-0.103018,-0.037327,-0.066205,-0.112961,0.008406,0.504167,0.551306,0.519434,0.594396,0.567679,0.575484,0.687658,0.597229
-0.010036,-0.043717,-0.026218,-0.103563,-0.038678,-0.063849,-0.112380,0.007117,0.499031,0.549053,0.519621,0.596384,0.567931,0.574244,0.689758,0.597684
-0.015224,-0.044482,-0.031298,-0.101712,-0.036265,-0.064856,-0.112844,0.008123,0.500654,0.549926,0.521913,0.598730,0.567482,0.574027,0.690915,0.597648
-0.004875,-0.047159,-0.027408,-0.105750,-0.037909,-0.061920,-0.113372,0.007737,0.489745,0.548831,0.520768,0.598635,0.566018,0.575213,0.689855,0.598038
-0.020153,-0.045743,-0.025900,-0.101902,-0.038625,-0.063656,-0.113574,0.008019,0.495935,0.549522,0.519456,0.593457,0.566835,0.573765,0.689721,0.597742
-0.012083,-0.044865,-0.029009,-0.100773,-0.037562,-0.063735,-0.113078,0.007940,0.497378,0.552997,0.519675,0.595229,0.564280,0.575885,0.689873,0.597846
-0.017111,-0.040577,-0.025943,-0.104946,-0.035684,-0.066039,-0.113488,0.007698,0.493412,0.550396,0.517988,0.598347,0.562533,0.575043,0.689838,0.598649
-0.008551,-0.044455,-0.027477,-0.101814,-0.037749,-0.063618,-0.113841,0.007399,0.496774,0.551747,0.518863,0.595697,0.564396,0.574631,0.690240,0.596895
-0.023790,-0.045832,-0.025633,-0.101823,-0.037668,-0.062912,-0.114063,0.006806,0.499604,0.548967,0.517780,0.593229,0.565450,0.572751,0.690263,0.595876
-0.013226,-0.045766,-0.028929,-0.105109,-0.037339,-0.062900,-0.115180,0.008035,0.497948,0.549503,0.519026,0.596221,0.568535,0.573892,0.689114,0.597497
-0.017210,-0.043523,-0.030469,-0.104110,-0.036357,-0.063819,-0.114028,0.007326,0.494719,0.550167,0.521254,0.598740,0.568014,0.572329,0.687992,0.597022
-0.014137,-0.042406,-0.026488,-0.106517,-0.036350,-0.059682,-0.114648,0.008630,0.496306,0.550738,0.519502,0.597450,0.569080,0.571937,0.689491,0.596939
-0.010208,-0.048902,-0.026132,-0.105535,-0.038186,-0.062816,-0.114942,0.006926,0.495111,0.550376,0.518935,0.597639,0.566168,0.571555,0.688467,0.597386
-0.012863,-0.039434,-0.025153,-0.104421,-0.037166,-0.062934,-0.116078,0.007693,0.495101,0.549873,0.520261,0.593421,0.568721,0.572362,0.690198,0.596980
-0.019629,-0.042751,-0.028038,-0.100755,-0.035908,-0.065151,-0.116112,0.007831,0.493864,0.549880,0.519538,0.597919,0.567177,0.573022,0.690840,0.595430
-0.003969,-0.045888,-0.028440,-0.104730,-0.036454,-0.064243,-0.116099,0.007393,0.490381,0.552169,0.520163,0.597728,0.565633,0.576023,0.689357,0.596936
-0.019455,-0.047065,-0.026290,-0.104094,-0.036607,-0.065496,-0.114918,0.009160,0.498405,0.551122,0.520158,0.599890,0.567092,0.572229,0.689541,0.594453
-0.012389,-0.045144,-0.027485,-0.105728,-0.037998,-0.062314,-0.114903,0.008216,0.496784,0.550040,0.519828,0.603730,0.566740,0.573445,0.690273,0.596035
-0.012759,-0.046969,-0.025842,-0.106750,-0.037646,-0.063458,-0.114943,0.008120,0.498127,0.552230,0.518948,0.602054,0.566354,0.577773,0.688426,0.595838
-0.006938,-0.045003,-0.027643,-0.104018,-0.036111,-0.062878,-0.115776,0.007108,0.510031,0.550299,0.519749,0.596602,0.565709,0.574066,0.688546,0.597403
-0.010193,-0.042082,-0.027841,-0.101915,-0.038768,-0.060837,-0.115970,0.007464,0.497912,0.552240,0.517516,0.591365,0.568698,0.573063,0.690083,0.596558
-0.014125,-0.030962,-0.024902,-0.100493,-0.037541,-0.061131,-0.115840,0.007205,0.528825,0.556655,0.523215,0.593028,0.569780,0.574186,0.689717,0.599111
-0.017607,-0.029008,-0.022521,-0.098649,-0.035278,-0.059877,-0.116106,0.007483,0.547711,0.559057,0.527053,0.593917,0.571205,0.575466,0.689478,0.600151
-0.012196,-0.027443,-0.023351,-0.097198,-0.033835,-0.059520,-0.116246,0.007139,0.553716,0.561038,0.530640,0.594609,0.572546,0.576409,0.689322,0.601373
-0.013559,-0.025557,-0.022580,-0.096921,-0.031986,-0.058926,-0.116324,0.006873,0.563957,0.562496,0.533605,0.595102,0.573537,0.577461,0.689226,0.601899
-0.012784,-0.023059,-0.022285,-0.094816,-0.031098,-0.058006,-0.116484,0.007189,0.569540,0.563895,0.535622,0.595588,0.574318,0.578510,0.689110,0.603002
-0.016112,-0.022014,-0.022547,-0.093374,-0.030249,-0.057881,-0.116430,0.007330,0.572063,0.565011,0.537458,0.596018,0.575135,0.579365,0.689057,0.603857
-0.014743,-0.022100,-0.021471,-0.092245,-0.029366,-0.057089,-0.116651,0.007166,0.579126,0.566384,0.539341,0.596394,0.575630,0.580223,0.688936,0.604990
-0.012841,-0.020587,-0.021361,-0.090665,-0.028729,-0.056291,-0.116952,0.006659,0.578225,0.567452,0.541392,0.596622,0.576001,0.580686,0.688872,0.605489
-0.010304,-0.020335,-0.020405,-0.090218,-0.028132,-0.055628,-0.116962,0.007059,0.578255,0.568600,0.542495,0.596688,0.576334,0.581476,0.688815,0.606004
-0.011502,-0.020437,-0.020689,-0.090012,-0.027859,-0.055280,-0.117012,0.006598,0.581992,0.568704,0.543713,0.596830,0.576791,0.582393,0.688777,0.606606
-0.014175,-0.019174,-0.020475,-0.088061,-0.027098,-0.054457,-0.117218,0.006605,0.585641,0.569394,0.544917,0.597274,0.577196,0.582875,0.688798,0.607635
-0.011195,-0.017520,-0.019678,-0.088351,-0.026563,-0.054961,-0.117140,0.006094,0.586906,0.569476,0.545625,0.597463,0.577341,0.583553,0.688686,0.608030
-0.011742,-0.016818,-0.019745,-0.087329,-0.026343,-0.054158,-0.117279,0.007209,0.587405,0.570083,0.546529,0.597494,0.577579,0.584084,0.688733,0.608060
-0.012106,-0.017154,-0.019828,-0.086164,-0.026028,-0.053544,-0.117357,0.006963,0.588095,0.570408,0.547618,0.597625,0.577590,0.584577,0.688690,0.608713
-0.015978,-0.016995,-0.019620,-0.085682,-0.025738,-0.053071,-0.117482,0.007135,0.591574,0.570340,0.548151,0.597899,0.577566,0.585005,0.688649,0.608781
-0.011266,-0.015342,-0.018723,-0.085238,-0.025263,-0.052416,-0.117579,0.007097,0.591583,0.570751,0.549026,0.598012,0.577696,0.585655,0.688634,0.609555
-0.010599,-0.015409,-0.018393,-0.084920,-0.025342,-0.051999,-0.117440,0.006986,0.592277,0.570336,0.550078,0.598001,0.577894,0.586267,0.688567,0.610173
-0.011551,-0.015777,-0.018609,-0.083417,-0.024961,-0.051276,-0.117571,0.007197,0.593411,0.570768,0.550561,0.598073,0.578075,0.586757,0.688559,0.610093
-0.009934,-0.016973,-0.017902,-0.082338,-0.023961,-0.050739,-0.117593,0.006611,0.590555,0.570996,0.551026,0.598292,0.578258,0.587078,0.688528,0.610802
-0.009267,-0.014473,-0.017734,-0.082349,-0.023989,-0.050709,-0.117739,0.006327,0.589045,0.571210,0.551735,0.598444,0.578323,0.587365,0.688482,0.611944
-0.012855,-0.015318,-0.017617,-0.081681,-0.023576,-0.050884,-0.117694,0.007005,0.592390,0.571148,0.552208,0.598643,0.578252,0.587664,0.688432,0.612527
-0.014482,-0.013704,-0.016511,-0.080741,-0.023602,-0.050731,-0.117826,0.006967,0.593275,0.570972,0.552763,0.598851,0.578305,0.588177,0.688488,0.612428
-0.011058,-0.014215,-0.016103,-0.080860,-0.023198,-0.050533,-0.117815,0.007245,0.592106,0.570782,0.553376,0.599015,0.578505,0.588641,0.688487,0.612659
-0.011400,-0.013965,-0.015575,-0.080030,-0.023800,-0.050561,-0.117931,0.006775,0.593283,0.570818,0.553563,0.599190,0.578660,0.588899,0.688547,0.613464
-0.013605,-0.013129,-0.015316,-0.079754,-0.023214,-0.049393,-0.118267,0.006707,0.593848,0.570929,0.554159,0.599230,0.578696,0.589306,0.688478,0.613019
-0.016239,-0.012391,-0.016415,-0.078933,-0.022491,-0.049310,-0.118194,0.006422,0.593629,0.571139,0.554634,0.599233,0.578622,0.589448,0.688402,0.613717
-0.013730,-0.012670,-0.016968,-0.078591,-0.021985,-0.049609,-0.118405,0.006378,0.596702,0.571339,0.554971,0.599066,0.578640,0.589592,0.688398,0.614075
-0.012758,-0.012978,-0.015880,-0.077992,-0.021775,-0.049022,-0.118358,0.006352,0.593434,0.572243,0.555032,0.599146,0.578907,0.589748,0.688376,0.614731
-0.006512,-0.012883,-0.016031,-0.077887,-0.021778,-0.049531,-0.118323,0.006366,0.593642,0.572255,0.555341,0.599310,0.578967,0.590007,0.688379,0.614639
-0.012978,-0.013249,-0.016613,-0.077394,-0.021612,-0.049474,-0.118240,0.006377,0.595634,0.572549,0.555865,0.599524,0.578964,0.590577,0.688375,0.614790
-0.013961,-0.013599,-0.016809,-0.077407,-0.021605,-0.048861,-0.118369,0.006502,0.593238,0.572574,0.556373,0.599671,0.579149,0.590673,0.688449,0.614939
-0.011545,-0.013077,-0.015847,-0.076955,-0.021512,-0.048065,-0.118462,0.005725,0.591686,0.572575,0.556482,0.599675,0.579224,0.591051,0.688447,0.615770
-0.012711,-0.012547,-0.016498,-0.076580,-0.021311,-0.048281,-0.118473,0.006545,0.592749,0.572520,0.557215,0.599826,0.579341,0.591266,0.688472,0.615645
-0.009488,-0.011701,-0.016098,-0.076420,-0.021187,-0.047923,-0.118568,0.006532,0.595433,0.572574,0.557470,0.599955,0.579255,0.591560,0.688577,0.615757
-0.010332,-0.011104,-0.016558,-0.076280,-0.020681,-0.047231,-0.118517,0.006599,0.594108,0.572567,0.557692,0.599917,0.578989,0.591592,0.688539,0.616451
-0.009632,-0.010661,-0.015126,-0.076219,-0.020821,-0.047052,-0.118535,0.006466,0.593954,0.572755,0.557818,0.599997,0.578967,0.591735,0.688555,0.616707
-0.012266,-0.010963,-0.015763,-0.076314,-0.020736,-0.046361,-0.118655,0.006552,0.594805,0.573134,0.558126,0.600084,0.579103,0.591933,0.688545,0.616699
-0.013326,-0.011306,-0.015840,-0.075457,-0.020545,-0.046398,-0.118818,0.006922,0.594868,0.572998,0.558224,0.600036,0.579008,0.592179,0.688557,0.616364
-0.012117,-0.012421,-0.015542,-0.075544,-0.020318,-0.046710,-0.118733,0.007095,0.594718,0.573093,0.558608,0.600088,0.579149,0.592352,0.688549,0.617290
-0.010722,-0.011588,-0.015562,-0.074955,-0.020248,-0.045939,-0.118772,0.006808,0.593278,0.573006,0.558514,0.600251,0.579069,0.592494,0.688537,0.617583
-0.011671,-0.010464,-0.014957,-0.074457,-0.019927,-0.045618,-0.118889,0.006647,0.595381,0.573310,0.558648,0.600414,0.578889,0.592513,0.688509,0.618401
-0.012051,-0.009618,-0.015292,-0.074146,-0.019939,-0.045431,-0.118912,0.006595,0.596413,0.573606,0.558633,0.600597,0.579016,0.592559,0.688483,0.618464
-0.014506,-0.010592,-0.015645,-0.074232,-0.020173,-0.045000,-0.118941,0.006969,0.599835,0.573977,0.558867,0.600818,0.579005,0.592963,0.688576,0.618416
-0.014434,-0.011083,-0.015911,-0.074037,-0.020241,-0.045149,-0.119021,0.006499,0.598564,0.574242,0.558593,0.600639,0.578856,0.593294,0.688570,0.618514
-0.011112,-0.010735,-0.015814,-0.074102,-0.020031,-0.045179,-0.118939,0.006122,0.599050,0.574219,0.558689,0.600698,0.578826,0.593625,0.688528,0.618743
-0.012026,-0.010064,-0.016263,-0.072890,-0.019771,-0.045315,-0.119071,0.006360,0.595122,0.573984,0.558855,0.600878,0.578757,0.593935,0.688490,0.618446
-0.014105,-0.010501,-0.015960,-0.072886,-0.019897,-0.045548,-0.119183,0.006163,0.594505,0.573682,0.559285,0.601037,0.578653,0.594407,0.688521,0.618987
-0.014598,-0.010085,-0.015508,-0.073173,-0.019456,-0.044665,-0.119091,0.006392,0.597219,0.573429,0.559370,0.600977,0.578585,0.594442,0.688463,0.619312
-0.013546,-0.010153,-0.015103,-0.072877,-0.019629,-0.044702,-0.119208,0.005479,0.598841,0.573737,0.559618,0.601081,0.578598,0.594250,0.688445,0.619166
-0.013804,-0.009800,-0.015672,-0.072483,-0.019183,-0.045047,-0.119074,0.005700,0.594674,0.573793,0.559955,0.601530,0.578619,0.594497,0.688374,0.619545
-0.013804,-0.009800,-0.015672,-0.072482,-0.019183,-0.045047,-0.119074,0.005700,0.594674,0.573792,0.559955,0.601531,0.578619,0.594498,0.688374,0.619545
-0.013804,-0.009801,-0.015672,-0.072482,-0.019183,-0.045047,-0.119074,0.005694,0.594674,0.573793,0.559955,0.601531,0.578619,0.594498,0.688374,0.619539
-0.013804,-0.009802,-0.015672,-0.072482,-0.019184,-0.045047,-0.119075,0.005694,0.594674,0.573794,0.559955,0.601532,0.578619,0.594498,0.688374,0.619539
-0.013804,-0.009802,-0.015672,-0.072482,-0.019184,-0.045047,-0.119075,0.005700,0.594674,0.573793,0.559956,0.601532,0.578619,0.594498,0.688374,0.619545
-0.013820,-0.009802,-0.015672,-0.072483,-0.019184,-0.045047,-0.119075,0.005700,0.594664,0.573792,0.559956,0.601532,0.578619,0.594498,0.688374,0.619545
-0.013800,-0.009802,-0.015671,-0.072483,-0.019185,-0.045048,-0.119075,0.005700,0.594692,0.573792,0.559956,0.601532,0.578620,0.594499,0.688374,0.619545
-0.013800,-0.009803,-0.015670,-0.072483,-0.019185,-0.045048,-0.119075,0.005700,0.594692,0.573792,0.559955,0.601533,0.578620,0.594499,0.688374,0.619545
